{"learner":{"attributes":{"best_iteration":"3","best_score":"0.01006245270169879"},"feature_names":[],"feature_types":[],"gradient_booster":{"model":{"cats":{"enc":[],"feature_segments":[],"sorted_idx":[]},"gbtree_model_param":{"num_parallel_tree":"1","num_trees":"54"},"iteration_indptr":[0,1,2,3,4,5,6,7,8,9,10,11,12,13,14,15,16,17,18,19,20,21,22,23,24,25,26,27,28,29,30,31,32,33,34,35,36,37,38,39,40,41,42,43,44,45,46,47,48,49,50,51,52,53,54],"tree_info":[0,0,0,0,0,0,0,0,0,0,0,0,0,0,0,0,0,0,0,0,0,0,0,0,0,0,0,0,0,0,0,0,0,0,0,0,0,0,0,0,0,0,0,0,0,0,0,0,0,0,0,0,0,0],"trees":[{"base_weights":[-1.9541144E-10,7.0295134E-3,-6.75915E-4,4.2466865E-5,8.574558E-4,1.9042674E-3,-2.3480372E-3,-1.6850616E-4,6.0210354E-4,-2.731913E-4,4.776055E-4],"categories":[],"categories_nodes":[],"categories_segments":[],"categories_sizes":[],"default_left":[0,0,0,0,0,0,0,0,0,0,0],"id":0,"left_children":[1,3,5,-1,-1,7,9,-1,-1,-1,-1],"loss_changes":[2.7082706E-4,4.738255E-5,2.2881907E-4,0E0,0E0,3.2045093E-4,1.0056027E-4,0E0,0E0,0E0,0E0],"parents":[2147483647,0,0,1,1,2,2,5,5,6,6],"right_children":[2,4,6,-1,-1,8,10,-1,-1,-1,-1],"split_conditions":[-1.1323032E0,-1.656665E0,-1.5664114E-1,4.2466865E-5,8.574558E-4,1.692887E-1,3.4157064E0,-1.6850616E-4,6.0210354E-4,-2.731913E-4,4.776055E-4],"split_indices":[16,0,3,0,0,10,2,0,0,0,0],"split_type":[0,0,0,0,0,0,0,0,0,0,0],"sum_hessian":[5.5E1,4E0,5.1E1,1E0,3E0,2E1,3.1E1,1.1E1,9E0,3E1,1E0],"tree_param":{"num_deleted":"0","num_feature":"24","num_nodes":"11","size_leaf_vector":"1"}},{"base_weights":[2.7463035E-5,6.5065464E-3,-5.960539E-4,4.0343522E-5,7.9314655E-4,-1.6455696E-3,3.0394625E-3,-2.363148E-4,5.582818E-4,-2.4578496E-4,7.3172356E-4],"categories":[],"categories_nodes":[],"categories_segments":[],"categories_sizes":[],"default_left":[0,0,0,0,0,0,0,0,0,0,0],"id":1,"left_children":[1,3,5,-1,-1,7,9,-1,-1,-1,-1],"loss_changes":[2.3010808E-4,4.028238E-5,2.0340929E-4,0E0,0E0,2.2585737E-4,3.001797E-4,0E0,0E0,0E0,0E0],"parents":[2147483647,0,0,1,1,2,2,5,5,6,6],"right_children":[2,4,6,-1,-1,8,10,-1,-1,-1,-1],"split_conditions":[-1.1323032E0,-1.656665E0,6.9109535E-1,4.0343522E-5,7.9314655E-4,9.169559E-1,2.7765822E-1,-2.363148E-4,5.582818E-4,-2.4578496E-4,7.3172356E-4],"split_indices":[16,0,9,0,0,15,16,0,0,0,0],"split_type":[0,0,0,0,0,0,0,0,0,0,0],"sum_hessian":[5.5E1,4E0,5.1E1,1E0,3E0,4E1,1.1E1,3.7E1,3E0,5E0,6E0],"tree_param":{"num_deleted":"0","num_feature":"24","num_nodes":"11","size_leaf_vector":"1"}},{"base_weights":[5.4027343E-5,6.02259E-3,-5.2091194E-4,3.8326347E-5,7.3366065E-4,-1.4731599E-3,2.7760111E-3,-2.1330522E-4,5.164106E-4,-2.2530288E-4,6.690044E-4],"categories":[],"categories_nodes":[],"categories_segments":[],"categories_sizes":[],"default_left":[0,0,0,0,0,0,0,0,0,0,0],"id":2,"left_children":[1,3,5,-1,-1,7,9,-1,-1,-1,-1],"loss_changes":[1.9530467E-4,3.423897E-5,1.6734289E-4,0E0,0E0,1.905904E-4,2.512788E-4,0E0,0E0,0E0,0E0],"parents":[2147483647,0,0,1,1,2,2,5,5,6,6],"right_children":[2,4,6,-1,-1,8,10,-1,-1,-1,-1],"split_conditions":[-1.1323032E0,-1.656665E0,6.9109535E-1,3.8326347E-5,7.3366065E-4,9.169559E-1,2.7765822E-1,-2.1330522E-4,5.164106E-4,-2.2530288E-4,6.690044E-4],"split_indices":[16,0,9,0,0,15,16,0,0,0,0],"split_type":[0,0,0,0,0,0,0,0,0,0,0],"sum_hessian":[5.5E1,4E0,5.1E1,1E0,3E0,4E1,1.1E1,3.7E1,3E0,5E0,6E0],"tree_param":{"num_deleted":"0","num_feature":"24","num_nodes":"11","size_leaf_vector":"1"}},{"base_weights":[7.574579E-5,5.574729E-3,-4.5445922E-4,3.6410034E-5,6.786361E-4,1.5790105E-3,-1.7747219E-3,-1.2418944E-4,4.8061955E-4,-2.0900294E-4,3.9999062E-4],"categories":[],"categories_nodes":[],"categories_segments":[],"categories_sizes":[],"default_left":[0,0,0,0,0,0,0,0,0,0,0],"id":3,"left_children":[1,3,5,-1,-1,7,9,-1,-1,-1,-1],"loss_changes":[1.6580643E-4,2.90959E-5,1.4240744E-4,0E0,0E0,1.9714398E-4,6.6625005E-5,0E0,0E0,0E0,0E0],"parents":[2147483647,0,0,1,1,2,2,5,5,6,6],"right_children":[2,4,6,-1,-1,8,10,-1,-1,-1,-1],"split_conditions":[-1.1323032E0,-1.656665E0,-1.5664114E-1,3.6410034E-5,6.786361E-4,1.692887E-1,3.4157064E0,-1.2418944E-4,4.8061955E-4,-2.0900294E-4,3.9999062E-4],"split_indices":[16,0,3,0,0,10,2,0,0,0,0],"split_type":[0,0,0,0,0,0,0,0,0,0,0],"sum_hessian":[5.5E1,4E0,5.1E1,1E0,3E0,2E1,3.1E1,1.1E1,9E0,3E1,1E0],"tree_param":{"num_deleted":"0","num_feature":"24","num_nodes":"11","size_leaf_vector":"1"}},{"base_weights":[9.0715126E-5,5.160265E-3,-3.984861E-4,3.458953E-5,6.2773837E-4,-9.962005E-4,3.5862776E-3,-2.0360724E-4,2.4975804E-4,6.1160716E-4,-1.8254713E-4],"categories":[],"categories_nodes":[],"categories_segments":[],"categories_sizes":[],"default_left":[0,0,0,0,0,0,0,0,0,0,0],"id":4,"left_children":[1,3,5,-1,-1,7,9,-1,-1,-1,-1],"loss_changes":[1.4093798E-4,2.471979E-5,1.2742367E-4,0E0,0E0,1.7220713E-4,1.06998974E-4,0E0,0E0,0E0,0E0],"parents":[2147483647,0,0,1,1,2,2,5,5,6,6],"right_children":[2,4,6,-1,-1,8,10,-1,-1,-1,-1],"split_conditions":[-1.1323032E0,-1.656665E0,9.169559E-1,3.458953E-5,6.2773837E-4,1.0671579E0,4.696295E-2,-2.0360724E-4,2.4975804E-4,6.1160716E-4,-1.8254713E-4],"split_indices":[16,0,15,0,0,10,3,0,0,0,0],"split_type":[0,0,0,0,0,0,0,0,0,0,0],"sum_hessian":[5.5E1,4E0,5.1E1,1E0,3E0,4.5E1,6E0,3.5E1,1E1,4E0,2E0],"tree_param":{"num_deleted":"0","num_feature":"24","num_nodes":"11","size_leaf_vector":"1"}},{"base_weights":[1.0195678E-4,-1.2110785E-3,1.7785636E-3,-1.905878E-3,4.128988E-4,7.943494E-4,8.971134E-4,-2.8889562E-4,1.5965042E-4,3.991873E-4,-4.299707E-5],"categories":[],"categories_nodes":[],"categories_segments":[],"categories_sizes":[],"default_left":[0,0,0,0,0,0,0,0,0,0,0],"id":5,"left_children":[1,3,5,7,-1,-1,9,-1,-1,-1,-1],"loss_changes":[1.2543483E-4,1.2659817E-4,1.2872578E-4,1.04462575E-4,0E0,0E0,9.617753E-5,0E0,0E0,0E0,0E0],"parents":[2147483647,0,0,1,1,2,2,3,3,6,6],"right_children":[2,4,6,8,-1,-1,10,-1,-1,-1,-1],"split_conditions":[7.173623E-2,9.0894574E-1,-4.467256E-1,9.068564E-1,4.128988E-4,7.943494E-4,-5.998183E-1,-2.8889562E-4,1.5965042E-4,3.991873E-4,-4.299707E-5],"split_indices":[9,15,11,23,0,0,22,0,0,0,0],"split_type":[0,0,0,0,0,0,0,0,0,0,0],"sum_hessian":[5.5E1,3.1E1,2.4E1,2.8E1,3E0,2E0,2.2E1,2.2E1,6E0,6E0,1.6E1],"tree_param":{"num_deleted":"0","num_feature":"24","num_nodes":"11","size_leaf_vector":"1"}},{"base_weights":[1.17371805E-4,-6.9362577E-4,2.3803404E-3,-1.679381E-3,2.2370825E-3,-1.985697E-3,4.7619287E-3,3.4051467E-4,-2.1318544E-4,4.198357E-4,-2.244737E-4,-2.7214302E-4,-3.4282046E-5,6.318799E-4,-9.770344E-5],"categories":[],"categories_nodes":[],"categories_segments":[],"categories_sizes":[],"default_left":[0,0,0,0,0,0,0,0,0,0,0,0,0,0,0],"id":6,"left_children":[1,3,5,7,9,11,13,-1,-1,-1,-1,-1,-1,-1,-1],"loss_changes":[1.0442573E-4,1.2509327E-4,1.6542734E-4,8.0878905E-5,1.0611507E-4,6.319353E-6,9.552187E-5,0E0,0E0,0E0,0E0,0E0,0E0,0E0,0E0],"parents":[2147483647,0,0,1,1,2,2,3,3,4,4,5,5,6,6],"right_children":[2,4,6,8,10,12,14,-1,-1,-1,-1,-1,-1,-1,-1],"split_conditions":[7.9296106E-1,1.0671579E0,-2.4956557E-1,-1.2368875E0,1.7568725E0,2.2700725E-2,1.3403265E0,3.4051467E-4,-2.1318544E-4,4.198357E-4,-2.244737E-4,-2.7214302E-4,-3.4282046E-5,6.318799E-4,-9.770344E-5],"split_indices":[15,10,0,16,16,3,0,0,0,0,0,0,0,0,0],"split_type":[0,0,0,0,0,0,0,0,0,0,0,0,0,0,0],"sum_hessian":[5.5E1,4.1E1,1.4E1,3.1E1,1E1,5E0,9E0,2E0,2.9E1,7E0,3E0,3E0,2E0,7E0,2E0],"tree_param":{"num_deleted":"0","num_feature":"24","num_nodes":"15","size_leaf_vector":"1"}},{"base_weights":[1.15463925E-4,-1.0228228E-3,1.5678523E-3,-1.590067E-3,3.3454036E-3,6.9926743E-4,7.920994E-4,-2.412938E-4,1.3408044E-4,3.8672792E-4,8.8988854E-5,3.4933796E-4,-3.667865E-5],"categories":[],"categories_nodes":[],"categories_segments":[],"categories_sizes":[],"default_left":[0,0,0,0,0,0,0,0,0,0,0,0,0],"id":7,"left_children":[1,3,5,7,9,-1,11,-1,-1,-1,-1,-1,-1],"loss_changes":[9.418477E-5,8.4610656E-5,9.966916E-5,7.317542E-5,1.6844424E-6,0E0,7.328227E-5,0E0,0E0,0E0,0E0,0E0,0E0],"parents":[2147483647,0,0,1,1,2,2,3,3,4,4,6,6],"right_children":[2,4,6,8,10,-1,12,-1,-1,-1,-1,-1,-1],"split_conditions":[7.173623E-2,9.0894574E-1,-4.467256E-1,9.068564E-1,1.6106988E-1,6.9926743E-4,-5.998183E-1,-2.412938E-4,1.3408044E-4,3.8672792E-4,8.8988854E-5,3.4933796E-4,-3.667865E-5],"split_indices":[9,15,11,23,0,0,22,0,0,0,0,0,0],"split_type":[0,0,0,0,0,0,0,0,0,0,0,0,0],"sum_hessian":[5.5E1,3.1E1,2.4E1,2.8E1,3E0,2E0,2.2E1,2.2E1,6E0,2E0,1E0,6E0,1.6E1],"tree_param":{"num_deleted":"0","num_feature":"24","num_nodes":"13","size_leaf_vector":"1"}},{"base_weights":[1.2856798E-4,-9.090249E-4,1.4515441E-3,-1.4347575E-3,3.1297924E-3,3.5764328E-3,-2.0347716E-4,-2.1821354E-4,1.2258782E-4,3.6094605E-4,8.453941E-5,-1.6549575E-4,4.9228483E-4,3.0789836E-4,-1.2806743E-4],"categories":[],"categories_nodes":[],"categories_segments":[],"categories_sizes":[],"default_left":[0,0,0,0,0,0,0,0,0,0,0,0,0,0,0],"id":8,"left_children":[1,3,5,7,9,11,13,-1,-1,-1,-1,-1,-1,-1,-1],"loss_changes":[7.819129E-5,7.243731E-5,8.864612E-5,6.0341536E-5,1.3315948E-6,8.562696E-5,5.698104E-5,0E0,0E0,0E0,0E0,0E0,0E0,0E0,0E0],"parents":[2147483647,0,0,1,1,2,2,3,3,4,4,5,5,6,6],"right_children":[2,4,6,8,10,12,14,-1,-1,-1,-1,-1,-1,-1,-1],"split_conditions":[7.173623E-2,9.0894574E-1,-1.7821799E-1,9.068564E-1,1.6106988E-1,-4.692982E-1,-1.9565757E-1,-2.1821354E-4,1.2258782E-4,3.6094605E-4,8.453941E-5,-1.6549575E-4,4.9228483E-4,3.0789836E-4,-1.2806743E-4],"split_indices":[9,15,12,23,0,3,15,0,0,0,0,0,0,0,0],"split_type":[0,0,0,0,0,0,0,0,0,0,0,0,0,0,0],"sum_hessian":[5.5E1,3.1E1,2.4E1,2.8E1,3E0,1E1,1.4E1,2.2E1,6E0,2E0,1E0,2E0,8E0,3E0,1.1E1],"tree_param":{"num_deleted":"0","num_feature":"24","num_nodes":"15","size_leaf_vector":"1"}},{"base_weights":[1.3100548E-4,7.1596453E-4,-1.8589332E-3,-3.32064E-4,2.9854588E-3,-2.4541975E-3,-4.15671E-5,-9.1391325E-5,3.8238967E-4,5.699549E-4,2.374473E-5,-2.9890783E-4,-3.880769E-5],"categories":[],"categories_nodes":[],"categories_segments":[],"categories_sizes":[],"default_left":[0,0,0,0,0,0,0,0,0,0,0,0,0],"id":9,"left_children":[1,3,5,7,9,11,-1,-1,-1,-1,-1,-1,-1],"loss_changes":[6.651677E-5,1.0564512E-4,1.01484475E-5,7.845713E-5,1.0306359E-4,8.786155E-6,0E0,0E0,0E0,0E0,0E0,0E0,0E0],"parents":[2147483647,0,0,1,1,2,2,3,3,4,4,5,5],"right_children":[2,4,6,8,10,12,-1,-1,-1,-1,-1,-1,-1],"split_conditions":[1.4905977E0,1.0135915E-2,-5.3758964E-2,1.3589134E0,-1.7821799E-1,-6.8835616E-2,-4.15671E-5,-9.1391325E-5,3.8238967E-4,5.699549E-4,2.374473E-5,-2.9890783E-4,-3.880769E-5],"split_indices":[22,22,9,9,12,11,0,0,0,0,0,0,0],"split_type":[0,0,0,0,0,0,0,0,0,0,0,0,0],"sum_hessian":[5.5E1,4.3E1,1.2E1,3E1,1.3E1,8E0,4E0,2.7E1,3E0,6E0,7E0,6E0,2E0],"tree_param":{"num_deleted":"0","num_feature":"24","num_nodes":"13","size_leaf_vector":"1"}},{"base_weights":[1.2693022E-4,-4.7573957E-4,1.8059436E-3,-1.1971236E-3,1.9524015E-3,-2.0076206E-4,3.3752052E-3,1.2788559E-4,-1.7947062E-4,3.7816583E-4,-1.736898E-4,4.4595543E-4,-1.00291116E-4],"categories":[],"categories_nodes":[],"categories_segments":[],"categories_sizes":[],"default_left":[0,0,0,0,0,0,0,0,0,0,0,0,0],"id":10,"left_children":[1,3,5,7,9,-1,11,-1,-1,-1,-1,-1,-1],"loss_changes":[5.752503E-5,7.590539E-5,9.654333E-5,5.112205E-5,7.405512E-5,0E0,5.6694E-5,0E0,0E0,0E0,0E0,0E0,0E0],"parents":[2147483647,0,0,1,1,2,2,3,3,4,4,6,6],"right_children":[2,4,6,8,10,-1,12,-1,-1,-1,-1,-1,-1],"split_conditions":[7.9296106E-1,1.0854837E0,-2.559377E-1,-9.1937107E-1,1.7568725E0,-2.0076206E-4,1.3403265E0,1.2788559E-4,-1.7947062E-4,3.7816583E-4,-1.736898E-4,4.4595543E-4,-1.00291116E-4],"split_indices":[15,10,0,7,16,0,0,0,0,0,0,0,0],"split_type":[0,0,0,0,0,0,0,0,0,0,0,0,0],"sum_hessian":[5.5E1,4.1E1,1.4E1,3.2E1,9E0,4E0,1E1,6E0,2.6E1,6E0,3E0,8E0,2E0],"tree_param":{"num_deleted":"0","num_feature":"24","num_nodes":"13","size_leaf_vector":"1"}},{"base_weights":[1.1955492E-4,3.230484E-3,-1.81872E-4,4.171976E-5,4.9669424E-4,-7.645186E-4,1.624877E-3,-1.0490256E-4,3.094075E-4,-1.4748881E-4,3.7465914E-4],"categories":[],"categories_nodes":[],"categories_segments":[],"categories_sizes":[],"default_left":[0,0,0,0,0,0,0,0,0,0,0],"id":11,"left_children":[1,3,5,-1,-1,7,9,-1,-1,-1,-1],"loss_changes":[5.3099728E-5,2.2353572E-5,5.598245E-5,0E0,0E0,4.715762E-5,9.10244E-5,0E0,0E0,0E0,0E0],"parents":[2147483647,0,0,1,1,2,2,5,5,6,6],"right_children":[2,4,6,-1,-1,8,10,-1,-1,-1,-1],"split_conditions":[-1.1323032E0,-3.9482883E-1,5.430282E-1,4.171976E-5,4.9669424E-4,9.2091614E-1,2.7765822E-1,-1.0490256E-4,3.094075E-4,-1.4748881E-4,3.7465914E-4],"split_indices":[16,2,9,0,0,15,16,0,0,0,0],"split_type":[0,0,0,0,0,0,0,0,0,0,0],"sum_hessian":[5.5E1,4E0,5.1E1,2E0,2E0,3.9E1,1.2E1,3.7E1,2E0,5E0,7E0],"tree_param":{"num_deleted":"0","num_feature":"24","num_nodes":"11","size_leaf_vector":"1"}},{"base_weights":[1.2492262E-4,3.0151187E-3,-1.553832E-4,3.893846E-5,4.6358132E-4,1.030437E-3,-9.287219E-4,-5.2515832E-5,3.162915E-4,8.963479E-5,-1.299896E-4],"categories":[],"categories_nodes":[],"categories_segments":[],"categories_sizes":[],"default_left":[0,0,0,0,0,0,0,0,0,0,0],"id":12,"left_children":[1,3,5,-1,-1,7,9,-1,-1,-1,-1],"loss_changes":[4.583627E-5,1.9472453E-5,4.8643105E-5,0E0,0E0,7.132376E-5,2.2842552E-5,0E0,0E0,0E0,0E0],"parents":[2147483647,0,0,1,1,2,2,5,5,6,6],"right_children":[2,4,6,-1,-1,8,10,-1,-1,-1,-1],"split_conditions":[-1.1323032E0,-3.9482883E-1,-1.5664114E-1,3.893846E-5,4.6358132E-4,9.9648875E-1,-1.1276232E0,-5.2515832E-5,3.162915E-4,8.963479E-5,-1.299896E-4],"split_indices":[16,2,3,0,0,16,14,0,0,0,0],"split_type":[0,0,0,0,0,0,0,0,0,0,0],"sum_hessian":[5.5E1,4E0,5.1E1,2E0,2E0,2E1,3.1E1,1.2E1,8E0,5E0,2.6E1],"tree_param":{"num_deleted":"0","num_feature":"24","num_nodes":"11","size_leaf_vector":"1"}},{"base_weights":[1.253937E-4,-3.841513E-4,1.5437601E-3,-9.739938E-4,1.600744E-3,-1.2875189E-3,3.0881516E-3,7.3207746E-5,-1.6442737E-4,3.167938E-4,-1.5420315E-4,-1.9310733E-4,-2.7318796E-8,4.2071068E-4,-9.251137E-5],"categories":[],"categories_nodes":[],"categories_segments":[],"categories_sizes":[],"default_left":[0,0,0,0,0,0,0,0,0,0,0,0,0,0,0],"id":13,"left_children":[1,3,5,7,9,11,13,-1,-1,-1,-1,-1,-1,-1,-1],"loss_changes":[4.106544E-5,5.0731687E-5,6.956509E-5,3.8940736E-5,5.413845E-5,4.9699493E-6,4.8798713E-5,0E0,0E0,0E0,0E0,0E0,0E0,0E0,0E0],"parents":[2147483647,0,0,1,1,2,2,3,3,4,4,5,5,6,6],"right_children":[2,4,6,8,10,12,14,-1,-1,-1,-1,-1,-1,-1,-1],"split_conditions":[7.9296106E-1,1.0854837E0,-2.4956557E-1,-4.8765916E-1,1.7568725E0,2.2700725E-2,1.3403265E0,7.3207746E-5,-1.6442737E-4,3.167938E-4,-1.5420315E-4,-1.9310733E-4,-2.7318796E-8,4.2071068E-4,-9.251137E-5],"split_indices":[15,10,0,18,16,3,0,0,0,0,0,0,0,0,0],"split_type":[0,0,0,0,0,0,0,0,0,0,0,0,0,0,0],"sum_hessian":[5.5E1,4.1E1,1.4E1,3.2E1,9E0,5E0,9E0,9E0,2.3E1,6E0,3E0,3E0,2E0,7E0,2E0],"tree_param":{"num_deleted":"0","num_feature":"24","num_nodes":"15","size_leaf_vector":"1"}},{"base_weights":[1.16540665E-4,2.6860437E-3,-1.327681E-4,3.146205E-5,4.1621193E-4,-5.977349E-4,1.3081119E-3,-8.398392E-5,2.668164E-4,-1.2114495E-4,3.034269E-4],"categories":[],"categories_nodes":[],"categories_segments":[],"categories_sizes":[],"default_left":[0,0,0,0,0,0,0,0,0,0,0],"id":14,"left_children":[1,3,5,-1,-1,7,9,-1,-1,-1,-1],"loss_changes":[3.6230198E-5,1.6192509E-5,3.5619898E-5,0E0,0E0,3.3868353E-5,6.0214916E-5,0E0,0E0,0E0,0E0],"parents":[2147483647,0,0,1,1,2,2,5,5,6,6],"right_children":[2,4,6,-1,-1,8,10,-1,-1,-1,-1],"split_conditions":[-1.1323032E0,-3.9482883E-1,5.430282E-1,3.146205E-5,4.1621193E-4,9.2091614E-1,2.7765822E-1,-8.398392E-5,2.668164E-4,-1.2114495E-4,3.034269E-4],"split_indices":[16,2,9,0,0,15,16,0,0,0,0],"split_type":[0,0,0,0,0,0,0,0,0,0,0],"sum_hessian":[5.5E1,4E0,5.1E1,2E0,2E0,3.9E1,1.2E1,3.7E1,2E0,5E0,7E0],"tree_param":{"num_deleted":"0","num_feature":"24","num_nodes":"11","size_leaf_vector":"1"}},{"base_weights":[1.1940067E-4,1.8960399E-3,-2.1620671E-4,-5.1014853E-5,3.184159E-3,-6.591091E-4,1.3334749E-3,3.6247028E-4,4.9071994E-5,-1.3760032E-4,8.2537954E-5,2.5152238E-4,-1.3633913E-4],"categories":[],"categories_nodes":[],"categories_segments":[],"categories_sizes":[],"default_left":[0,0,0,0,0,0,0,0,0,0,0,0,0],"id":15,"left_children":[1,3,5,-1,7,9,11,-1,-1,-1,-1,-1,-1],"loss_changes":[3.3800123E-5,2.9519502E-5,3.3824075E-5,0E0,5.340753E-6,4.157612E-5,3.8486432E-5,0E0,0E0,0E0,0E0,0E0,0E0],"parents":[2147483647,0,0,1,1,2,2,4,4,5,5,6,6],"right_children":[2,4,6,-1,8,10,12,-1,-1,-1,-1,-1,-1],"split_conditions":[-9.1937107E-1,-4.0336102E-1,1.0671579E0,-5.1014853E-5,1.0060287E-1,7.9296106E-1,1.7568725E0,3.6247028E-4,4.9071994E-5,-1.3760032E-4,8.2537954E-5,2.5152238E-4,-1.3633913E-4],"split_indices":[7,21,10,0,3,15,16,0,0,0,0,0,0],"split_type":[0,0,0,0,0,0,0,0,0,0,0,0,0],"sum_hessian":[5.5E1,8E0,4.7E1,3E0,5E0,3.7E1,1E1,4E0,1E0,2.5E1,1.2E1,7E0,3E0],"tree_param":{"num_deleted":"0","num_feature":"24","num_nodes":"13","size_leaf_vector":"1"}},{"base_weights":[1.1497217E-4,2.4356782E-3,-1.1038364E-4,3.231551E-5,3.7363087E-4,7.9847523E-4,-7.0337276E-4,-4.2833282E-5,2.4818117E-4,-8.9194255E-5,1.4167828E-4],"categories":[],"categories_nodes":[],"categories_segments":[],"categories_sizes":[],"default_left":[0,0,0,0,0,0,0,0,0,0,0],"id":16,"left_children":[1,3,5,-1,-1,7,9,-1,-1,-1,-1],"loss_changes":[2.9555997E-5,1.2530651E-5,2.8586683E-5,0E0,0E0,4.4430788E-5,1.4057203E-5,0E0,0E0,0E0,0E0],"parents":[2147483647,0,0,1,1,2,2,5,5,6,6],"right_children":[2,4,6,-1,-1,8,10,-1,-1,-1,-1],"split_conditions":[-1.1323032E0,-3.9482883E-1,-1.5664114E-1,3.231551E-5,3.7363087E-4,9.9648875E-1,2.0166757E0,-4.2833282E-5,2.4818117E-4,-8.9194255E-5,1.4167828E-4],"split_indices":[16,2,3,0,0,16,13,0,0,0,0],"split_type":[0,0,0,0,0,0,0,0,0,0,0],"sum_hessian":[5.5E1,4E0,5.1E1,2E0,2E0,2E1,3.1E1,1.2E1,8E0,2.9E1,2E0],"tree_param":{"num_deleted":"0","num_feature":"24","num_nodes":"11","size_leaf_vector":"1"}},{"base_weights":[1.1532814E-4,5.2918226E-4,-1.0511519E-3,1.6190053E-3,-2.766576E-4,9.346703E-4,-2.1375301E-3,4.6222787E-5,3.3707658E-4,-9.029041E-5,1.85694E-4,-5.081805E-5,2.5469146E-4,1.7149374E-5,-2.4131432E-4],"categories":[],"categories_nodes":[],"categories_segments":[],"categories_sizes":[],"default_left":[0,0,0,0,0,0,0,0,0,0,0,0,0,0,0],"id":17,"left_children":[1,3,5,7,9,11,13,-1,-1,-1,-1,-1,-1,-1,-1],"loss_changes":[2.7590397E-5,3.733327E-5,3.4358192E-5,3.491709E-5,3.5080586E-5,1.525166E-5,6.777809E-6,0E0,0E0,0E0,0E0,0E0,0E0,0E0,0E0],"parents":[2147483647,0,0,1,1,2,2,3,3,4,4,5,5,6,6],"right_children":[2,4,6,8,10,12,14,-1,-1,-1,-1,-1,-1,-1,-1],"split_conditions":[3.9178756E-1,-1.4484277E-1,-6.18651E-1,9.9648875E-1,8.231781E-1,9.016776E-1,-1.1276232E0,4.6222787E-5,3.3707658E-4,-9.029041E-5,1.85694E-4,-5.081805E-5,2.5469146E-4,1.7149374E-5,-2.4131432E-4],"split_indices":[2,3,23,16,23,2,14,0,0,0,0,0,0,0,0],"split_type":[0,0,0,0,0,0,0,0,0,0,0,0,0,0,0],"sum_hessian":[5.5E1,4.1E1,1.4E1,1.7E1,2.4E1,5E0,9E0,1.1E1,6E0,1.9E1,5E0,3E0,2E0,1E0,8E0],"tree_param":{"num_deleted":"0","num_feature":"24","num_nodes":"15","size_leaf_vector":"1"}},{"base_weights":[1.11981244E-4,2.2630321E-3,-9.7004064E-5,3.61805E-5,3.4099154E-4,-2.818638E-4,2.1917787E-3,-6.632E-5,1.0957704E-4,-2.3271703E-5,3.0775164E-4],"categories":[],"categories_nodes":[],"categories_segments":[],"categories_sizes":[],"default_left":[0,0,0,0,0,0,0,0,0,0,0],"id":18,"left_children":[1,3,5,-1,-1,7,9,-1,-1,-1,-1],"loss_changes":[2.5393654E-5,9.668702E-6,2.261918E-5,0E0,0E0,2.646846E-5,9.306057E-6,0E0,0E0,0E0,0E0],"parents":[2147483647,0,0,1,1,2,2,5,5,6,6],"right_children":[2,4,6,-1,-1,8,10,-1,-1,-1,-1],"split_conditions":[-1.1323032E0,-3.9482883E-1,1.0031554E0,3.61805E-5,3.4099154E-4,1.0671579E0,-1.3708688E0,-6.632E-5,1.0957704E-4,-2.3271703E-5,3.0775164E-4],"split_indices":[16,2,15,0,0,10,0,0,0,0,0],"split_type":[0,0,0,0,0,0,0,0,0,0,0],"sum_hessian":[5.5E1,4E0,5.1E1,2E0,2E0,4.8E1,3E0,3.8E1,1E1,1E0,2E0],"tree_param":{"num_deleted":"0","num_feature":"24","num_nodes":"11","size_leaf_vector":"1"}},{"base_weights":[1.1337082E-4,4.930664E-4,-9.573348E-4,-2.321112E-5,1.9501403E-3,8.3878735E-4,-1.9392746E-3,-5.130272E-5,1.7994216E-4,-2.0168152E-5,2.782284E-4,-4.2032694E-5,2.2380108E-4,1.0813051E-5,-2.1787787E-4],"categories":[],"categories_nodes":[],"categories_segments":[],"categories_sizes":[],"default_left":[0,0,0,0,0,0,0,0,0,0,0,0,0,0,0],"id":19,"left_children":[1,3,5,7,9,11,13,-1,-1,-1,-1,-1,-1,-1,-1],"loss_changes":[2.3238392E-5,3.1639956E-5,2.8081897E-5,2.9491304E-5,2.0258009E-5,1.1511389E-5,5.139209E-6,0E0,0E0,0E0,0E0,0E0,0E0,0E0,0E0],"parents":[2147483647,0,0,1,1,2,2,3,3,4,4,5,5,6,6],"right_children":[2,4,6,8,10,12,14,-1,-1,-1,-1,-1,-1,-1,-1],"split_conditions":[3.9178756E-1,7.9296106E-1,-6.18651E-1,1.0276076E0,-2.4956557E-1,9.016776E-1,-1.1276232E0,-5.130272E-5,1.7994216E-4,-2.0168152E-5,2.782284E-4,-4.2032694E-5,2.2380108E-4,1.0813051E-5,-2.1787787E-4],"split_indices":[2,15,23,10,0,2,14,0,0,0,0,0,0,0,0],"split_type":[0,0,0,0,0,0,0,0,0,0,0,0,0,0,0],"sum_hessian":[5.5E1,4.1E1,1.4E1,3.1E1,1E1,5E0,9E0,2.5E1,6E0,3E0,7E0,3E0,2E0,1E0,8E0],"tree_param":{"num_deleted":"0","num_feature":"24","num_nodes":"15","size_leaf_vector":"1"}},{"base_weights":[1.08487424E-4,1.5568106E-3,-1.6533333E-4,-3.4049383E-5,2.5622118E-3,-4.5666017E-4,9.873747E-4,2.8735615E-4,5.027321E-5,-9.575947E-5,7.5024196E-5,3.1257665E-4,-3.7561702E-5],"categories":[],"categories_nodes":[],"categories_segments":[],"categories_sizes":[],"default_left":[0,0,0,0,0,0,0,0,0,0,0,0,0],"id":20,"left_children":[1,3,5,-1,7,9,11,-1,-1,-1,-1,-1,-1],"loss_changes":[2.2465927E-5,1.8040386E-5,1.6570004E-5,0E0,2.4026776E-6,2.4297004E-5,3.0320192E-5,0E0,0E0,0E0,0E0,0E0,0E0],"parents":[2147483647,0,0,1,1,2,2,4,4,5,5,6,6],"right_children":[2,4,6,-1,8,10,12,-1,-1,-1,-1,-1,-1],"split_conditions":[-9.1937107E-1,-4.0336102E-1,1.0854837E0,-3.4049383E-5,1.0060287E-1,8.2922745E-1,1.9255118E-1,2.8735615E-4,5.027321E-5,-9.575947E-5,7.5024196E-5,3.1257665E-4,-3.7561702E-5],"split_indices":[7,21,10,0,3,15,7,0,0,0,0,0,0],"split_type":[0,0,0,0,0,0,0,0,0,0,0,0,0],"sum_hessian":[5.5E1,8E0,4.7E1,3E0,5E0,3.8E1,9E0,4E0,1E0,2.7E1,1.1E1,3E0,6E0],"tree_param":{"num_deleted":"0","num_feature":"24","num_nodes":"13","size_leaf_vector":"1"}},{"base_weights":[1.0760048E-4,2.0239209E-3,-7.873033E-5,3.8704868E-5,2.9861528E-4,-4.6583006E-4,6.7833747E-4,4.5768003E-5,-8.0310965E-5,-2.4284289E-5,2.561172E-4],"categories":[],"categories_nodes":[],"categories_segments":[],"categories_sizes":[],"default_left":[0,0,0,0,0,0,0,0,0,0,0],"id":21,"left_children":[1,3,5,-1,-1,7,9,-1,-1,-1,-1],"loss_changes":[2.0155236E-5,6.719467E-6,1.5555148E-5,0E0,0E0,1.1269407E-5,3.1841708E-5,0E0,0E0,0E0,0E0],"parents":[2147483647,0,0,1,1,2,2,5,5,6,6],"right_children":[2,4,6,-1,-1,8,10,-1,-1,-1,-1],"split_conditions":[-1.1323032E0,-3.9482883E-1,9.9648875E-1,3.8704868E-5,2.9861528E-4,-9.6829E-1,6.9109535E-1,4.5768003E-5,-8.0310965E-5,-2.4284289E-5,2.561172E-4],"split_indices":[16,2,16,0,0,14,9,0,0,0,0],"split_type":[0,0,0,0,0,0,0,0,0,0,0],"sum_hessian":[5.5E1,4E0,5.1E1,2E0,2E0,3.4E1,1.7E1,9E0,2.5E1,1.2E1,5E0],"tree_param":{"num_deleted":"0","num_feature":"24","num_nodes":"11","size_leaf_vector":"1"}},{"base_weights":[1.06386935E-4,1.407315E-3,-1.3975348E-4,-2.5472384E-5,2.2807885E-3,-6.237813E-4,4.606331E-4,2.553649E-4,4.582433E-5,-8.259289E-5,2.316028E-4,1.3439618E-4,-9.646151E-5],"categories":[],"categories_nodes":[],"categories_segments":[],"categories_sizes":[],"default_left":[0,0,0,0,0,0,0,0,0,0,0,0,0],"id":22,"left_children":[1,3,5,-1,7,9,11,-1,-1,-1,-1,-1,-1],"loss_changes":[1.8128494E-5,1.36466915E-5,1.4236318E-5,0E0,1.8136088E-6,1.795831E-5,2.8993583E-5,0E0,0E0,0E0,0E0,0E0,0E0],"parents":[2147483647,0,0,1,1,2,2,4,4,5,5,6,6],"right_children":[2,4,6,-1,8,10,12,-1,-1,-1,-1,-1,-1],"split_conditions":[-9.1937107E-1,-4.0336102E-1,5.799786E-1,-2.5472384E-5,1.0060287E-1,1.625538E0,1.0397744E0,2.553649E-4,4.582433E-5,-8.259289E-5,2.316028E-4,1.3439618E-4,-9.646151E-5],"split_indices":[7,21,21,0,3,9,2,0,0,0,0,0,0],"split_type":[0,0,0,0,0,0,0,0,0,0,0,0,0],"sum_hessian":[5.5E1,8E0,4.7E1,3E0,5E0,2.6E1,2.1E1,4E0,1E0,2.5E1,1E0,1.3E1,8E0],"tree_param":{"num_deleted":"0","num_feature":"24","num_nodes":"13","size_leaf_vector":"1"}},{"base_weights":[1.0401006E-4,1.8183944E-3,-6.283478E-5,3.735018E-5,2.6571556E-4,-2.1124937E-4,1.7709526E-3,1.1570132E-5,-1.03689046E-4,-1.6705715E-5,2.4726416E-4],"categories":[],"categories_nodes":[],"categories_segments":[],"categories_sizes":[],"default_left":[0,0,0,0,0,0,0,0,0,0,0],"id":23,"left_children":[1,3,5,-1,-1,7,9,-1,-1,-1,-1],"loss_changes":[1.6132286E-5,5.067146E-6,1.4526474E-5,0E0,0E0,1.3347221E-5,5.852592E-6,0E0,0E0,0E0,0E0],"parents":[2147483647,0,0,1,1,2,2,5,5,6,6],"right_children":[2,4,6,-1,-1,8,10,-1,-1,-1,-1],"split_conditions":[-1.1323032E0,-3.9482883E-1,1.0031554E0,3.735018E-5,2.6571556E-4,3.9178756E-1,-1.3708688E0,1.1570132E-5,-1.03689046E-4,-1.6705715E-5,2.4726416E-4],"split_indices":[16,2,15,0,0,2,0,0,0,0,0],"split_type":[0,0,0,0,0,0,0,0,0,0,0],"sum_hessian":[5.5E1,4E0,5.1E1,2E0,2E0,4.8E1,3E0,3.5E1,1.3E1,1E0,2E0],"tree_param":{"num_deleted":"0","num_feature":"24","num_nodes":"11","size_leaf_vector":"1"}},{"base_weights":[1.0149313E-4,1.6971683E-3,-5.3888965E-5,3.4860182E-5,2.4800122E-4,-1.4792879E-3,1.2922342E-4,-2.0155024E-4,-2.7123917E-5,-1.8886554E-6,2.3077987E-4],"categories":[],"categories_nodes":[],"categories_segments":[],"categories_sizes":[],"default_left":[0,0,0,0,0,0,0,0,0,0,0],"id":24,"left_children":[1,3,5,-1,-1,7,9,-1,-1,-1,-1],"loss_changes":[1.3976062E-5,4.414047E-6,1.3763586E-5,0E0,0E0,3.3399574E-6,1.5209017E-5,0E0,0E0,0E0,0E0],"parents":[2147483647,0,0,1,1,2,2,5,5,6,6],"right_children":[2,4,6,-1,-1,8,10,-1,-1,-1,-1],"split_conditions":[-1.1323032E0,-3.9482883E-1,-9.1170776E-1,3.4860182E-5,2.4800122E-4,-1.81028E-1,1.0031554E0,-2.0155024E-4,-2.7123917E-5,-1.8886554E-6,2.3077987E-4],"split_indices":[16,2,0,0,0,4,15,0,0,0,0],"split_type":[0,0,0,0,0,0,0,0,0,0,0],"sum_hessian":[5.5E1,4E0,5.1E1,2E0,2E0,5E0,4.6E1,3E0,2E0,4.4E1,2E0],"tree_param":{"num_deleted":"0","num_feature":"24","num_nodes":"11","size_leaf_vector":"1"}},{"base_weights":[9.639881E-5,3.7712042E-4,-6.9604826E-4,2.2137363E-5,1.6762652E-3,7.9457794E-4,-1.5208191E-3,-3.2193115E-5,1.395249E-4,-1.4604872E-5,2.6117635E-4,-9.8499484E-5,1.3474915E-4,2.2873957E-5,-1.7406301E-4],"categories":[],"categories_nodes":[],"categories_segments":[],"categories_sizes":[],"default_left":[0,0,0,0,0,0,0,0,0,0,0,0,0,0,0],"id":25,"left_children":[1,3,5,7,9,11,13,-1,-1,-1,-1,-1,-1,-1,-1],"loss_changes":[1.27200865E-5,1.9332216E-5,1.9649782E-5,1.6512286E-5,1.572439E-5,7.2309704E-6,4.2438714E-6,0E0,0E0,0E0,0E0,0E0,0E0,0E0,0E0],"parents":[2147483647,0,0,1,1,2,2,3,3,4,4,5,5,6,6],"right_children":[2,4,6,8,10,12,14,-1,-1,-1,-1,-1,-1,-1,-1],"split_conditions":[3.9178756E-1,8.2922745E-1,-6.18651E-1,1.0276076E0,-2.4956557E-1,4.1890392E-1,-1.1276232E0,-3.2193115E-5,1.395249E-4,-1.4604872E-5,2.6117635E-4,-9.8499484E-5,1.3474915E-4,2.2873957E-5,-1.7406301E-4],"split_indices":[2,15,23,10,0,2,14,0,0,0,0,0,0,0,0],"split_type":[0,0,0,0,0,0,0,0,0,0,0,0,0,0,0],"sum_hessian":[5.5E1,4.1E1,1.4E1,3.3E1,8E0,5E0,9E0,2.7E1,6E0,3E0,5E0,1E0,4E0,1E0,8E0],"tree_param":{"num_deleted":"0","num_feature":"24","num_nodes":"15","size_leaf_vector":"1"}},{"base_weights":[9.102609E-5,1.1696408E-3,-1.13110545E-4,-2.1873579E-5,1.9002851E-3,8.759043E-4,-3.3281112E-4,2.1142131E-4,4.1532283E-5,1.3812908E-5,2.3054118E-4,-1.12780304E-4,1.386385E-5],"categories":[],"categories_nodes":[],"categories_segments":[],"categories_sizes":[],"default_left":[0,0,0,0,0,0,0,0,0,0,0,0,0],"id":26,"left_children":[1,3,5,-1,7,9,11,-1,-1,-1,-1,-1,-1],"loss_changes":[1.2462647E-5,9.545345E-6,1.0721293E-5,0E0,1.0279673E-6,9.173453E-6,1.5148303E-5,0E0,0E0,0E0,0E0,0E0,0E0],"parents":[2147483647,0,0,1,1,2,2,4,4,5,5,6,6],"right_children":[2,4,6,-1,8,10,12,-1,-1,-1,-1,-1,-1],"split_conditions":[-9.1937107E-1,-4.0336102E-1,-1.1037557E0,-2.1873579E-5,1.0060287E-1,6.225499E-1,-5.2614994E-2,2.1142131E-4,4.1532283E-5,1.3812908E-5,2.3054118E-4,-1.12780304E-4,1.386385E-5],"split_indices":[7,21,23,0,3,10,22,0,0,0,0,0,0],"split_type":[0,0,0,0,0,0,0,0,0,0,0,0,0],"sum_hessian":[5.5E1,8E0,4.7E1,3E0,5E0,8E0,3.9E1,4E0,1E0,6E0,2E0,1.4E1,2.5E1],"tree_param":{"num_deleted":"0","num_feature":"24","num_nodes":"13","size_leaf_vector":"1"}},{"base_weights":[8.864707E-5,1.4949781E-3,-4.8281814E-5,3.2837517E-5,2.163255E-4,-1.3435248E-3,1.1809563E-4,-1.7872581E-4,-3.0403897E-5,4.4968285E-5,-6.1926934E-5],"categories":[],"categories_nodes":[],"categories_segments":[],"categories_sizes":[],"default_left":[0,0,0,0,0,0,0,0,0,0,0],"id":27,"left_children":[1,3,5,-1,-1,7,9,-1,-1,-1,-1],"loss_changes":[1.0855952E-5,3.187709E-6,1.1364624E-5,0E0,0E0,2.2241302E-6,1.1770012E-5,0E0,0E0,0E0,0E0],"parents":[2147483647,0,0,1,1,2,2,5,5,6,6],"right_children":[2,4,6,-1,-1,8,10,-1,-1,-1,-1],"split_conditions":[-1.1323032E0,-3.9482883E-1,-9.1170776E-1,3.2837517E-5,2.163255E-4,-1.81028E-1,3.9178756E-1,-1.7872581E-4,-3.0403897E-5,4.4968285E-5,-6.1926934E-5],"split_indices":[16,2,0,0,0,4,2,0,0,0,0],"split_type":[0,0,0,0,0,0,0,0,0,0,0],"sum_hessian":[5.5E1,4E0,5.1E1,2E0,2E0,5E0,4.6E1,3E0,2E0,3.2E1,1.4E1],"tree_param":{"num_deleted":"0","num_feature":"24","num_nodes":"11","size_leaf_vector":"1"}},{"base_weights":[8.019445E-5,1.3953128E-3,-4.780144E-5,3.0648353E-5,2.0190378E-4,-1.2440272E-3,1.0592528E-4,-1.6532137E-4,-2.8376966E-5,1.5699118E-4,-6.6769085E-6],"categories":[],"categories_nodes":[],"categories_segments":[],"categories_sizes":[],"default_left":[0,0,0,0,0,0,0,0,0,0,0],"id":28,"left_children":[1,3,5,-1,-1,7,9,-1,-1,-1,-1],"loss_changes":[9.493164E-6,2.7768483E-6,9.694151E-6,0E0,0E0,1.8884139E-6,1.1987468E-5,0E0,0E0,0E0,0E0],"parents":[2147483647,0,0,1,1,2,2,5,5,6,6],"right_children":[2,4,6,-1,-1,8,10,-1,-1,-1,-1],"split_conditions":[-1.1323032E0,-3.9482883E-1,-9.1170776E-1,3.0648353E-5,2.0190378E-4,-1.81028E-1,-6.4029706E-1,-1.6532137E-4,-2.8376966E-5,1.5699118E-4,-6.6769085E-6],"split_indices":[16,2,0,0,0,4,0,0,0,0,0],"split_type":[0,0,0,0,0,0,0,0,0,0,0],"sum_hessian":[5.5E1,4E0,5.1E1,2E0,2E0,5E0,4.6E1,3E0,2E0,4E0,4.2E1],"tree_param":{"num_deleted":"0","num_feature":"24","num_nodes":"11","size_leaf_vector":"1"}},{"base_weights":[7.555306E-5,9.99301E-4,-9.92237E-5,-2.3104914E-5,1.6529842E-4,-3.312462E-4,7.1132893E-4,-7.158771E-5,5.6177723E-5,2.0277679E-4,-3.3060303E-5],"categories":[],"categories_nodes":[],"categories_segments":[],"categories_sizes":[],"default_left":[0,0,0,0,0,0,0,0,0,0,0],"id":29,"left_children":[1,3,5,-1,-1,7,9,-1,-1,-1,-1],"loss_changes":[9.140334E-6,7.620254E-6,9.262815E-6,0E0,0E0,1.3454572E-5,1.5758425E-5,0E0,0E0,0E0,0E0],"parents":[2147483647,0,0,1,1,2,2,5,5,6,6],"right_children":[2,4,6,-1,-1,8,10,-1,-1,-1,-1],"split_conditions":[-9.1937107E-1,-4.0336102E-1,1.0671579E0,-2.3104914E-5,1.6529842E-4,8.2922745E-1,1.9255118E-1,-7.158771E-5,5.6177723E-5,2.0277679E-4,-3.3060303E-5],"split_indices":[7,21,10,0,0,15,7,0,0,0,0],"split_type":[0,0,0,0,0,0,0,0,0,0,0],"sum_hessian":[5.5E1,8E0,4.7E1,3E0,5E0,3.7E1,1E1,2.6E1,1.1E1,4E0,6E0],"tree_param":{"num_deleted":"0","num_feature":"24","num_nodes":"11","size_leaf_vector":"1"}},{"base_weights":[7.329235E-5,1.6494248E-4,-1.6008408E-4,1.29570135E-5,1.6518086E-3,-2.5071615E-5,8.6881504E-5,-1.4347024E-5,2.1364959E-4],"categories":[],"categories_nodes":[],"categories_segments":[],"categories_sizes":[],"default_left":[0,0,0,0,0,0,0,0,0],"id":30,"left_children":[1,3,-1,5,7,-1,-1,-1,-1],"loss_changes":[8.856379E-6,1.2181627E-5,0E0,1.1501165E-5,4.6572686E-6,0E0,0E0,0E0,0E0],"parents":[2147483647,0,0,1,1,3,3,4,4],"right_children":[2,4,-1,6,8,-1,-1,-1,-1],"split_conditions":[2.017549E0,9.2091614E-1,-1.6008408E-4,9.25828E-1,-1.3708688E0,-2.5071615E-5,8.6881504E-5,-1.4347024E-5,2.1364959E-4],"split_indices":[0,15,0,23,0,0,0,0,0],"split_type":[0,0,0,0,0,0,0,0,0],"sum_hessian":[5.5E1,5.3E1,2E0,4.9E1,4E0,3.8E1,1.1E1,1E0,3E0],"tree_param":{"num_deleted":"0","num_feature":"24","num_nodes":"9","size_leaf_vector":"1"}},{"base_weights":[6.776717E-5,2.9588336E-4,-5.75476E-4,9.303035E-4,-1.7273446E-4,6.7097455E-4,-1.2657987E-3,2.1223077E-5,2.0283848E-4,-5.3367636E-5,1.05919426E-4,-7.967233E-5,1.1238589E-4,-1.4318517E-4,1.1433894E-5],"categories":[],"categories_nodes":[],"categories_segments":[],"categories_sizes":[],"default_left":[0,0,0,0,0,0,0,0,0,0,0,0,0,0,0],"id":31,"left_children":[1,3,5,7,9,11,13,-1,-1,-1,-1,-1,-1,-1,-1],"loss_changes":[8.387387E-6,1.2647319E-5,1.3756115E-5,1.3762554E-5,1.1681633E-5,4.883588E-6,2.4554756E-6,0E0,0E0,0E0,0E0,0E0,0E0,0E0,0E0],"parents":[2147483647,0,0,1,1,2,2,3,3,4,4,5,5,6,6],"right_children":[2,4,6,8,10,12,14,-1,-1,-1,-1,-1,-1,-1,-1],"split_conditions":[3.9178756E-1,-1.4484277E-1,-6.18651E-1,9.9648875E-1,8.231781E-1,4.1890392E-1,1.9484358E0,2.1223077E-5,2.0283848E-4,-5.3367636E-5,1.05919426E-4,-7.967233E-5,1.1238589E-4,-1.4318517E-4,1.1433894E-5],"split_indices":[2,3,23,16,23,2,2,0,0,0,0,0,0,0,0],"split_type":[0,0,0,0,0,0,0,0,0,0,0,0,0,0,0],"sum_hessian":[5.5E1,4.1E1,1.4E1,1.7E1,2.4E1,5E0,9E0,1.1E1,6E0,1.9E1,5E0,1E0,4E0,8E0,1E0],"tree_param":{"num_deleted":"0","num_feature":"24","num_nodes":"15","size_leaf_vector":"1"}},{"base_weights":[6.41615E-5,1.2328399E-3,-4.9445305E-5,3.0710704E-5,1.7476262E-4,-3.1269187E-4,4.6517001E-4,3.405138E-6,-9.021075E-5,-1.2382588E-5,1.6637995E-4],"categories":[],"categories_nodes":[],"categories_segments":[],"categories_sizes":[],"default_left":[0,0,0,0,0,0,0,0,0,0,0],"id":32,"left_children":[1,3,5,-1,-1,7,9,-1,-1,-1,-1],"loss_changes":[7.496068E-6,1.8460651E-6,7.1899326E-6,0E0,0E0,7.183874E-6,1.2913801E-5,0E0,0E0,0E0,0E0],"parents":[2147483647,0,0,1,1,2,2,5,5,6,6],"right_children":[2,4,6,-1,-1,8,10,-1,-1,-1,-1],"split_conditions":[-1.1323032E0,-3.9482883E-1,9.9648875E-1,3.0710704E-5,1.7476262E-4,5.322826E-1,6.9109535E-1,3.405138E-6,-9.021075E-5,-1.2382588E-5,1.6637995E-4],"split_indices":[16,2,16,0,0,23,9,0,0,0,0],"split_type":[0,0,0,0,0,0,0,0,0,0,0],"sum_hessian":[5.5E1,4E0,5.1E1,2E0,2E0,3.4E1,1.7E1,2.2E1,1.2E1,1.2E1,5E0],"tree_param":{"num_deleted":"0","num_feature":"24","num_nodes":"11","size_leaf_vector":"1"}},{"base_weights":[6.261437E-5,1.7827004E-4,-9.308945E-4,-2.731707E-5,1.2867154E-3,2.3759312E-5,-1.5745366E-4,-3.63065E-5,5.829334E-5,2.1576555E-4,3.3262015E-5],"categories":[],"categories_nodes":[],"categories_segments":[],"categories_sizes":[],"default_left":[0,0,0,0,0,0,0,0,0,0,0],"id":33,"left_children":[1,3,5,7,9,-1,-1,-1,-1,-1,-1],"loss_changes":[6.6006273E-6,1.1657135E-5,4.8866254E-6,9.226817E-6,5.929998E-6,0E0,0E0,0E0,0E0,0E0,0E0],"parents":[2147483647,0,0,1,1,2,2,3,3,4,4],"right_children":[2,4,6,8,10,-1,-1,-1,-1,-1,-1],"split_conditions":[1.4368578E0,1.1329842E0,2.6397854E-1,-1.1240267E-1,1.148744E0,2.3759312E-5,-1.5745366E-4,-3.63065E-5,5.829334E-5,2.1576555E-4,3.3262015E-5],"split_indices":[0,21,2,11,18,0,0,0,0,0,0],"split_type":[0,0,0,0,0,0,0,0,0,0,0],"sum_hessian":[5.5E1,5E1,5E0,4.3E1,7E0,2E0,3E0,2.8E1,1.5E1,3E0,4E0],"tree_param":{"num_deleted":"0","num_feature":"24","num_nodes":"11","size_leaf_vector":"1"}},{"base_weights":[5.8805115E-5,8.218223E-4,-8.548571E-5,-1.9574463E-5,1.3632298E-4,7.074876E-4,-2.6176756E-4,-2.73477E-5,1.2435495E-4,-8.724521E-5,1.0061839E-5],"categories":[],"categories_nodes":[],"categories_segments":[],"categories_sizes":[],"default_left":[0,0,0,0,0,0,0,0,0,0,0],"id":34,"left_children":[1,3,5,-1,-1,7,9,-1,-1,-1,-1],"loss_changes":[6.235651E-6,5.22511E-6,6.894964E-6,0E0,0E0,5.072801E-6,8.939925E-6,0E0,0E0,0E0,0E0],"parents":[2147483647,0,0,1,1,2,2,5,5,6,6],"right_children":[2,4,6,-1,-1,8,10,-1,-1,-1,-1],"split_conditions":[-9.1937107E-1,-4.0336102E-1,-1.1037557E0,-1.9574463E-5,1.3632298E-4,-7.982886E-1,-5.2614994E-2,-2.73477E-5,1.2435495E-4,-8.724521E-5,1.0061839E-5],"split_indices":[7,21,23,0,0,0,22,0,0,0,0],"split_type":[0,0,0,0,0,0,0,0,0,0,0],"sum_hessian":[5.5E1,8E0,4.7E1,3E0,5E0,8E0,3.9E1,3E0,5E0,1.4E1,2.5E1],"tree_param":{"num_deleted":"0","num_feature":"24","num_nodes":"11","size_leaf_vector":"1"}},{"base_weights":[5.536335E-5,2.3899884E-4,-4.625069E-4,-1.6480055E-5,1.1775859E-3,5.575702E-4,-1.0283025E-3,-2.7217326E-5,1.00864716E-4,-4.865448E-5,1.7225582E-4,-6.9681395E-5,9.478098E-5,1.9487949E-5,-1.1858648E-4],"categories":[],"categories_nodes":[],"categories_segments":[],"categories_sizes":[],"default_left":[0,0,0,0,0,0,0,0,0,0,0,0,0,0,0],"id":35,"left_children":[1,3,5,7,9,11,13,-1,-1,-1,-1,-1,-1,-1,-1],"loss_changes":[5.4361026E-6,1.0090552E-5,9.230678E-6,9.18654E-6,9.000248E-6,3.5975095E-6,2.1583755E-6,0E0,0E0,0E0,0E0,0E0,0E0,0E0,0E0],"parents":[2147483647,0,0,1,1,2,2,3,3,4,4,5,5,6,6],"right_children":[2,4,6,8,10,12,14,-1,-1,-1,-1,-1,-1,-1,-1],"split_conditions":[3.9178756E-1,8.2922745E-1,-6.18651E-1,1.0276076E0,-4.274915E-1,4.1890392E-1,-1.1276232E0,-2.7217326E-5,1.00864716E-4,-4.865448E-5,1.7225582E-4,-6.9681395E-5,9.478098E-5,1.9487949E-5,-1.1858648E-4],"split_indices":[2,15,23,10,0,2,14,0,0,0,0,0,0,0,0],"split_type":[0,0,0,0,0,0,0,0,0,0,0,0,0,0,0],"sum_hessian":[5.5E1,4.1E1,1.4E1,3.3E1,8E0,5E0,9E0,2.7E1,6E0,2E0,6E0,1E0,4E0,1E0,8E0],"tree_param":{"num_deleted":"0","num_feature":"24","num_nodes":"15","size_leaf_vector":"1"}},{"base_weights":[5.202795E-5,7.546415E-4,-8.0796E-5,-1.6065065E-5,1.2390627E-4,-3.664814E-4,3.374876E-4,-4.8629532E-5,1.4941544E-4,8.22796E-5,-6.8134155E-5],"categories":[],"categories_nodes":[],"categories_segments":[],"categories_sizes":[],"default_left":[0,0,0,0,0,0,0,0,0,0,0],"id":36,"left_children":[1,3,5,-1,-1,7,9,-1,-1,-1,-1],"loss_changes":[5.287111E-6,4.1895387E-6,5.859564E-6,0E0,0E0,7.1915724E-6,1.0449531E-5,0E0,0E0,0E0,0E0],"parents":[2147483647,0,0,1,1,2,2,5,5,6,6],"right_children":[2,4,6,-1,-1,8,10,-1,-1,-1,-1],"split_conditions":[-9.1937107E-1,-4.0336102E-1,7.234923E-1,-1.6065065E-5,1.2390627E-4,1.956122E0,1.3403265E0,-4.8629532E-5,1.4941544E-4,8.22796E-5,-6.8134155E-5],"split_indices":[7,21,21,0,0,9,0,0,0,0,0],"split_type":[0,0,0,0,0,0,0,0,0,0,0],"sum_hessian":[5.5E1,8E0,4.7E1,3E0,5E0,2.8E1,1.9E1,2.7E1,1E0,1.3E1,6E0],"tree_param":{"num_deleted":"0","num_feature":"24","num_nodes":"11","size_leaf_vector":"1"}},{"base_weights":[5.0803184E-5,1.580025E-4,-7.221638E-4,3.6512638E-4,-4.5959055E-4,-1.1566257E-4,-1.07161E-5,-5.5631222E-5,5.9113874E-5,2.9439892E-5,-1.1479243E-4],"categories":[],"categories_nodes":[],"categories_segments":[],"categories_sizes":[],"default_left":[0,0,0,0,0,0,0,0,0,0,0],"id":37,"left_children":[1,3,5,7,9,-1,-1,-1,-1,-1,-1],"loss_changes":[4.75435E-6,6.5637223E-6,1.746422E-6,8.242603E-6,7.0849E-6,0E0,0E0,0E0,0E0,0E0,0E0],"parents":[2147483647,0,0,1,1,2,2,3,3,4,4],"right_children":[2,4,6,8,10,-1,-1,-1,-1,-1,-1],"split_conditions":[1.6378393E0,3.9178756E-1,3.1197432E-1,-9.1170776E-1,5.5127483E-2,-1.1566257E-4,-1.07161E-5,-5.5631222E-5,5.9113874E-5,2.9439892E-5,-1.1479243E-4],"split_indices":[22,2,3,0,23,0,0,0,0,0,0],"split_type":[0,0,0,0,0,0,0,0,0,0,0],"sum_hessian":[5.5E1,4.9E1,6E0,3.7E1,1.2E1,3E0,3E0,7E0,3E1,6E0,6E0],"tree_param":{"num_deleted":"0","num_feature":"24","num_nodes":"11","size_leaf_vector":"1"}},{"base_weights":[4.200412E-5,9.645627E-4,-4.7511203E-5,2.3487102E-5,1.3727335E-4,-1.6329323E-4,8.673665E-4,-2.713271E-5,1.06590254E-4,1.58782E-4,-3.823603E-5],"categories":[],"categories_nodes":[],"categories_segments":[],"categories_sizes":[],"default_left":[0,0,0,0,0,0,0,0,0,0,0],"id":38,"left_children":[1,3,5,-1,-1,7,9,-1,-1,-1,-1],"loss_changes":[4.670483E-6,1.1667785E-6,5.649808E-6,0E0,0E0,6.530561E-6,6.0093394E-6,0E0,0E0,0E0,0E0],"parents":[2147483647,0,0,1,1,2,2,5,5,6,6],"right_children":[2,4,6,-1,-1,8,10,-1,-1,-1,-1],"split_conditions":[-1.1323032E0,-3.9482883E-1,9.2091614E-1,2.3487102E-5,1.3727335E-4,1.3589134E0,4.696295E-2,-2.713271E-5,1.06590254E-4,1.58782E-4,-3.823603E-5],"split_indices":[16,2,15,0,0,9,3,0,0,0,0],"split_type":[0,0,0,0,0,0,0,0,0,0,0],"sum_hessian":[5.5E1,4E0,5.1E1,2E0,2E0,4.6E1,5E0,4.3E1,3E0,3E0,2E0],"tree_param":{"num_deleted":"0","num_feature":"24","num_nodes":"11","size_leaf_vector":"1"}},{"base_weights":[4.424599E-5,-1.16004434E-4,4.8999744E-4,-3.2868137E-4,5.13238E-4,-7.818916E-5,1.0235836E-3,-7.753519E-5,2.2923521E-5,1.490375E-4,-2.5803665E-5,1.4276463E-4,-5.2979893E-5],"categories":[],"categories_nodes":[],"categories_segments":[],"categories_sizes":[],"default_left":[0,0,0,0,0,0,0,0,0,0,0,0,0],"id":39,"left_children":[1,3,5,7,9,-1,11,-1,-1,-1,-1,-1,-1],"loss_changes":[4.0570258E-6,5.789357E-6,1.0980267E-5,8.152293E-6,8.674622E-6,0E0,7.660668E-6,0E0,0E0,0E0,0E0,0E0,0E0],"parents":[2147483647,0,0,1,1,2,2,3,3,4,4,6,6],"right_children":[2,4,6,8,10,-1,12,-1,-1,-1,-1,-1,-1],"split_conditions":[7.9296106E-1,1.0671579E0,-2.559377E-1,3.6386967E-2,1.9255118E-1,-7.818916E-5,2.476558E0,-7.753519E-5,2.2923521E-5,1.490375E-4,-2.5803665E-5,1.4276463E-4,-5.2979893E-5],"split_indices":[15,10,0,14,7,0,7,0,0,0,0,0,0],"split_type":[0,0,0,0,0,0,0,0,0,0,0,0,0],"sum_hessian":[5.5E1,4.1E1,1.4E1,3.1E1,1E1,4E0,1E1,1.7E1,1.4E1,4E0,6E0,8E0,2E0],"tree_param":{"num_deleted":"0","num_feature":"24","num_nodes":"13","size_leaf_vector":"1"}},{"base_weights":[4.125386E-5,1.3624094E-4,-6.431187E-4,3.2356818E-4,-4.218111E-4,-1.155371E-4,-2.0714357E-5,1.4046348E-5,1.276716E-4,2.323892E-5,-1.0157527E-4],"categories":[],"categories_nodes":[],"categories_segments":[],"categories_sizes":[],"default_left":[0,0,0,0,0,0,0,0,0,0,0],"id":40,"left_children":[1,3,5,7,9,-1,-1,-1,-1,-1,-1],"loss_changes":[3.7279858E-6,5.3634026E-6,1.3239769E-6,6.4526507E-6,5.2872883E-6,0E0,0E0,0E0,0E0,0E0,0E0],"parents":[2147483647,0,0,1,1,2,2,3,3,4,4],"right_children":[2,4,6,8,10,-1,-1,-1,-1,-1,-1],"split_conditions":[1.6378393E0,3.9178756E-1,5.543292E-1,1.242341E-1,5.5127483E-2,-1.155371E-4,-2.0714357E-5,1.4046348E-5,1.276716E-4,2.323892E-5,-1.0157527E-4],"split_indices":[22,2,21,2,23,0,0,0,0,0,0],"split_type":[0,0,0,0,0,0,0,0,0,0,0],"sum_hessian":[5.5E1,4.9E1,6E0,3.7E1,1.2E1,2E0,4E0,3.2E1,5E0,6E0,6E0],"tree_param":{"num_deleted":"0","num_feature":"24","num_nodes":"11","size_leaf_vector":"1"}},{"base_weights":[3.582727E-5,-4.9746508E-5,7.572332E-4,-2.8643434E-4,3.6396115E-4,1.3488275E-4,-2.8397035E-5,-4.8580496E-5,5.2348572E-5,1.7813021E-4,9.2432665E-6],"categories":[],"categories_nodes":[],"categories_segments":[],"categories_sizes":[],"default_left":[0,0,0,0,0,0,0,0,0,0,0],"id":41,"left_children":[1,3,5,7,9,-1,-1,-1,-1,-1,-1],"loss_changes":[3.4947413E-6,5.098149E-6,4.0788473E-6,5.5829623E-6,7.1474706E-6,0E0,0E0,0E0,0E0,0E0,0E0],"parents":[2147483647,0,0,1,1,2,2,3,3,4,4],"right_children":[2,4,6,8,10,-1,-1,-1,-1,-1,-1],"split_conditions":[9.2091614E-1,-6.8835616E-2,4.696295E-2,9.25828E-1,-2.3387751E-1,1.3488275E-4,-2.8397035E-5,-4.8580496E-5,5.2348572E-5,1.7813021E-4,9.2432665E-6],"split_indices":[15,11,3,23,12,0,0,0,0,0,0],"split_type":[0,0,0,0,0,0,0,0,0,0,0],"sum_hessian":[5.5E1,5E1,5E0,3.2E1,1.8E1,3E0,2E0,2.6E1,6E0,2E0,1.6E1],"tree_param":{"num_deleted":"0","num_feature":"24","num_nodes":"11","size_leaf_vector":"1"}},{"base_weights":[3.7559334E-5,8.1953905E-5,-3.835331E-5,-8.615265E-4,6.754866E-5,-1.2294695E-4,-8.3760515E-6,-1.6622906E-5,4.8987575E-5],"categories":[],"categories_nodes":[],"categories_segments":[],"categories_sizes":[],"default_left":[0,0,0,0,0,0,0,0,0],"id":42,"left_children":[1,-1,3,5,7,-1,-1,-1,-1],"loss_changes":[3.3557121E-6,0E0,4.5913293E-6,1.6140598E-6,4.7217723E-6,0E0,0E0,0E0,0E0],"parents":[2147483647,0,0,2,2,3,3,4,4],"right_children":[2,-1,4,6,8,-1,-1,-1,-1],"split_conditions":[-1.1323032E0,8.1953905E-5,-9.1170776E-1,-1.81028E-1,-6.8835616E-2,-1.2294695E-4,-8.3760515E-6,-1.6622906E-5,4.8987575E-5],"split_indices":[16,0,0,4,11,0,0,0,0],"split_type":[0,0,0,0,0,0,0,0,0],"sum_hessian":[5.5E1,4E0,5.1E1,5E0,4.6E1,3E0,2E0,3E1,1.6E1],"tree_param":{"num_deleted":"0","num_feature":"24","num_nodes":"9","size_leaf_vector":"1"}},{"base_weights":[3.3499717E-5,1.1408138E-4,-6.570277E-4,-2.9722363E-5,8.907418E-4,4.948075E-5,-9.863563E-5,-2.7490798E-5,4.165342E-5,1.4636906E-4,2.5423446E-5],"categories":[],"categories_nodes":[],"categories_segments":[],"categories_sizes":[],"default_left":[0,0,0,0,0,0,0,0,0,0,0],"id":43,"left_children":[1,3,5,7,9,-1,-1,-1,-1,-1,-1],"loss_changes":[3.1910101E-6,5.7224956E-6,2.7640497E-6,4.9287987E-6,2.5453678E-6,0E0,0E0,0E0,0E0,0E0,0E0],"parents":[2147483647,0,0,1,1,2,2,3,3,4,4],"right_children":[2,4,6,8,10,-1,-1,-1,-1,-1,-1],"split_conditions":[1.4368578E0,1.1329842E0,-6.885914E-1,-1.1240267E-1,1.148744E0,4.948075E-5,-9.863563E-5,-2.7490798E-5,4.165342E-5,1.4636906E-4,2.5423446E-5],"split_indices":[0,21,2,11,18,0,0,0,0,0,0],"split_type":[0,0,0,0,0,0,0,0,0,0,0],"sum_hessian":[5.5E1,5E1,5E0,4.3E1,7E0,1E0,4E0,2.8E1,1.5E1,3E0,4E0],"tree_param":{"num_deleted":"0","num_feature":"24","num_nodes":"11","size_leaf_vector":"1"}},{"base_weights":[3.259256E-5,-9.2760725E-5,4.5435812E-4,-2.5237357E-4,4.0902087E-4,-6.320316E-5,1.0074237E-3,-5.7552283E-5,1.9531702E-5,1.2473781E-4,-2.4823725E-5,1.470283E-4,-4.083894E-5],"categories":[],"categories_nodes":[],"categories_segments":[],"categories_sizes":[],"default_left":[0,0,0,0,0,0,0,0,0,0,0,0,0],"id":44,"left_children":[1,3,5,7,9,-1,11,-1,-1,-1,-1,-1,-1],"loss_changes":[3.0028498E-6,3.6272208E-6,8.447705E-6,5.03122E-6,6.370834E-6,0E0,6.4983487E-6,0E0,0E0,0E0,0E0,0E0,0E0],"parents":[2147483647,0,0,1,1,2,2,3,3,4,4,6,6],"right_children":[2,4,6,8,10,-1,12,-1,-1,-1,-1,-1,-1],"split_conditions":[8.2922745E-1,1.0671579E0,-2.559377E-1,3.6386967E-2,1.9255118E-1,-6.320316E-5,2.476558E0,-5.7552283E-5,1.9531702E-5,1.2473781E-4,-2.4823725E-5,1.470283E-4,-4.083894E-5],"split_indices":[15,10,0,14,7,0,7,0,0,0,0,0,0],"split_type":[0,0,0,0,0,0,0,0,0,0,0,0,0],"sum_hessian":[5.5E1,4.3E1,1.2E1,3.3E1,1E1,4E0,8E0,1.9E1,1.4E1,4E0,6E0,6E0,2E0],"tree_param":{"num_deleted":"0","num_feature":"24","num_nodes":"13","size_leaf_vector":"1"}},{"base_weights":[3.120619E-5,1.6958512E-4,-3.2534022E-4,-1.5111563E-5,8.279635E-4,1.2555113E-4,-7.919255E-4,4.467272E-5,-3.376431E-5,1.2027059E-4,5.8859005E-6,-6.552497E-5,4.4224416E-5,4.7444678E-7,-1.0582728E-4],"categories":[],"categories_nodes":[],"categories_segments":[],"categories_sizes":[],"default_left":[0,0,0,0,0,0,0,0,0,0,0,0,0,0,0],"id":45,"left_children":[1,3,5,7,9,11,13,-1,-1,-1,-1,-1,-1,-1,-1],"loss_changes":[2.8181296E-6,4.9981245E-6,3.4654954E-6,5.0664344E-6,2.5231557E-6,2.5152474E-6,1.7025482E-6,0E0,0E0,0E0,0E0,0E0,0E0,0E0,0E0],"parents":[2147483647,0,0,1,1,2,2,3,3,4,4,5,5,6,6],"right_children":[2,4,6,8,10,12,14,-1,-1,-1,-1,-1,-1,-1,-1],"split_conditions":[3.5248885E-1,9.068564E-1,5.5127483E-2,-1.4484277E-1,2.5755304E-1,2.66306E-1,-1.1276232E0,4.467272E-5,-3.376431E-5,1.2027059E-4,5.8859005E-6,-6.552497E-5,4.4224416E-5,4.7444678E-7,-1.0582728E-4],"split_indices":[2,23,23,3,9,15,14,0,0,0,0,0,0,0,0],"split_type":[0,0,0,0,0,0,0,0,0,0,0,0,0,0,0],"sum_hessian":[5.5E1,4E1,1.5E1,3.2E1,8E0,8E0,7E0,1.3E1,1.9E1,5E0,3E0,2E0,6E0,2E0,5E0],"tree_param":{"num_deleted":"0","num_feature":"24","num_nodes":"15","size_leaf_vector":"1"}},{"base_weights":[2.8271517E-5,1.0698081E-4,-5.3797656E-5,2.665662E-4,-3.2242204E-4,-1.8647783E-5,5.5043987E-5,6.190297E-5,-5.3091644E-5],"categories":[],"categories_nodes":[],"categories_segments":[],"categories_sizes":[],"default_left":[0,0,0,0,0,0,0,0,0],"id":46,"left_children":[1,3,-1,5,7,-1,-1,-1,-1],"loss_changes":[2.5534164E-6,3.5122678E-6,0E0,4.8611137E-6,3.0766766E-6,0E0,0E0,0E0,0E0],"parents":[2147483647,0,0,1,1,3,3,4,4],"right_children":[2,4,-1,6,8,-1,-1,-1,-1],"split_conditions":[1.6378393E0,3.5248885E-1,-5.3797656E-5,-3.0721235E-1,-6.4029706E-1,-1.8647783E-5,5.5043987E-5,6.190297E-5,-5.3091644E-5],"split_indices":[22,2,0,0,0,0,0,0,0],"split_type":[0,0,0,0,0,0,0,0,0],"sum_hessian":[5.5E1,4.9E1,6E0,3.6E1,1.3E1,1.4E1,2.2E1,2E0,1.1E1],"tree_param":{"num_deleted":"0","num_feature":"24","num_nodes":"9","size_leaf_vector":"1"}},{"base_weights":[2.5290925E-5,-4.7869817E-5,6.429421E-4,-2.289799E-4,2.6920927E-4,1.0629704E-4,-1.3140969E-5,-4.3236523E-5,2.8204284E-5,-4.522673E-5,6.3698826E-5],"categories":[],"categories_nodes":[],"categories_segments":[],"categories_sizes":[],"default_left":[0,0,0,0,0,0,0,0,0,0,0],"id":47,"left_children":[1,3,5,7,9,-1,-1,-1,-1,-1,-1],"loss_changes":[2.5612953E-6,2.9903806E-6,2.0911825E-6,3.5517849E-6,5.329623E-6,0E0,0E0,0E0,0E0,0E0,0E0],"parents":[2147483647,0,0,1,1,2,2,3,3,4,4],"right_children":[2,4,6,8,10,-1,-1,-1,-1,-1,-1],"split_conditions":[9.2091614E-1,-6.8835616E-2,4.696295E-2,9.201842E-1,-8.901728E-1,1.0629704E-4,-1.3140969E-5,-4.3236523E-5,2.8204284E-5,-4.522673E-5,6.3698826E-5],"split_indices":[15,11,3,21,14,0,0,0,0,0,0],"split_type":[0,0,0,0,0,0,0,0,0,0,0],"sum_hessian":[5.5E1,5E1,5E0,3.2E1,1.8E1,3E0,2E0,2.3E1,9E0,6E0,1.2E1],"tree_param":{"num_deleted":"0","num_feature":"24","num_nodes":"11","size_leaf_vector":"1"}},{"base_weights":[2.4486786E-5,9.823285E-5,-5.0576895E-5,2.4247625E-4,-2.8999848E-4,1.0319555E-5,1.1132335E-4,-6.744498E-5,1.9080273E-5],"categories":[],"categories_nodes":[],"categories_segments":[],"categories_sizes":[],"default_left":[0,0,0,0,0,0,0,0,0],"id":48,"left_children":[1,3,-1,5,7,-1,-1,-1,-1],"loss_changes":[2.239522E-6,2.870308E-6,0E0,4.372467E-6,2.716511E-6,0E0,0E0,0E0,0E0],"parents":[2147483647,0,0,1,1,3,3,4,4],"right_children":[2,4,-1,6,8,-1,-1,-1,-1],"split_conditions":[1.6378393E0,3.5248885E-1,-5.0576895E-5,1.242341E-1,6.159995E-1,1.0319555E-5,1.1132335E-4,-6.744498E-5,1.9080273E-5],"split_indices":[22,2,0,2,4,0,0,0,0],"split_type":[0,0,0,0,0,0,0,0,0],"sum_hessian":[5.5E1,4.9E1,6E0,3.6E1,1.3E1,3.2E1,4E0,7E0,6E0],"tree_param":{"num_deleted":"0","num_feature":"24","num_nodes":"9","size_leaf_vector":"1"}},{"base_weights":[2.2443497E-5,-4.5600245E-5,5.9707474E-4,-2.0735896E-4,2.3774912E-4,9.733176E-5,-1.0360723E-5,-4.233546E-5,2.05913E-5,1.3866053E-4,2.102456E-6],"categories":[],"categories_nodes":[],"categories_segments":[],"categories_sizes":[],"default_left":[0,0,0,0,0,0,0,0,0,0,0],"id":49,"left_children":[1,3,5,7,9,-1,-1,-1,-1,-1,-1],"loss_changes":[2.2168301E-6,2.3868452E-6,1.6826018E-6,3.0329174E-6,4.7015687E-6,0E0,0E0,0E0,0E0,0E0,0E0],"parents":[2147483647,0,0,1,1,2,2,3,3,4,4],"right_children":[2,4,6,8,10,-1,-1,-1,-1,-1,-1],"split_conditions":[9.2091614E-1,-6.8835616E-2,4.696295E-2,3.3318558E-1,-2.3387751E-1,9.733176E-5,-1.0360723E-5,-4.233546E-5,2.05913E-5,1.3866053E-4,2.102456E-6],"split_indices":[15,11,3,3,12,0,0,0,0,0,0],"split_type":[0,0,0,0,0,0,0,0,0,0,0],"sum_hessian":[5.5E1,5E1,5E0,3.2E1,1.8E1,3E0,2E0,2.1E1,1.1E1,2E0,1.6E1],"tree_param":{"num_deleted":"0","num_feature":"24","num_nodes":"11","size_leaf_vector":"1"}},{"base_weights":[2.3877485E-5,4.5528825E-4,-5.750948E-5,-2.8485767E-5,7.074525E-5,-2.5669642E-4,1.701588E-4,5.390416E-5,-3.8392496E-5,6.160747E-5,-1.6050673E-5],"categories":[],"categories_nodes":[],"categories_segments":[],"categories_sizes":[],"default_left":[0,0,0,0,0,0,0,0,0,0,0],"id":50,"left_children":[1,3,5,-1,-1,7,9,-1,-1,-1,-1],"loss_changes":[1.9924112E-6,1.881268E-6,2.2204097E-6,0E0,0E0,2.839206E-6,3.4902114E-6,0E0,0E0,0E0,0E0],"parents":[2147483647,0,0,1,1,2,2,5,5,6,6],"right_children":[2,4,6,-1,-1,8,10,-1,-1,-1,-1],"split_conditions":[-9.1937107E-1,-5.3140634E-1,5.543292E-1,-2.8485767E-5,7.074525E-5,-4.4285256E-1,-1.7821799E-1,5.390416E-5,-3.8392496E-5,6.160747E-5,-1.6050673E-5],"split_indices":[7,21,21,0,0,16,12,0,0,0,0],"split_type":[0,0,0,0,0,0,0,0,0,0,0],"sum_hessian":[5.5E1,8E0,4.7E1,2E0,6E0,2.5E1,2.2E1,3E0,2.2E1,9E0,1.3E1],"tree_param":{"num_deleted":"0","num_feature":"24","num_nodes":"11","size_leaf_vector":"1"}},{"base_weights":[2.3334924E-5,-3.7802354E-5,5.3911266E-4,-1.017774E-4,5.711235E-5,8.731687E-5,-8.5999645E-6,-3.8420563E-5,8.677135E-6],"categories":[],"categories_nodes":[],"categories_segments":[],"categories_sizes":[],"default_left":[0,0,0,0,0,0,0,0,0],"id":51,"left_children":[1,3,5,7,-1,-1,-1,-1,-1],"loss_changes":[1.7862416E-6,2.0448863E-6,1.3280273E-6,2.5361583E-6,0E0,0E0,0E0,0E0,0E0],"parents":[2147483647,0,0,1,1,2,2,3,3],"right_children":[2,4,6,8,-1,-1,-1,-1,-1],"split_conditions":[9.2091614E-1,1.3589134E0,4.696295E-2,-7.3856425E-1,5.711235E-5,8.731687E-5,-8.5999645E-6,-3.8420563E-5,8.677135E-6],"split_indices":[15,9,3,14,0,0,0,0,0],"split_type":[0,0,0,0,0,0,0,0,0],"sum_hessian":[5.5E1,5E1,5E0,4.6E1,4E0,3E0,2E0,1.8E1,2.8E1],"tree_param":{"num_deleted":"0","num_feature":"24","num_nodes":"9","size_leaf_vector":"1"}},{"base_weights":[2.2895792E-5,8.277428E-5,-4.898873E-4,-3.8578393E-5,6.5337325E-4,3.9342234E-5,-7.452338E-5,8.49686E-6,-8.1461294E-5,1.1797054E-5,1.0581013E-4],"categories":[],"categories_nodes":[],"categories_segments":[],"categories_sizes":[],"default_left":[0,0,0,0,0,0,0,0,0,0,0],"id":52,"left_children":[1,3,5,7,9,-1,-1,-1,-1,-1,-1],"loss_changes":[1.7600119E-6,3.5566354E-6,1.646491E-6,4.1919157E-6,1.8254077E-6,0E0,0E0,0E0,0E0,0E0,0E0],"parents":[2147483647,0,0,1,1,2,2,3,3,4,4],"right_children":[2,4,6,8,10,-1,-1,-1,-1,-1,-1],"split_conditions":[1.4368578E0,9.25828E-1,-6.885914E-1,5.322826E-1,-8.901728E-1,3.9342234E-5,-7.452338E-5,8.49686E-6,-8.1461294E-5,1.1797054E-5,1.0581013E-4],"split_indices":[0,23,2,23,14,0,0,0,0,0,0],"split_type":[0,0,0,0,0,0,0,0,0,0,0],"sum_hessian":[5.5E1,5E1,5E0,4.2E1,8E0,1E0,4E0,3.7E1,5E0,4E0,4E0],"tree_param":{"num_deleted":"0","num_feature":"24","num_nodes":"11","size_leaf_vector":"1"}},{"base_weights":[2.077515E-5,-8.20139E-5,3.071995E-4,-2.1836488E-4,3.220993E-4,-4.4235658E-5,6.199796E-4,-5.072268E-5,1.4282707E-5,9.672122E-5,-1.8470975E-5,8.574969E-5,-2.9923247E-5],"categories":[],"categories_nodes":[],"categories_segments":[],"categories_sizes":[],"default_left":[0,0,0,0,0,0,0,0,0,0,0,0,0],"id":53,"left_children":[1,3,5,7,9,-1,11,-1,-1,-1,-1,-1,-1],"loss_changes":[1.6739066E-6,2.3845869E-6,3.7909451E-6,3.4111524E-6,3.7750924E-6,0E0,2.658208E-6,0E0,0E0,0E0,0E0,0E0,0E0],"parents":[2147483647,0,0,1,1,2,2,3,3,4,4,6,6],"right_children":[2,4,6,8,10,-1,12,-1,-1,-1,-1,-1,-1],"split_conditions":[7.9296106E-1,1.0671579E0,-2.559377E-1,3.6386967E-2,1.9255118E-1,-4.4235658E-5,2.476558E0,-5.072268E-5,1.4282707E-5,9.672122E-5,-1.8470975E-5,8.574969E-5,-2.9923247E-5],"split_indices":[15,10,0,14,7,0,7,0,0,0,0,0,0],"split_type":[0,0,0,0,0,0,0,0,0,0,0,0,0],"sum_hessian":[5.5E1,4.1E1,1.4E1,3.1E1,1E1,4E0,1E1,1.7E1,1.4E1,4E0,6E0,8E0,2E0],"tree_param":{"num_deleted":"0","num_feature":"24","num_nodes":"13","size_leaf_vector":"1"}}]},"name":"gbtree"},"learner_model_param":{"base_score":"[6.8881228E-3]","boost_from_average":"1","num_class":"0","num_feature":"24","num_target":"1"},"objective":{"name":"reg:squarederror","reg_loss_param":{"scale_pos_weight":"1"}}},"version":[3,1,1]}