{"learner":{"attributes":{"best_iteration":"3","best_score":"0.01006245270169879"},"feature_names":[],"feature_types":[],"gradient_booster":{"model":{"cats":{"enc":[],"feature_segments":[],"sorted_idx":[]},"gbtree_model_param":{"num_parallel_tree":"1","num_trees":"24"},"iteration_indptr":[0,1,2,3,4,5,6,7,8,9,10,11,12,13,14,15,16,17,18,19,20,21,22,23,24],"tree_info":[0,0,0,0,0,0,0,0,0,0,0,0,0,0,0,0,0,0,0,0,0,0,0,0],"trees":[{"base_weights":[-1.9541144E-10,7.0295134E-3,-6.75915E-4,4.2466865E-5,8.574558E-4,1.9042674E-3,-2.3480372E-3,-1.6850616E-4,6.0210354E-4,-2.731913E-4,4.776055E-4],"categories":[],"categories_nodes":[],"categories_segments":[],"categories_sizes":[],"default_left":[0,0,0,0,0,0,0,0,0,0,0],"id":0,"left_children":[1,3,5,-1,-1,7,9,-1,-1,-1,-1],"loss_changes":[2.7082706E-4,4.738255E-5,2.2881907E-4,0E0,0E0,3.2045093E-4,1.0056027E-4,0E0,0E0,0E0,0E0],"parents":[2147483647,0,0,1,1,2,2,5,5,6,6],"right_children":[2,4,6,-1,-1,8,10,-1,-1,-1,-1],"split_conditions":[-1.1323032E0,-1.656665E0,-1.5664114E-1,4.2466865E-5,8.574558E-4,1.692887E-1,3.4157064E0,-1.6850616E-4,6.0210354E-4,-2.731913E-4,4.776055E-4],"split_indices":[16,0,3,0,0,10,2,0,0,0,0],"split_type":[0,0,0,0,0,0,0,0,0,0,0],"sum_hessian":[5.5E1,4E0,5.1E1,1E0,3E0,2E1,3.1E1,1.1E1,9E0,3E1,1E0],"tree_param":{"num_deleted":"0","num_feature":"24","num_nodes":"11","size_leaf_vector":"1"}},{"base_weights":[2.7463035E-5,6.5065464E-3,-5.960539E-4,4.0343522E-5,7.9314655E-4,-1.6455696E-3,3.0394625E-3,-2.363148E-4,5.582818E-4,-2.4578496E-4,7.3172356E-4],"categories":[],"categories_nodes":[],"categories_segments":[],"categories_sizes":[],"default_left":[0,0,0,0,0,0,0,0,0,0,0],"id":1,"left_children":[1,3,5,-1,-1,7,9,-1,-1,-1,-1],"loss_changes":[2.3010808E-4,4.028238E-5,2.0340929E-4,0E0,0E0,2.2585737E-4,3.001797E-4,0E0,0E0,0E0,0E0],"parents":[2147483647,0,0,1,1,2,2,5,5,6,6],"right_children":[2,4,6,-1,-1,8,10,-1,-1,-1,-1],"split_conditions":[-1.1323032E0,-1.656665E0,6.9109535E-1,4.0343522E-5,7.9314655E-4,9.169559E-1,2.7765822E-1,-2.363148E-4,5.582818E-4,-2.4578496E-4,7.3172356E-4],"split_indices":[16,0,9,0,0,15,16,0,0,0,0],"split_type":[0,0,0,0,0,0,0,0,0,0,0],"sum_hessian":[5.5E1,4E0,5.1E1,1E0,3E0,4E1,1.1E1,3.7E1,3E0,5E0,6E0],"tree_param":{"num_deleted":"0","num_feature":"24","num_nodes":"11","size_leaf_vector":"1"}},{"base_weights":[5.4027343E-5,6.02259E-3,-5.2091194E-4,3.8326347E-5,7.3366065E-4,-1.4731599E-3,2.7760111E-3,-2.1330522E-4,5.164106E-4,-2.2530288E-4,6.690044E-4],"categories":[],"categories_nodes":[],"categories_segments":[],"categories_sizes":[],"default_left":[0,0,0,0,0,0,0,0,0,0,0],"id":2,"left_children":[1,3,5,-1,-1,7,9,-1,-1,-1,-1],"loss_changes":[1.9530467E-4,3.423897E-5,1.6734289E-4,0E0,0E0,1.905904E-4,2.512788E-4,0E0,0E0,0E0,0E0],"parents":[2147483647,0,0,1,1,2,2,5,5,6,6],"right_children":[2,4,6,-1,-1,8,10,-1,-1,-1,-1],"split_conditions":[-1.1323032E0,-1.656665E0,6.9109535E-1,3.8326347E-5,7.3366065E-4,9.169559E-1,2.7765822E-1,-2.1330522E-4,5.164106E-4,-2.2530288E-4,6.690044E-4],"split_indices":[16,0,9,0,0,15,16,0,0,0,0],"split_type":[0,0,0,0,0,0,0,0,0,0,0],"sum_hessian":[5.5E1,4E0,5.1E1,1E0,3E0,4E1,1.1E1,3.7E1,3E0,5E0,6E0],"tree_param":{"num_deleted":"0","num_feature":"24","num_nodes":"11","size_leaf_vector":"1"}},{"base_weights":[7.574579E-5,5.574729E-3,-4.5445922E-4,3.6410034E-5,6.786361E-4,1.5790105E-3,-1.7747219E-3,-1.2418944E-4,4.8061955E-4,-2.0900294E-4,3.9999062E-4],"categories":[],"categories_nodes":[],"categories_segments":[],"categories_sizes":[],"default_left":[0,0,0,0,0,0,0,0,0,0,0],"id":3,"left_children":[1,3,5,-1,-1,7,9,-1,-1,-1,-1],"loss_changes":[1.6580643E-4,2.90959E-5,1.4240744E-4,0E0,0E0,1.9714398E-4,6.6625005E-5,0E0,0E0,0E0,0E0],"parents":[2147483647,0,0,1,1,2,2,5,5,6,6],"right_children":[2,4,6,-1,-1,8,10,-1,-1,-1,-1],"split_conditions":[-1.1323032E0,-1.656665E0,-1.5664114E-1,3.6410034E-5,6.786361E-4,1.692887E-1,3.4157064E0,-1.2418944E-4,4.8061955E-4,-2.0900294E-4,3.9999062E-4],"split_indices":[16,0,3,0,0,10,2,0,0,0,0],"split_type":[0,0,0,0,0,0,0,0,0,0,0],"sum_hessian":[5.5E1,4E0,5.1E1,1E0,3E0,2E1,3.1E1,1.1E1,9E0,3E1,1E0],"tree_param":{"num_deleted":"0","num_feature":"24","num_nodes":"11","size_leaf_vector":"1"}},{"base_weights":[9.0715126E-5,5.160265E-3,-3.984861E-4,3.458953E-5,6.2773837E-4,-9.962005E-4,3.5862776E-3,-2.0360724E-4,2.4975804E-4,6.1160716E-4,-1.8254713E-4],"categories":[],"categories_nodes":[],"categories_segments":[],"categories_sizes":[],"default_left":[0,0,0,0,0,0,0,0,0,0,0],"id":4,"left_children":[1,3,5,-1,-1,7,9,-1,-1,-1,-1],"loss_changes":[1.4093798E-4,2.471979E-5,1.2742367E-4,0E0,0E0,1.7220713E-4,1.06998974E-4,0E0,0E0,0E0,0E0],"parents":[2147483647,0,0,1,1,2,2,5,5,6,6],"right_children":[2,4,6,-1,-1,8,10,-1,-1,-1,-1],"split_conditions":[-1.1323032E0,-1.656665E0,9.169559E-1,3.458953E-5,6.2773837E-4,1.0671579E0,4.696295E-2,-2.0360724E-4,2.4975804E-4,6.1160716E-4,-1.8254713E-4],"split_indices":[16,0,15,0,0,10,3,0,0,0,0],"split_type":[0,0,0,0,0,0,0,0,0,0,0],"sum_hessian":[5.5E1,4E0,5.1E1,1E0,3E0,4.5E1,6E0,3.5E1,1E1,4E0,2E0],"tree_param":{"num_deleted":"0","num_feature":"24","num_nodes":"11","size_leaf_vector":"1"}},{"base_weights":[1.0195678E-4,-1.2110785E-3,1.7785636E-3,-1.905878E-3,4.128988E-4,7.943494E-4,8.971134E-4,-2.8889562E-4,1.5965042E-4,3.991873E-4,-4.299707E-5],"categories":[],"categories_nodes":[],"categories_segments":[],"categories_sizes":[],"default_left":[0,0,0,0,0,0,0,0,0,0,0],"id":5,"left_children":[1,3,5,7,-1,-1,9,-1,-1,-1,-1],"loss_changes":[1.2543483E-4,1.2659817E-4,1.2872578E-4,1.04462575E-4,0E0,0E0,9.617753E-5,0E0,0E0,0E0,0E0],"parents":[2147483647,0,0,1,1,2,2,3,3,6,6],"right_children":[2,4,6,8,-1,-1,10,-1,-1,-1,-1],"split_conditions":[7.173623E-2,9.0894574E-1,-4.467256E-1,9.068564E-1,4.128988E-4,7.943494E-4,-5.998183E-1,-2.8889562E-4,1.5965042E-4,3.991873E-4,-4.299707E-5],"split_indices":[9,15,11,23,0,0,22,0,0,0,0],"split_type":[0,0,0,0,0,0,0,0,0,0,0],"sum_hessian":[5.5E1,3.1E1,2.4E1,2.8E1,3E0,2E0,2.2E1,2.2E1,6E0,6E0,1.6E1],"tree_param":{"num_deleted":"0","num_feature":"24","num_nodes":"11","size_leaf_vector":"1"}},{"base_weights":[1.17371805E-4,-6.9362577E-4,2.3803404E-3,-1.679381E-3,2.2370825E-3,-1.985697E-3,4.7619287E-3,3.4051467E-4,-2.1318544E-4,4.198357E-4,-2.244737E-4,-2.7214302E-4,-3.4282046E-5,6.318799E-4,-9.770344E-5],"categories":[],"categories_nodes":[],"categories_segments":[],"categories_sizes":[],"default_left":[0,0,0,0,0,0,0,0,0,0,0,0,0,0,0],"id":6,"left_children":[1,3,5,7,9,11,13,-1,-1,-1,-1,-1,-1,-1,-1],"loss_changes":[1.0442573E-4,1.2509327E-4,1.6542734E-4,8.0878905E-5,1.0611507E-4,6.319353E-6,9.552187E-5,0E0,0E0,0E0,0E0,0E0,0E0,0E0,0E0],"parents":[2147483647,0,0,1,1,2,2,3,3,4,4,5,5,6,6],"right_children":[2,4,6,8,10,12,14,-1,-1,-1,-1,-1,-1,-1,-1],"split_conditions":[7.9296106E-1,1.0671579E0,-2.4956557E-1,-1.2368875E0,1.7568725E0,2.2700725E-2,1.3403265E0,3.4051467E-4,-2.1318544E-4,4.198357E-4,-2.244737E-4,-2.7214302E-4,-3.4282046E-5,6.318799E-4,-9.770344E-5],"split_indices":[15,10,0,16,16,3,0,0,0,0,0,0,0,0,0],"split_type":[0,0,0,0,0,0,0,0,0,0,0,0,0,0,0],"sum_hessian":[5.5E1,4.1E1,1.4E1,3.1E1,1E1,5E0,9E0,2E0,2.9E1,7E0,3E0,3E0,2E0,7E0,2E0],"tree_param":{"num_deleted":"0","num_feature":"24","num_nodes":"15","size_leaf_vector":"1"}},{"base_weights":[1.15463925E-4,-1.0228228E-3,1.5678523E-3,-1.590067E-3,3.3454036E-3,6.9926743E-4,7.920994E-4,-2.412938E-4,1.3408044E-4,3.8672792E-4,8.8988854E-5,3.4933796E-4,-3.667865E-5],"categories":[],"categories_nodes":[],"categories_segments":[],"categories_sizes":[],"default_left":[0,0,0,0,0,0,0,0,0,0,0,0,0],"id":7,"left_children":[1,3,5,7,9,-1,11,-1,-1,-1,-1,-1,-1],"loss_changes":[9.418477E-5,8.4610656E-5,9.966916E-5,7.317542E-5,1.6844424E-6,0E0,7.328227E-5,0E0,0E0,0E0,0E0,0E0,0E0],"parents":[2147483647,0,0,1,1,2,2,3,3,4,4,6,6],"right_children":[2,4,6,8,10,-1,12,-1,-1,-1,-1,-1,-1],"split_conditions":[7.173623E-2,9.0894574E-1,-4.467256E-1,9.068564E-1,1.6106988E-1,6.9926743E-4,-5.998183E-1,-2.412938E-4,1.3408044E-4,3.8672792E-4,8.8988854E-5,3.4933796E-4,-3.667865E-5],"split_indices":[9,15,11,23,0,0,22,0,0,0,0,0,0],"split_type":[0,0,0,0,0,0,0,0,0,0,0,0,0],"sum_hessian":[5.5E1,3.1E1,2.4E1,2.8E1,3E0,2E0,2.2E1,2.2E1,6E0,2E0,1E0,6E0,1.6E1],"tree_param":{"num_deleted":"0","num_feature":"24","num_nodes":"13","size_leaf_vector":"1"}},{"base_weights":[1.2856798E-4,-9.090249E-4,1.4515441E-3,-1.4347575E-3,3.1297924E-3,3.5764328E-3,-2.0347716E-4,-2.1821354E-4,1.2258782E-4,3.6094605E-4,8.453941E-5,-1.6549575E-4,4.9228483E-4,3.0789836E-4,-1.2806743E-4],"categories":[],"categories_nodes":[],"categories_segments":[],"categories_sizes":[],"default_left":[0,0,0,0,0,0,0,0,0,0,0,0,0,0,0],"id":8,"left_children":[1,3,5,7,9,11,13,-1,-1,-1,-1,-1,-1,-1,-1],"loss_changes":[7.819129E-5,7.243731E-5,8.864612E-5,6.0341536E-5,1.3315948E-6,8.562696E-5,5.698104E-5,0E0,0E0,0E0,0E0,0E0,0E0,0E0,0E0],"parents":[2147483647,0,0,1,1,2,2,3,3,4,4,5,5,6,6],"right_children":[2,4,6,8,10,12,14,-1,-1,-1,-1,-1,-1,-1,-1],"split_conditions":[7.173623E-2,9.0894574E-1,-1.7821799E-1,9.068564E-1,1.6106988E-1,-4.692982E-1,-1.9565757E-1,-2.1821354E-4,1.2258782E-4,3.6094605E-4,8.453941E-5,-1.6549575E-4,4.9228483E-4,3.0789836E-4,-1.2806743E-4],"split_indices":[9,15,12,23,0,3,15,0,0,0,0,0,0,0,0],"split_type":[0,0,0,0,0,0,0,0,0,0,0,0,0,0,0],"sum_hessian":[5.5E1,3.1E1,2.4E1,2.8E1,3E0,1E1,1.4E1,2.2E1,6E0,2E0,1E0,2E0,8E0,3E0,1.1E1],"tree_param":{"num_deleted":"0","num_feature":"24","num_nodes":"15","size_leaf_vector":"1"}},{"base_weights":[1.3100548E-4,7.1596453E-4,-1.8589332E-3,-3.32064E-4,2.9854588E-3,-2.4541975E-3,-4.15671E-5,-9.1391325E-5,3.8238967E-4,5.699549E-4,2.374473E-5,-2.9890783E-4,-3.880769E-5],"categories":[],"categories_nodes":[],"categories_segments":[],"categories_sizes":[],"default_left":[0,0,0,0,0,0,0,0,0,0,0,0,0],"id":9,"left_children":[1,3,5,7,9,11,-1,-1,-1,-1,-1,-1,-1],"loss_changes":[6.651677E-5,1.0564512E-4,1.01484475E-5,7.845713E-5,1.0306359E-4,8.786155E-6,0E0,0E0,0E0,0E0,0E0,0E0,0E0],"parents":[2147483647,0,0,1,1,2,2,3,3,4,4,5,5],"right_children":[2,4,6,8,10,12,-1,-1,-1,-1,-1,-1,-1],"split_conditions":[1.4905977E0,1.0135915E-2,-5.3758964E-2,1.3589134E0,-1.7821799E-1,-6.8835616E-2,-4.15671E-5,-9.1391325E-5,3.8238967E-4,5.699549E-4,2.374473E-5,-2.9890783E-4,-3.880769E-5],"split_indices":[22,22,9,9,12,11,0,0,0,0,0,0,0],"split_type":[0,0,0,0,0,0,0,0,0,0,0,0,0],"sum_hessian":[5.5E1,4.3E1,1.2E1,3E1,1.3E1,8E0,4E0,2.7E1,3E0,6E0,7E0,6E0,2E0],"tree_param":{"num_deleted":"0","num_feature":"24","num_nodes":"13","size_leaf_vector":"1"}},{"base_weights":[1.2693022E-4,-4.7573957E-4,1.8059436E-3,-1.1971236E-3,1.9524015E-3,-2.0076206E-4,3.3752052E-3,1.2788559E-4,-1.7947062E-4,3.7816583E-4,-1.736898E-4,4.4595543E-4,-1.00291116E-4],"categories":[],"categories_nodes":[],"categories_segments":[],"categories_sizes":[],"default_left":[0,0,0,0,0,0,0,0,0,0,0,0,0],"id":10,"left_children":[1,3,5,7,9,-1,11,-1,-1,-1,-1,-1,-1],"loss_changes":[5.752503E-5,7.590539E-5,9.654333E-5,5.112205E-5,7.405512E-5,0E0,5.6694E-5,0E0,0E0,0E0,0E0,0E0,0E0],"parents":[2147483647,0,0,1,1,2,2,3,3,4,4,6,6],"right_children":[2,4,6,8,10,-1,12,-1,-1,-1,-1,-1,-1],"split_conditions":[7.9296106E-1,1.0854837E0,-2.559377E-1,-9.1937107E-1,1.7568725E0,-2.0076206E-4,1.3403265E0,1.2788559E-4,-1.7947062E-4,3.7816583E-4,-1.736898E-4,4.4595543E-4,-1.00291116E-4],"split_indices":[15,10,0,7,16,0,0,0,0,0,0,0,0],"split_type":[0,0,0,0,0,0,0,0,0,0,0,0,0],"sum_hessian":[5.5E1,4.1E1,1.4E1,3.2E1,9E0,4E0,1E1,6E0,2.6E1,6E0,3E0,8E0,2E0],"tree_param":{"num_deleted":"0","num_feature":"24","num_nodes":"13","size_leaf_vector":"1"}},{"base_weights":[1.1955492E-4,3.230484E-3,-1.81872E-4,4.171976E-5,4.9669424E-4,-7.645186E-4,1.624877E-3,-1.0490256E-4,3.094075E-4,-1.4748881E-4,3.7465914E-4],"categories":[],"categories_nodes":[],"categories_segments":[],"categories_sizes":[],"default_left":[0,0,0,0,0,0,0,0,0,0,0],"id":11,"left_children":[1,3,5,-1,-1,7,9,-1,-1,-1,-1],"loss_changes":[5.3099728E-5,2.2353572E-5,5.598245E-5,0E0,0E0,4.715762E-5,9.10244E-5,0E0,0E0,0E0,0E0],"parents":[2147483647,0,0,1,1,2,2,5,5,6,6],"right_children":[2,4,6,-1,-1,8,10,-1,-1,-1,-1],"split_conditions":[-1.1323032E0,-3.9482883E-1,5.430282E-1,4.171976E-5,4.9669424E-4,9.2091614E-1,2.7765822E-1,-1.0490256E-4,3.094075E-4,-1.4748881E-4,3.7465914E-4],"split_indices":[16,2,9,0,0,15,16,0,0,0,0],"split_type":[0,0,0,0,0,0,0,0,0,0,0],"sum_hessian":[5.5E1,4E0,5.1E1,2E0,2E0,3.9E1,1.2E1,3.7E1,2E0,5E0,7E0],"tree_param":{"num_deleted":"0","num_feature":"24","num_nodes":"11","size_leaf_vector":"1"}},{"base_weights":[1.2492262E-4,3.0151187E-3,-1.553832E-4,3.893846E-5,4.6358132E-4,1.030437E-3,-9.287219E-4,-5.2515832E-5,3.162915E-4,8.963479E-5,-1.299896E-4],"categories":[],"categories_nodes":[],"categories_segments":[],"categories_sizes":[],"default_left":[0,0,0,0,0,0,0,0,0,0,0],"id":12,"left_children":[1,3,5,-1,-1,7,9,-1,-1,-1,-1],"loss_changes":[4.583627E-5,1.9472453E-5,4.8643105E-5,0E0,0E0,7.132376E-5,2.2842552E-5,0E0,0E0,0E0,0E0],"parents":[2147483647,0,0,1,1,2,2,5,5,6,6],"right_children":[2,4,6,-1,-1,8,10,-1,-1,-1,-1],"split_conditions":[-1.1323032E0,-3.9482883E-1,-1.5664114E-1,3.893846E-5,4.6358132E-4,9.9648875E-1,-1.1276232E0,-5.2515832E-5,3.162915E-4,8.963479E-5,-1.299896E-4],"split_indices":[16,2,3,0,0,16,14,0,0,0,0],"split_type":[0,0,0,0,0,0,0,0,0,0,0],"sum_hessian":[5.5E1,4E0,5.1E1,2E0,2E0,2E1,3.1E1,1.2E1,8E0,5E0,2.6E1],"tree_param":{"num_deleted":"0","num_feature":"24","num_nodes":"11","size_leaf_vector":"1"}},{"base_weights":[1.253937E-4,-3.841513E-4,1.5437601E-3,-9.739938E-4,1.600744E-3,-1.2875189E-3,3.0881516E-3,7.3207746E-5,-1.6442737E-4,3.167938E-4,-1.5420315E-4,-1.9310733E-4,-2.7318796E-8,4.2071068E-4,-9.251137E-5],"categories":[],"categories_nodes":[],"categories_segments":[],"categories_sizes":[],"default_left":[0,0,0,0,0,0,0,0,0,0,0,0,0,0,0],"id":13,"left_children":[1,3,5,7,9,11,13,-1,-1,-1,-1,-1,-1,-1,-1],"loss_changes":[4.106544E-5,5.0731687E-5,6.956509E-5,3.8940736E-5,5.413845E-5,4.9699493E-6,4.8798713E-5,0E0,0E0,0E0,0E0,0E0,0E0,0E0,0E0],"parents":[2147483647,0,0,1,1,2,2,3,3,4,4,5,5,6,6],"right_children":[2,4,6,8,10,12,14,-1,-1,-1,-1,-1,-1,-1,-1],"split_conditions":[7.9296106E-1,1.0854837E0,-2.4956557E-1,-4.8765916E-1,1.7568725E0,2.2700725E-2,1.3403265E0,7.3207746E-5,-1.6442737E-4,3.167938E-4,-1.5420315E-4,-1.9310733E-4,-2.7318796E-8,4.2071068E-4,-9.251137E-5],"split_indices":[15,10,0,18,16,3,0,0,0,0,0,0,0,0,0],"split_type":[0,0,0,0,0,0,0,0,0,0,0,0,0,0,0],"sum_hessian":[5.5E1,4.1E1,1.4E1,3.2E1,9E0,5E0,9E0,9E0,2.3E1,6E0,3E0,3E0,2E0,7E0,2E0],"tree_param":{"num_deleted":"0","num_feature":"24","num_nodes":"15","size_leaf_vector":"1"}},{"base_weights":[1.16540665E-4,2.6860437E-3,-1.327681E-4,3.146205E-5,4.1621193E-4,-5.977349E-4,1.3081119E-3,-8.398392E-5,2.668164E-4,-1.2114495E-4,3.034269E-4],"categories":[],"categories_nodes":[],"categories_segments":[],"categories_sizes":[],"default_left":[0,0,0,0,0,0,0,0,0,0,0],"id":14,"left_children":[1,3,5,-1,-1,7,9,-1,-1,-1,-1],"loss_changes":[3.6230198E-5,1.6192509E-5,3.5619898E-5,0E0,0E0,3.3868353E-5,6.0214916E-5,0E0,0E0,0E0,0E0],"parents":[2147483647,0,0,1,1,2,2,5,5,6,6],"right_children":[2,4,6,-1,-1,8,10,-1,-1,-1,-1],"split_conditions":[-1.1323032E0,-3.9482883E-1,5.430282E-1,3.146205E-5,4.1621193E-4,9.2091614E-1,2.7765822E-1,-8.398392E-5,2.668164E-4,-1.2114495E-4,3.034269E-4],"split_indices":[16,2,9,0,0,15,16,0,0,0,0],"split_type":[0,0,0,0,0,0,0,0,0,0,0],"sum_hessian":[5.5E1,4E0,5.1E1,2E0,2E0,3.9E1,1.2E1,3.7E1,2E0,5E0,7E0],"tree_param":{"num_deleted":"0","num_feature":"24","num_nodes":"11","size_leaf_vector":"1"}},{"base_weights":[1.1940067E-4,1.8960399E-3,-2.1620671E-4,-5.1014853E-5,3.184159E-3,-6.591091E-4,1.3334749E-3,3.6247028E-4,4.9071994E-5,-1.3760032E-4,8.2537954E-5,2.5152238E-4,-1.3633913E-4],"categories":[],"categories_nodes":[],"categories_segments":[],"categories_sizes":[],"default_left":[0,0,0,0,0,0,0,0,0,0,0,0,0],"id":15,"left_children":[1,3,5,-1,7,9,11,-1,-1,-1,-1,-1,-1],"loss_changes":[3.3800123E-5,2.9519502E-5,3.3824075E-5,0E0,5.340753E-6,4.157612E-5,3.8486432E-5,0E0,0E0,0E0,0E0,0E0,0E0],"parents":[2147483647,0,0,1,1,2,2,4,4,5,5,6,6],"right_children":[2,4,6,-1,8,10,12,-1,-1,-1,-1,-1,-1],"split_conditions":[-9.1937107E-1,-4.0336102E-1,1.0671579E0,-5.1014853E-5,1.0060287E-1,7.9296106E-1,1.7568725E0,3.6247028E-4,4.9071994E-5,-1.3760032E-4,8.2537954E-5,2.5152238E-4,-1.3633913E-4],"split_indices":[7,21,10,0,3,15,16,0,0,0,0,0,0],"split_type":[0,0,0,0,0,0,0,0,0,0,0,0,0],"sum_hessian":[5.5E1,8E0,4.7E1,3E0,5E0,3.7E1,1E1,4E0,1E0,2.5E1,1.2E1,7E0,3E0],"tree_param":{"num_deleted":"0","num_feature":"24","num_nodes":"13","size_leaf_vector":"1"}},{"base_weights":[1.1497217E-4,2.4356782E-3,-1.1038364E-4,3.231551E-5,3.7363087E-4,7.9847523E-4,-7.0337276E-4,-4.2833282E-5,2.4818117E-4,-8.9194255E-5,1.4167828E-4],"categories":[],"categories_nodes":[],"categories_segments":[],"categories_sizes":[],"default_left":[0,0,0,0,0,0,0,0,0,0,0],"id":16,"left_children":[1,3,5,-1,-1,7,9,-1,-1,-1,-1],"loss_changes":[2.9555997E-5,1.2530651E-5,2.8586683E-5,0E0,0E0,4.4430788E-5,1.4057203E-5,0E0,0E0,0E0,0E0],"parents":[2147483647,0,0,1,1,2,2,5,5,6,6],"right_children":[2,4,6,-1,-1,8,10,-1,-1,-1,-1],"split_conditions":[-1.1323032E0,-3.9482883E-1,-1.5664114E-1,3.231551E-5,3.7363087E-4,9.9648875E-1,2.0166757E0,-4.2833282E-5,2.4818117E-4,-8.9194255E-5,1.4167828E-4],"split_indices":[16,2,3,0,0,16,13,0,0,0,0],"split_type":[0,0,0,0,0,0,0,0,0,0,0],"sum_hessian":[5.5E1,4E0,5.1E1,2E0,2E0,2E1,3.1E1,1.2E1,8E0,2.9E1,2E0],"tree_param":{"num_deleted":"0","num_feature":"24","num_nodes":"11","size_leaf_vector":"1"}},{"base_weights":[1.1532814E-4,5.2918226E-4,-1.0511519E-3,1.6190053E-3,-2.766576E-4,9.346703E-4,-2.1375301E-3,4.6222787E-5,3.3707658E-4,-9.029041E-5,1.85694E-4,-5.081805E-5,2.5469146E-4,1.7149374E-5,-2.4131432E-4],"categories":[],"categories_nodes":[],"categories_segments":[],"categories_sizes":[],"default_left":[0,0,0,0,0,0,0,0,0,0,0,0,0,0,0],"id":17,"left_children":[1,3,5,7,9,11,13,-1,-1,-1,-1,-1,-1,-1,-1],"loss_changes":[2.7590397E-5,3.733327E-5,3.4358192E-5,3.491709E-5,3.5080586E-5,1.525166E-5,6.777809E-6,0E0,0E0,0E0,0E0,0E0,0E0,0E0,0E0],"parents":[2147483647,0,0,1,1,2,2,3,3,4,4,5,5,6,6],"right_children":[2,4,6,8,10,12,14,-1,-1,-1,-1,-1,-1,-1,-1],"split_conditions":[3.9178756E-1,-1.4484277E-1,-6.18651E-1,9.9648875E-1,8.231781E-1,9.016776E-1,-1.1276232E0,4.6222787E-5,3.3707658E-4,-9.029041E-5,1.85694E-4,-5.081805E-5,2.5469146E-4,1.7149374E-5,-2.4131432E-4],"split_indices":[2,3,23,16,23,2,14,0,0,0,0,0,0,0,0],"split_type":[0,0,0,0,0,0,0,0,0,0,0,0,0,0,0],"sum_hessian":[5.5E1,4.1E1,1.4E1,1.7E1,2.4E1,5E0,9E0,1.1E1,6E0,1.9E1,5E0,3E0,2E0,1E0,8E0],"tree_param":{"num_deleted":"0","num_feature":"24","num_nodes":"15","size_leaf_vector":"1"}},{"base_weights":[1.11981244E-4,2.2630321E-3,-9.7004064E-5,3.61805E-5,3.4099154E-4,-2.818638E-4,2.1917787E-3,-6.632E-5,1.0957704E-4,-2.3271703E-5,3.0775164E-4],"categories":[],"categories_nodes":[],"categories_segments":[],"categories_sizes":[],"default_left":[0,0,0,0,0,0,0,0,0,0,0],"id":18,"left_children":[1,3,5,-1,-1,7,9,-1,-1,-1,-1],"loss_changes":[2.5393654E-5,9.668702E-6,2.261918E-5,0E0,0E0,2.646846E-5,9.306057E-6,0E0,0E0,0E0,0E0],"parents":[2147483647,0,0,1,1,2,2,5,5,6,6],"right_children":[2,4,6,-1,-1,8,10,-1,-1,-1,-1],"split_conditions":[-1.1323032E0,-3.9482883E-1,1.0031554E0,3.61805E-5,3.4099154E-4,1.0671579E0,-1.3708688E0,-6.632E-5,1.0957704E-4,-2.3271703E-5,3.0775164E-4],"split_indices":[16,2,15,0,0,10,0,0,0,0,0],"split_type":[0,0,0,0,0,0,0,0,0,0,0],"sum_hessian":[5.5E1,4E0,5.1E1,2E0,2E0,4.8E1,3E0,3.8E1,1E1,1E0,2E0],"tree_param":{"num_deleted":"0","num_feature":"24","num_nodes":"11","size_leaf_vector":"1"}},{"base_weights":[1.1337082E-4,4.930664E-4,-9.573348E-4,-2.321112E-5,1.9501403E-3,8.3878735E-4,-1.9392746E-3,-5.130272E-5,1.7994216E-4,-2.0168152E-5,2.782284E-4,-4.2032694E-5,2.2380108E-4,1.0813051E-5,-2.1787787E-4],"categories":[],"categories_nodes":[],"categories_segments":[],"categories_sizes":[],"default_left":[0,0,0,0,0,0,0,0,0,0,0,0,0,0,0],"id":19,"left_children":[1,3,5,7,9,11,13,-1,-1,-1,-1,-1,-1,-1,-1],"loss_changes":[2.3238392E-5,3.1639956E-5,2.8081897E-5,2.9491304E-5,2.0258009E-5,1.1511389E-5,5.139209E-6,0E0,0E0,0E0,0E0,0E0,0E0,0E0,0E0],"parents":[2147483647,0,0,1,1,2,2,3,3,4,4,5,5,6,6],"right_children":[2,4,6,8,10,12,14,-1,-1,-1,-1,-1,-1,-1,-1],"split_conditions":[3.9178756E-1,7.9296106E-1,-6.18651E-1,1.0276076E0,-2.4956557E-1,9.016776E-1,-1.1276232E0,-5.130272E-5,1.7994216E-4,-2.0168152E-5,2.782284E-4,-4.2032694E-5,2.2380108E-4,1.0813051E-5,-2.1787787E-4],"split_indices":[2,15,23,10,0,2,14,0,0,0,0,0,0,0,0],"split_type":[0,0,0,0,0,0,0,0,0,0,0,0,0,0,0],"sum_hessian":[5.5E1,4.1E1,1.4E1,3.1E1,1E1,5E0,9E0,2.5E1,6E0,3E0,7E0,3E0,2E0,1E0,8E0],"tree_param":{"num_deleted":"0","num_feature":"24","num_nodes":"15","size_leaf_vector":"1"}},{"base_weights":[1.08487424E-4,1.5568106E-3,-1.6533333E-4,-3.4049383E-5,2.5622118E-3,-4.5666017E-4,9.873747E-4,2.8735615E-4,5.027321E-5,-9.575947E-5,7.5024196E-5,3.1257665E-4,-3.7561702E-5],"categories":[],"categories_nodes":[],"categories_segments":[],"categories_sizes":[],"default_left":[0,0,0,0,0,0,0,0,0,0,0,0,0],"id":20,"left_children":[1,3,5,-1,7,9,11,-1,-1,-1,-1,-1,-1],"loss_changes":[2.2465927E-5,1.8040386E-5,1.6570004E-5,0E0,2.4026776E-6,2.4297004E-5,3.0320192E-5,0E0,0E0,0E0,0E0,0E0,0E0],"parents":[2147483647,0,0,1,1,2,2,4,4,5,5,6,6],"right_children":[2,4,6,-1,8,10,12,-1,-1,-1,-1,-1,-1],"split_conditions":[-9.1937107E-1,-4.0336102E-1,1.0854837E0,-3.4049383E-5,1.0060287E-1,8.2922745E-1,1.9255118E-1,2.8735615E-4,5.027321E-5,-9.575947E-5,7.5024196E-5,3.1257665E-4,-3.7561702E-5],"split_indices":[7,21,10,0,3,15,7,0,0,0,0,0,0],"split_type":[0,0,0,0,0,0,0,0,0,0,0,0,0],"sum_hessian":[5.5E1,8E0,4.7E1,3E0,5E0,3.8E1,9E0,4E0,1E0,2.7E1,1.1E1,3E0,6E0],"tree_param":{"num_deleted":"0","num_feature":"24","num_nodes":"13","size_leaf_vector":"1"}},{"base_weights":[1.0760048E-4,2.0239209E-3,-7.873033E-5,3.8704868E-5,2.9861528E-4,-4.6583006E-4,6.7833747E-4,4.5768003E-5,-8.0310965E-5,-2.4284289E-5,2.561172E-4],"categories":[],"categories_nodes":[],"categories_segments":[],"categories_sizes":[],"default_left":[0,0,0,0,0,0,0,0,0,0,0],"id":21,"left_children":[1,3,5,-1,-1,7,9,-1,-1,-1,-1],"loss_changes":[2.0155236E-5,6.719467E-6,1.5555148E-5,0E0,0E0,1.1269407E-5,3.1841708E-5,0E0,0E0,0E0,0E0],"parents":[2147483647,0,0,1,1,2,2,5,5,6,6],"right_children":[2,4,6,-1,-1,8,10,-1,-1,-1,-1],"split_conditions":[-1.1323032E0,-3.9482883E-1,9.9648875E-1,3.8704868E-5,2.9861528E-4,-9.6829E-1,6.9109535E-1,4.5768003E-5,-8.0310965E-5,-2.4284289E-5,2.561172E-4],"split_indices":[16,2,16,0,0,14,9,0,0,0,0],"split_type":[0,0,0,0,0,0,0,0,0,0,0],"sum_hessian":[5.5E1,4E0,5.1E1,2E0,2E0,3.4E1,1.7E1,9E0,2.5E1,1.2E1,5E0],"tree_param":{"num_deleted":"0","num_feature":"24","num_nodes":"11","size_leaf_vector":"1"}},{"base_weights":[1.06386935E-4,1.407315E-3,-1.3975348E-4,-2.5472384E-5,2.2807885E-3,-6.237813E-4,4.606331E-4,2.553649E-4,4.582433E-5,-8.259289E-5,2.316028E-4,1.3439618E-4,-9.646151E-5],"categories":[],"categories_nodes":[],"categories_segments":[],"categories_sizes":[],"default_left":[0,0,0,0,0,0,0,0,0,0,0,0,0],"id":22,"left_children":[1,3,5,-1,7,9,11,-1,-1,-1,-1,-1,-1],"loss_changes":[1.8128494E-5,1.36466915E-5,1.4236318E-5,0E0,1.8136088E-6,1.795831E-5,2.8993583E-5,0E0,0E0,0E0,0E0,0E0,0E0],"parents":[2147483647,0,0,1,1,2,2,4,4,5,5,6,6],"right_children":[2,4,6,-1,8,10,12,-1,-1,-1,-1,-1,-1],"split_conditions":[-9.1937107E-1,-4.0336102E-1,5.799786E-1,-2.5472384E-5,1.0060287E-1,1.625538E0,1.0397744E0,2.553649E-4,4.582433E-5,-8.259289E-5,2.316028E-4,1.3439618E-4,-9.646151E-5],"split_indices":[7,21,21,0,3,9,2,0,0,0,0,0,0],"split_type":[0,0,0,0,0,0,0,0,0,0,0,0,0],"sum_hessian":[5.5E1,8E0,4.7E1,3E0,5E0,2.6E1,2.1E1,4E0,1E0,2.5E1,1E0,1.3E1,8E0],"tree_param":{"num_deleted":"0","num_feature":"24","num_nodes":"13","size_leaf_vector":"1"}},{"base_weights":[1.0401006E-4,1.8183944E-3,-6.283478E-5,3.735018E-5,2.6571556E-4,-2.1124937E-4,1.7709526E-3,1.1570132E-5,-1.03689046E-4,-1.6705715E-5,2.4726416E-4],"categories":[],"categories_nodes":[],"categories_segments":[],"categories_sizes":[],"default_left":[0,0,0,0,0,0,0,0,0,0,0],"id":23,"left_children":[1,3,5,-1,-1,7,9,-1,-1,-1,-1],"loss_changes":[1.6132286E-5,5.067146E-6,1.4526474E-5,0E0,0E0,1.3347221E-5,5.852592E-6,0E0,0E0,0E0,0E0],"parents":[2147483647,0,0,1,1,2,2,5,5,6,6],"right_children":[2,4,6,-1,-1,8,10,-1,-1,-1,-1],"split_conditions":[-1.1323032E0,-3.9482883E-1,1.0031554E0,3.735018E-5,2.6571556E-4,3.9178756E-1,-1.3708688E0,1.1570132E-5,-1.03689046E-4,-1.6705715E-5,2.4726416E-4],"split_indices":[16,2,15,0,0,2,0,0,0,0,0],"split_type":[0,0,0,0,0,0,0,0,0,0,0],"sum_hessian":[5.5E1,4E0,5.1E1,2E0,2E0,4.8E1,3E0,3.5E1,1.3E1,1E0,2E0],"tree_param":{"num_deleted":"0","num_feature":"24","num_nodes":"11","size_leaf_vector":"1"}}]},"name":"gbtree"},"learner_model_param":{"base_score":"[6.8881228E-3]","boost_from_average":"1","num_class":"0","num_feature":"24","num_target":"1"},"objective":{"name":"reg:squarederror","reg_loss_param":{"scale_pos_weight":"1"}}},"version":[3,1,1]}