{"learner":{"attributes":{"best_iteration":"2","best_score":"0.01001714791018767"},"feature_names":[],"feature_types":[],"gradient_booster":{"model":{"cats":{"enc":[],"feature_segments":[],"sorted_idx":[]},"gbtree_model_param":{"num_parallel_tree":"1","num_trees":"23"},"iteration_indptr":[0,1,2,3,4,5,6,7,8,9,10,11,12,13,14,15,16,17,18,19,20,21,22,23],"tree_info":[0,0,0,0,0,0,0,0,0,0,0,0,0,0,0,0,0,0,0,0,0,0,0],"trees":[{"base_weights":[6.535597E-11,-9.675547E-4,1.3061989E-3,6.355873E-3,-1.6805463E-3,3.6431013E-7,7.943019E-4,1.296176E-4,-3.5468012E-4],"categories":[],"categories_nodes":[],"categories_segments":[],"categories_sizes":[],"default_left":[0,0,0,0,0,0,0,0,0],"id":0,"left_children":[1,3,-1,5,7,-1,-1,-1,-1],"loss_changes":[7.33015E-4,2.9264463E-4,0E0,5.038065E-5,2.8236338E-4,0E0,0E0,0E0,0E0],"parents":[2147483647,0,0,1,1,3,3,4,4],"right_children":[2,4,-1,6,8,-1,-1,-1,-1],"split_conditions":[1.1100478E0,-1.1445342E0,1.3061989E-3,-1.6571465E0,-7.922194E-2,3.6431013E-7,7.943019E-4,1.296176E-4,-3.5468012E-4],"split_indices":[15,16,0,0,3,0,0,0,0],"split_type":[0,0,0,0,0,0,0,0,0],"sum_hessian":[5.6E1,5.3E1,3E0,4E0,4.9E1,1E0,3E0,1.9E1,3E1],"tree_param":{"num_deleted":"0","num_feature":"24","num_nodes":"9","size_leaf_vector":"1"}},{"base_weights":[3.2908916E-5,-1.0998393E-3,9.844575E-3,5.8792187E-3,-1.8039112E-3,-1.5016373E-4,1.2414145E-2,3.4610275E-7,7.3472934E-4,-2.8879681E-4,2.1050048E-4,1.3666716E-3,3.7019304E-4],"categories":[],"categories_nodes":[],"categories_segments":[],"categories_sizes":[],"default_left":[0,0,0,0,0,0,0,0,0,0,0,0,0],"id":1,"left_children":[1,3,5,7,9,-1,11,-1,-1,-1,-1,-1,-1],"loss_changes":[6.4433384E-4,2.6612103E-4,1.935708E-4,4.310481E-5,2.094786E-4,0E0,3.97017E-6,0E0,0E0,0E0,0E0,0E0,0E0],"parents":[2147483647,0,0,1,1,2,2,3,3,4,4,6,6],"right_children":[2,4,6,8,10,-1,12,-1,-1,-1,-1,-1,-1],"split_conditions":[9.209904E-1,-1.1445342E0,-1.3753576E0,-1.6571465E0,1.0982486E0,-1.5016373E-4,9.25498E-1,3.4610275E-7,7.3472934E-4,-2.8879681E-4,2.1050048E-4,1.3666716E-3,3.7019304E-4],"split_indices":[15,16,0,0,10,0,2,0,0,0,0,0,0],"split_type":[0,0,0,0,0,0,0,0,0,0,0,0,0],"sum_hessian":[5.6E1,5.1E1,5E0,4E0,4.7E1,1E0,4E0,1E0,3E0,3.7E1,1E1,3E0,1E0],"tree_param":{"num_deleted":"0","num_feature":"24","num_nodes":"13","size_leaf_vector":"1"}},{"base_weights":[6.8977184E-5,-9.772251E-4,9.124568E-3,5.438312E-3,-1.6251514E-3,-1.4265555E-4,1.1520104E-3,3.2880345E-7,6.7962456E-4,-2.5516714E-4,2.1507913E-4],"categories":[],"categories_nodes":[],"categories_segments":[],"categories_sizes":[],"default_left":[0,0,0,0,0,0,0,0,0,0,0],"id":2,"left_children":[1,3,5,7,9,-1,-1,-1,-1,-1,-1],"loss_changes":[5.4893363E-4,2.2499144E-4,1.6808766E-4,3.6879646E-5,1.7341542E-4,0E0,0E0,0E0,0E0,0E0,0E0],"parents":[2147483647,0,0,1,1,2,2,3,3,4,4],"right_children":[2,4,6,8,10,-1,-1,-1,-1,-1,-1],"split_conditions":[9.209904E-1,-1.1445342E0,-1.3753576E0,-1.6571465E0,1.1166152E0,-1.4265555E-4,1.1520104E-3,3.2880345E-7,6.7962456E-4,-2.5516714E-4,2.1507913E-4],"split_indices":[15,16,0,0,10,0,0,0,0,0,0],"split_type":[0,0,0,0,0,0,0,0,0,0,0],"sum_hessian":[5.6E1,5.1E1,5E0,4E0,4.7E1,1E0,4E0,1E0,3E0,3.8E1,9E0],"tree_param":{"num_deleted":"0","num_feature":"24","num_nodes":"11","size_leaf_vector":"1"}},{"base_weights":[9.1013106E-5,-6.7744526E-4,1.0442448E-2,-2.3828049E-3,1.396084E-3,4.6287026E-4,1.3941842E-3,-3.0113963E-4,4.2783175E-4,4.969821E-4,-5.7801673E-5],"categories":[],"categories_nodes":[],"categories_segments":[],"categories_sizes":[],"default_left":[0,0,0,0,0,0,0,0,0,0,0],"id":3,"left_children":[1,3,5,7,9,-1,-1,-1,-1,-1,-1],"loss_changes":[4.6048904E-4,1.942767E-4,1.6845734E-5,1.3849746E-4,1.7924553E-4,0E0,0E0,0E0,0E0,0E0,0E0],"parents":[2147483647,0,0,1,1,2,2,3,3,4,4],"right_children":[2,4,6,8,10,-1,-1,-1,-1,-1,-1],"split_conditions":[1.1100478E0,6.2395234E-2,1.3510117E-1,8.2770824E-1,-2.3074098E-1,4.6287026E-4,1.3941842E-3,-3.0113963E-4,4.2783175E-4,4.969821E-4,-5.7801673E-5],"split_indices":[15,9,0,15,12,0,0,0,0,0,0],"split_type":[0,0,0,0,0,0,0,0,0,0,0],"sum_hessian":[5.6E1,5.3E1,3E0,2.9E1,2.4E1,2E0,1E0,2.7E1,2E0,8E0,1.6E1],"tree_param":{"num_deleted":"0","num_feature":"24","num_nodes":"11","size_leaf_vector":"1"}},{"base_weights":[1.2441918E-4,-5.9922173E-4,9.862467E-3,1.636422E-3,-1.9624364E-3,4.3201228E-4,1.324475E-3,-3.1423624E-4,3.7574265E-4,3.955205E-4,-2.6626987E-4],"categories":[],"categories_nodes":[],"categories_segments":[],"categories_sizes":[],"default_left":[0,0,0,0,0,0,0,0,0,0,0],"id":4,"left_children":[1,3,5,7,9,-1,-1,-1,-1,-1,-1],"loss_changes":[4.0758026E-4,1.6778514E-4,1.7764163E-5,2.2465948E-4,1.5142412E-4,0E0,0E0,0E0,0E0,0E0,0E0],"parents":[2147483647,0,0,1,1,2,2,3,3,4,4],"right_children":[2,4,6,8,10,-1,-1,-1,-1,-1,-1],"split_conditions":[1.1100478E0,-6.824973E-2,1.3510117E-1,-6.894773E-1,-1.1445342E0,4.3201228E-4,1.324475E-3,-3.1423624E-4,3.7574265E-4,3.955205E-4,-2.6626987E-4],"split_indices":[15,3,0,3,16,0,0,0,0,0,0],"split_type":[0,0,0,0,0,0,0,0,0,0,0],"sum_hessian":[5.6E1,5.3E1,3E0,2E1,3.3E1,2E0,1E0,6E0,1.4E1,3E0,3E1],"tree_param":{"num_deleted":"0","num_feature":"24","num_nodes":"11","size_leaf_vector":"1"}},{"base_weights":[1.4613937E-4,-7.095192E-4,7.53749E-3,4.5423387E-3,-1.2418061E-3,1.0656138E-3,8.6679665E-4,8.914417E-5,6.679123E-4,-2.125195E-4,1.9227926E-4,-1.1931921E-4,2.4933871E-4],"categories":[],"categories_nodes":[],"categories_segments":[],"categories_sizes":[],"default_left":[0,0,0,0,0,0,0,0,0,0,0,0,0],"id":5,"left_children":[1,3,5,7,9,-1,11,-1,-1,-1,-1,-1,-1],"loss_changes":[3.6584295E-4,1.5100645E-4,1.15584524E-4,3.3051845E-5,1.3827374E-4,0E0,1.3027364E-5,0E0,0E0,0E0,0E0,0E0,0E0],"parents":[2147483647,0,0,1,1,2,2,3,3,4,4,6,6],"right_children":[2,4,6,8,10,-1,12,-1,-1,-1,-1,-1,-1],"split_conditions":[9.209904E-1,-1.1445342E0,-3.6455E-1,-3.813071E-1,1.0982486E0,1.0656138E-3,-1.3753576E0,8.914417E-5,6.679123E-4,-2.125195E-4,1.9227926E-4,-1.1931921E-4,2.4933871E-4],"split_indices":[15,16,3,2,10,0,0,0,0,0,0,0,0],"split_type":[0,0,0,0,0,0,0,0,0,0,0,0,0],"sum_hessian":[5.6E1,5.1E1,5E0,4E0,4.7E1,3E0,2E0,2E0,2E0,3.7E1,1E1,1E0,1E0],"tree_param":{"num_deleted":"0","num_feature":"24","num_nodes":"13","size_leaf_vector":"1"}},{"base_weights":[1.6542803E-4,-4.713223E-4,8.7202005E-3,1.4982148E-3,-1.6739387E-3,3.593797E-4,1.2049706E-3,-2.7486857E-4,3.3802207E-4,3.4470143E-4,-2.2807089E-4],"categories":[],"categories_nodes":[],"categories_segments":[],"categories_sizes":[],"default_left":[0,0,0,0,0,0,0,0,0,0,0],"id":6,"left_children":[1,3,5,7,9,-1,-1,-1,-1,-1,-1],"loss_changes":[3.1460353E-4,1.3041218E-4,2.496934E-5,1.7713768E-4,1.13507835E-4,0E0,0E0,0E0,0E0,0E0,0E0],"parents":[2147483647,0,0,1,1,2,2,3,3,4,4],"right_children":[2,4,6,8,10,-1,-1,-1,-1,-1,-1],"split_conditions":[1.1100478E0,-6.824973E-2,1.3510117E-1,-6.894773E-1,-1.1445342E0,3.593797E-4,1.2049706E-3,-2.7486857E-4,3.3802207E-4,3.4470143E-4,-2.2807089E-4],"split_indices":[15,3,0,3,16,0,0,0,0,0,0],"split_type":[0,0,0,0,0,0,0,0,0,0,0],"sum_hessian":[5.6E1,5.3E1,3E0,2E1,3.3E1,2E0,1E0,6E0,1.4E1,3E0,3E1],"tree_param":{"num_deleted":"0","num_feature":"24","num_nodes":"11","size_leaf_vector":"1"}},{"base_weights":[1.794842E-4,-5.6988077E-4,6.6440664E-3,3.965091E-3,-1.0304012E-3,2.005909E-3,1.0613588E-3,6.0221133E-5,6.006274E-4,-1.824116E-4,1.8051958E-4,-1.0194972E-4,3.3542103E-4],"categories":[],"categories_nodes":[],"categories_segments":[],"categories_sizes":[],"default_left":[0,0,0,0,0,0,0,0,0,0,0,0,0],"id":7,"left_children":[1,3,5,7,9,11,-1,-1,-1,-1,-1,-1,-1],"loss_changes":[2.7991325E-4,1.1268488E-4,8.917766E-5,3.0704206E-5,1.11324334E-4,1.9736242E-5,0E0,0E0,0E0,0E0,0E0,0E0,0E0],"parents":[2147483647,0,0,1,1,2,2,3,3,4,4,5,5],"right_children":[2,4,6,8,10,12,-1,-1,-1,-1,-1,-1,-1],"split_conditions":[9.209904E-1,-1.1445342E0,1.3510117E-1,-3.813071E-1,1.0982486E0,-1.3753576E0,1.0613588E-3,6.0221133E-5,6.006274E-4,-1.824116E-4,1.8051958E-4,-1.0194972E-4,3.3542103E-4],"split_indices":[15,16,0,2,10,0,0,0,0,0,0,0,0],"split_type":[0,0,0,0,0,0,0,0,0,0,0,0,0],"sum_hessian":[5.6E1,5.1E1,5E0,4E0,4.7E1,3E0,2E0,2E0,2E0,3.7E1,1E1,1E0,2E0],"tree_param":{"num_deleted":"0","num_feature":"24","num_nodes":"13","size_leaf_vector":"1"}},{"base_weights":[1.9581274E-4,-3.715471E-4,7.8062173E-3,1.3594818E-3,-1.4297841E-3,3.1305963E-4,1.0916541E-3,-1.1097178E-4,4.186573E-4,3.0082208E-4,-1.9563078E-4],"categories":[],"categories_nodes":[],"categories_segments":[],"categories_sizes":[],"default_left":[0,0,0,0,0,0,0,0,0,0,0],"id":8,"left_children":[1,3,5,7,9,-1,-1,-1,-1,-1,-1],"loss_changes":[2.4901715E-4,1.00863064E-4,2.3995482E-5,1.5123963E-4,8.533332E-5,0E0,0E0,0E0,0E0,0E0,0E0],"parents":[2147483647,0,0,1,1,2,2,3,3,4,4],"right_children":[2,4,6,8,10,-1,-1,-1,-1,-1,-1],"split_conditions":[1.1100478E0,-6.824973E-2,1.3510117E-1,1.9837938E-1,-1.1445342E0,3.1305963E-4,1.0916541E-3,-1.1097178E-4,4.186573E-4,3.0082208E-4,-1.9563078E-4],"split_indices":[15,3,0,10,16,0,0,0,0,0,0],"split_type":[0,0,0,0,0,0,0,0,0,0,0],"sum_hessian":[5.6E1,5.3E1,3E0,2E1,3.3E1,2E0,1E0,1.1E1,9E0,3E0,3E1],"tree_param":{"num_deleted":"0","num_feature":"24","num_nodes":"11","size_leaf_vector":"1"}},{"base_weights":[2.0811905E-4,-2.529952E-4,8.592507E-3,-9.893668E-4,1.7766203E-3,2.518047E-4,1.0370713E-3,-1.5661101E-4,3.476406E-4,-2.4445282E-4,4.1316473E-4],"categories":[],"categories_nodes":[],"categories_segments":[],"categories_sizes":[],"default_left":[0,0,0,0,0,0,0,0,0,0,0],"id":9,"left_children":[1,3,5,7,9,-1,-1,-1,-1,-1,-1],"loss_changes":[2.2254502E-4,8.395805E-5,6.290982E-6,1.11044195E-4,1.592137E-4,0E0,0E0,0E0,0E0,0E0,0E0],"parents":[2147483647,0,0,1,1,2,2,3,3,4,4],"right_children":[2,4,6,8,10,-1,-1,-1,-1,-1,-1],"split_conditions":[1.318479E0,7.128654E-1,-6.805079E-1,1.3519909E0,-2.6977658E-1,2.518047E-4,1.0370713E-3,-1.5661101E-4,3.476406E-4,-2.4445282E-4,4.1316473E-4],"split_indices":[15,15,0,9,0,0,0,0,0,0,0],"split_type":[0,0,0,0,0,0,0,0,0,0,0],"sum_hessian":[5.6E1,5.4E1,2E0,4E1,1.4E1,1E0,1E0,3.6E1,4E0,5E0,9E0],"tree_param":{"num_deleted":"0","num_feature":"24","num_nodes":"11","size_leaf_vector":"1"}},{"base_weights":[2.1623043E-4,-2.2115477E-4,8.162882E-3,3.4529362E-3,-5.770234E-4,2.392145E-4,9.852179E-4,2.9783962E-5,5.4570544E-4,-1.2683835E-4,1.7755956E-4],"categories":[],"categories_nodes":[],"categories_segments":[],"categories_sizes":[],"default_left":[0,0,0,0,0,0,0,0,0,0,0],"id":10,"left_children":[1,3,5,7,9,-1,-1,-1,-1,-1,-1],"loss_changes":[1.9992288E-4,7.3904586E-5,5.6776335E-6,2.9990595E-5,8.5203996E-5,0E0,0E0,0E0,0E0,0E0,0E0],"parents":[2147483647,0,0,1,1,2,2,3,3,4,4],"right_children":[2,4,6,8,10,-1,-1,-1,-1,-1,-1],"split_conditions":[1.318479E0,-1.1445342E0,-6.805079E-1,-3.813071E-1,6.829181E-1,2.392145E-4,9.852179E-4,2.9783962E-5,5.4570544E-4,-1.2683835E-4,1.7755956E-4],"split_indices":[15,16,0,2,9,0,0,0,0,0,0],"split_type":[0,0,0,0,0,0,0,0,0,0,0],"sum_hessian":[5.6E1,5.4E1,2E0,4E0,5E1,1E0,1E0,2E0,2E0,3.9E1,1.1E1],"tree_param":{"num_deleted":"0","num_feature":"24","num_nodes":"11","size_leaf_vector":"1"}},{"base_weights":[2.2707478E-4,-1.8765367E-4,7.754738E-3,4.731752E-4,-1.981409E-3,2.2725375E-4,9.3595695E-4,-5.3226845E-6,5.355701E-4,1.8992968E-4,-2.7245405E-4],"categories":[],"categories_nodes":[],"categories_segments":[],"categories_sizes":[],"default_left":[0,0,0,0,0,0,0,0,0,0,0],"id":11,"left_children":[1,3,5,7,9,-1,-1,-1,-1,-1,-1],"loss_changes":[1.7940554E-4,6.613264E-5,5.1240495E-6,1.056621E-4,4.8432827E-5,0E0,0E0,0E0,0E0,0E0,0E0],"parents":[2147483647,0,0,1,1,2,2,3,3,4,4],"right_children":[2,4,6,8,10,-1,-1,-1,-1,-1,-1],"split_conditions":[1.318479E0,4.1155767E-1,-6.805079E-1,3.2788453E-1,-1.1394678E0,2.2725375E-4,9.3595695E-4,-5.3226845E-6,5.355701E-4,1.8992968E-4,-2.7245405E-4],"split_indices":[15,2,0,2,14,0,0,0,0,0,0],"split_type":[0,0,0,0,0,0,0,0,0,0,0],"sum_hessian":[5.6E1,5.4E1,2E0,4E1,1.4E1,1E0,1E0,3.7E1,3E0,2E0,1.2E1],"tree_param":{"num_deleted":"0","num_feature":"24","num_nodes":"11","size_leaf_vector":"1"}},{"base_weights":[2.3262922E-4,-2.3253409E-4,6.4541763E-3,1.2295208E-3,-1.1287287E-3,2.6778414E-4,8.891591E-4,3.2389836E-4,-1.3047863E-4,-2.1450494E-4,4.7637568E-5],"categories":[],"categories_nodes":[],"categories_segments":[],"categories_sizes":[],"default_left":[0,0,0,0,0,0,0,0,0,0,0],"id":12,"left_children":[1,3,5,7,9,-1,-1,-1,-1,-1,-1],"loss_changes":[1.6646084E-4,7.214323E-5,1.300771E-5,1.1117068E-4,5.648607E-5,0E0,0E0,0E0,0E0,0E0,0E0],"parents":[2147483647,0,0,1,1,2,2,3,3,4,4],"right_children":[2,4,6,8,10,-1,-1,-1,-1,-1,-1],"split_conditions":[1.1100478E0,-6.824973E-2,1.3510117E-1,8.492999E-1,6.2395234E-2,2.6778414E-4,8.891591E-4,3.2389836E-4,-1.3047863E-4,-2.1450494E-4,4.7637568E-5],"split_indices":[15,3,0,17,9,0,0,0,0,0,0],"split_type":[0,0,0,0,0,0,0,0,0,0,0],"sum_hessian":[5.6E1,5.3E1,3E0,2E1,3.3E1,2E0,1E0,1.1E1,9E0,2E1,1.3E1],"tree_param":{"num_deleted":"0","num_feature":"24","num_nodes":"11","size_leaf_vector":"1"}},{"base_weights":[2.3012944E-4,-2.0878889E-4,6.0979947E-3,4.40512E-4,-2.0953994E-3,2.4993188E-4,8.4470114E-4,-3.440521E-5,3.2683014E-4,1.8282994E-4,-2.9017075E-4],"categories":[],"categories_nodes":[],"categories_segments":[],"categories_sizes":[],"default_left":[0,0,0,0,0,0,0,0,0,0,0],"id":13,"left_children":[1,3,5,7,9,-1,-1,-1,-1,-1,-1],"loss_changes":[1.4807747E-4,6.707186E-5,1.2701625E-5,9.208633E-5,4.9597125E-5,0E0,0E0,0E0,0E0,0E0,0E0],"parents":[2147483647,0,0,1,1,2,2,3,3,4,4],"right_children":[2,4,6,8,10,-1,-1,-1,-1,-1,-1],"split_conditions":[1.1100478E0,4.1155767E-1,1.3510117E-1,7.4877477E-1,-1.1394678E0,2.4993188E-4,8.4470114E-4,-3.440521E-5,3.2683014E-4,1.8282994E-4,-2.9017075E-4],"split_indices":[15,2,0,15,14,0,0,0,0,0,0],"split_type":[0,0,0,0,0,0,0,0,0,0,0],"sum_hessian":[5.6E1,5.3E1,3E0,4E1,1.3E1,2E0,1E0,3.2E1,8E0,2E0,1.1E1],"tree_param":{"num_deleted":"0","num_feature":"24","num_nodes":"11","size_leaf_vector":"1"}},{"base_weights":[2.2956776E-4,-1.8448246E-4,5.7618534E-3,1.111255E-3,-9.79365E-4,2.3326976E-4,8.024661E-4,-7.844541E-5,3.2749804E-4,-1.6467972E-4,1.0575909E-4],"categories":[],"categories_nodes":[],"categories_segments":[],"categories_sizes":[],"default_left":[0,0,0,0,0,0,0,0,0,0,0],"id":14,"left_children":[1,3,5,7,9,-1,-1,-1,-1,-1,-1],"loss_changes":[1.3162967E-4,5.6706114E-5,1.23189675E-5,8.870674E-5,4.7965652E-5,0E0,0E0,0E0,0E0,0E0,0E0],"parents":[2147483647,0,0,1,1,2,2,3,3,4,4],"right_children":[2,4,6,8,10,-1,-1,-1,-1,-1,-1],"split_conditions":[1.1100478E0,-6.824973E-2,1.3510117E-1,1.9837938E-1,7.941725E-1,2.3326976E-4,8.024661E-4,-7.844541E-5,3.2749804E-4,-1.6467972E-4,1.0575909E-4],"split_indices":[15,3,0,10,23,0,0,0,0,0,0],"split_type":[0,0,0,0,0,0,0,0,0,0,0],"sum_hessian":[5.6E1,5.3E1,3E0,2E1,3.3E1,2E0,1E0,1.1E1,9E0,2.5E1,8E0],"tree_param":{"num_deleted":"0","num_feature":"24","num_nodes":"11","size_leaf_vector":"1"}},{"base_weights":[2.2811745E-4,-1.6251321E-4,5.444602E-3,3.0411442E-3,-4.7962868E-4,2.1771845E-4,7.6234277E-4,3.8249713E-5,4.6860767E-4,-1.00809695E-4,1.4856766E-4],"categories":[],"categories_nodes":[],"categories_segments":[],"categories_sizes":[],"default_left":[0,0,0,0,0,0,0,0,0,0,0],"id":15,"left_children":[1,3,5,7,9,-1,-1,-1,-1,-1,-1],"loss_changes":[1.170348E-4,5.6318808E-5,1.1878918E-5,2.0074061E-5,5.342778E-5,0E0,0E0,0E0,0E0,0E0,0E0],"parents":[2147483647,0,0,1,1,2,2,3,3,4,4],"right_children":[2,4,6,8,10,-1,-1,-1,-1,-1,-1],"split_conditions":[1.1100478E0,-1.1445342E0,1.3510117E-1,-3.813071E-1,1.0982486E0,2.1771845E-4,7.6234277E-4,3.8249713E-5,4.6860767E-4,-1.00809695E-4,1.4856766E-4],"split_indices":[15,16,0,2,10,0,0,0,0,0,0],"split_type":[0,0,0,0,0,0,0,0,0,0,0],"sum_hessian":[5.6E1,5.3E1,3E0,4E0,4.9E1,2E0,1E0,2E0,2E0,3.9E1,1E1],"tree_param":{"num_deleted":"0","num_feature":"24","num_nodes":"11","size_leaf_vector":"1"}},{"base_weights":[2.3222982E-4,-3.550571E-4,3.4038776E-3,-9.940579E-4,1.4909494E-3,5.1659336E-3,-1.842213E-4,-2.0839937E-4,5.6673256E-5,2.7357254E-4,-1.9937281E-4,2.2345621E-4,6.8058225E-4],"categories":[],"categories_nodes":[],"categories_segments":[],"categories_sizes":[],"default_left":[0,0,0,0,0,0,0,0,0,0,0,0,0],"id":16,"left_children":[1,3,5,7,9,11,-1,-1,-1,-1,-1,-1,-1],"loss_changes":[1.07380605E-4,5.928247E-5,9.271191E-5,6.412403E-5,6.184366E-5,1.8441817E-5,0E0,0E0,0E0,0E0,0E0,0E0,0E0],"parents":[2147483647,0,0,1,1,2,2,3,3,4,4,5,5],"right_children":[2,4,6,8,10,12,-1,-1,-1,-1,-1,-1,-1],"split_conditions":[8.3563954E-1,8.9635587E-1,1.1012516E-1,6.2395234E-2,4.1155767E-1,-3.4939855E-1,-1.842213E-4,-2.0839937E-4,5.6673256E-5,2.7357254E-4,-1.9937281E-4,2.2345621E-4,6.8058225E-4],"split_indices":[15,23,3,9,2,13,0,0,0,0,0,0,0],"split_type":[0,0,0,0,0,0,0,0,0,0,0,0,0],"sum_hessian":[5.6E1,4.8E1,8E0,3.6E1,1.2E1,6E0,2E0,2.1E1,1.5E1,9E0,3E0,3E0,3E0],"tree_param":{"num_deleted":"0","num_feature":"24","num_nodes":"13","size_leaf_vector":"1"}},{"base_weights":[2.2027509E-4,-7.952562E-5,5.6431964E-3,2.749683E-3,-3.553397E-4,1.5628301E-4,6.9019647E-4,3.192156E-5,4.2635898E-4,-8.000951E-5,1.3346887E-4],"categories":[],"categories_nodes":[],"categories_segments":[],"categories_sizes":[],"default_left":[0,0,0,0,0,0,0,0,0,0,0],"id":17,"left_children":[1,3,5,7,9,-1,-1,-1,-1,-1,-1],"loss_changes":[9.311913E-5,4.389553E-5,4.622103E-6,1.7036498E-5,3.9401988E-5,0E0,0E0,0E0,0E0,0E0,0E0],"parents":[2147483647,0,0,1,1,2,2,3,3,4,4],"right_children":[2,4,6,8,10,-1,-1,-1,-1,-1,-1],"split_conditions":[1.318479E0,-1.1445342E0,-6.805079E-1,-3.813071E-1,1.0982486E0,1.5628301E-4,6.9019647E-4,3.192156E-5,4.2635898E-4,-8.000951E-5,1.3346887E-4],"split_indices":[15,16,0,2,10,0,0,0,0,0,0],"split_type":[0,0,0,0,0,0,0,0,0,0,0],"sum_hessian":[5.6E1,5.4E1,2E0,4E0,5E1,1E0,1E0,2E0,2E0,4E1,1E1],"tree_param":{"num_deleted":"0","num_feature":"24","num_nodes":"11","size_leaf_vector":"1"}},{"base_weights":[2.2207604E-4,-3.115606E-4,3.1027559E-3,-6.415704E-4,2.7208398E-3,4.703283E-3,-1.6660591E-4,2.7421114E-4,-9.485503E-5,4.089601E-4,4.4513185E-5,2.0679043E-4,6.162841E-4],"categories":[],"categories_nodes":[],"categories_segments":[],"categories_sizes":[],"default_left":[0,0,0,0,0,0,0,0,0,0,0,0,0],"id":18,"left_children":[1,3,5,7,9,11,-1,-1,-1,-1,-1,-1,-1],"loss_changes":[8.858917E-5,5.0780975E-5,7.652951E-5,4.934353E-5,1.3754096E-5,1.4181263E-5,0E0,0E0,0E0,0E0,0E0,0E0,0E0],"parents":[2147483647,0,0,1,1,2,2,3,3,4,4,5,5],"right_children":[2,4,6,8,10,12,-1,-1,-1,-1,-1,-1,-1],"split_conditions":[8.3563954E-1,1.3519909E0,1.1012516E-1,-1.1445342E0,-7.922194E-2,-3.4939855E-1,-1.6660591E-4,2.7421114E-4,-9.485503E-5,4.089601E-4,4.4513185E-5,2.0679043E-4,6.162841E-4],"split_indices":[15,9,3,16,3,13,0,0,0,0,0,0,0],"split_type":[0,0,0,0,0,0,0,0,0,0,0,0,0],"sum_hessian":[5.6E1,4.8E1,8E0,4.4E1,4E0,6E0,2E0,3E0,4.1E1,2E0,2E0,3E0,3E0],"tree_param":{"num_deleted":"0","num_feature":"24","num_nodes":"13","size_leaf_vector":"1"}},{"base_weights":[2.2248775E-4,-5.3257425E-4,2.030432E-3,-9.3331875E-4,2.5394503E-3,4.7049383E-3,-3.1221603E-4,-1.2400125E-4,1.9069073E-4,3.8169607E-4,4.1545634E-5,1.6401951E-4,6.215745E-4,2.0081956E-4,-2.1938563E-4],"categories":[],"categories_nodes":[],"categories_segments":[],"categories_sizes":[],"default_left":[0,0,0,0,0,0,0,0,0,0,0,0,0,0,0],"id":19,"left_children":[1,3,5,7,9,11,13,-1,-1,-1,-1,-1,-1,-1,-1],"loss_changes":[7.8892626E-5,5.28451E-5,1.0798121E-4,3.4594523E-5,1.1981338E-5,2.6846843E-5,4.8067486E-5,0E0,0E0,0E0,0E0,0E0,0E0,0E0,0E0],"parents":[2147483647,0,0,1,1,2,2,3,3,4,4,5,5,6,6],"right_children":[2,4,6,8,10,12,14,-1,-1,-1,-1,-1,-1,-1,-1],"split_conditions":[7.128654E-1,1.3519909E0,-1.7718019E-1,1.6693274E0,-7.922194E-2,-3.5610682E-1,2.4856119E-1,-1.2400125E-4,1.9069073E-4,3.8169607E-4,4.1545634E-5,1.6401951E-4,6.215745E-4,2.0081956E-4,-2.1938563E-4],"split_indices":[15,9,2,23,3,13,9,0,0,0,0,0,0,0,0],"split_type":[0,0,0,0,0,0,0,0,0,0,0,0,0,0,0],"sum_hessian":[5.6E1,4E1,1.6E1,3.6E1,4E0,7E0,9E0,3.3E1,3E0,2E0,2E0,3E0,4E0,4E0,5E0],"tree_param":{"num_deleted":"0","num_feature":"24","num_nodes":"15","size_leaf_vector":"1"}},{"base_weights":[2.2229095E-4,5.9379375E-4,1.4191227E-5,-4.673672E-4,1.2472977E-3,-8.381844E-5,2.3701535E-4,-1.3997631E-4,2.5777586E-4],"categories":[],"categories_nodes":[],"categories_segments":[],"categories_sizes":[],"default_left":[0,0,0,0,0,0,0,0,0],"id":20,"left_children":[1,-1,3,5,7,-1,-1,-1,-1],"loss_changes":[6.771293E-5,0E0,3.3836466E-5,4.5126886E-5,5.9957216E-5,0E0,0E0,0E0,0E0],"parents":[2147483647,0,0,2,2,3,3,4,4],"right_children":[2,-1,4,6,8,-1,-1,-1,-1],"split_conditions":[-1.5115399E0,5.9379375E-4,7.128654E-1,1.3519909E0,-2.7605936E-1,-8.381844E-5,2.3701535E-4,-1.3997631E-4,2.5777586E-4],"split_indices":[3,0,15,9,0,0,0,0,0],"split_type":[0,0,0,0,0,0,0,0,0],"sum_hessian":[5.6E1,1E0,5.5E1,4E1,1.5E1,3.6E1,4E0,5E0,1E1],"tree_param":{"num_deleted":"0","num_feature":"24","num_nodes":"9","size_leaf_vector":"1"}},{"base_weights":[2.1523364E-4,-3.119101E-5,4.6612746E-3,1.6824825E-3,-3.5867764E-4,1.3508713E-4,5.6410406E-4,-6.859096E-5,2.9809968E-4,2.5926498E-5,-1.5721456E-4],"categories":[],"categories_nodes":[],"categories_segments":[],"categories_sizes":[],"default_left":[0,0,0,0,0,0,0,0,0,0,0],"id":21,"left_children":[1,3,5,7,9,-1,-1,-1,-1,-1,-1],"loss_changes":[6.259539E-5,3.1469754E-5,2.1099404E-6,2.9723215E-5,3.5650723E-5,0E0,0E0,0E0,0E0,0E0,0E0],"parents":[2147483647,0,0,1,1,2,2,3,3,4,4],"right_children":[2,4,6,8,10,-1,-1,-1,-1,-1,-1],"split_conditions":[1.318479E0,-9.3478245E-1,-6.805079E-1,-4.3413076E-1,6.826373E-2,1.3508713E-4,5.6410406E-4,-6.859096E-5,2.9809968E-4,2.5926498E-5,-1.5721456E-4],"split_indices":[15,7,0,21,13,0,0,0,0,0,0],"split_type":[0,0,0,0,0,0,0,0,0,0,0],"sum_hessian":[5.6E1,5.4E1,2E0,8E0,4.6E1,1E0,1E0,3E0,5E0,3.1E1,1.5E1],"tree_param":{"num_deleted":"0","num_feature":"24","num_nodes":"11","size_leaf_vector":"1"}},{"base_weights":[2.0770002E-4,-2.6286034E-5,4.428211E-3,4.0523693E-4,-1.2040298E-3,1.283328E-4,5.3589884E-4,5.073577E-6,3.671689E-4,7.655012E-5,-2.2653454E-4],"categories":[],"categories_nodes":[],"categories_segments":[],"categories_sizes":[],"default_left":[0,0,0,0,0,0,0,0,0,0,0],"id":22,"left_children":[1,3,5,7,9,-1,-1,-1,-1,-1,-1],"loss_changes":[5.6406217E-5,2.8440209E-5,1.9042236E-6,4.7290116E-5,3.308853E-5,0E0,0E0,0E0,0E0,0E0,0E0],"parents":[2147483647,0,0,1,1,2,2,3,3,4,4],"right_children":[2,4,6,8,10,-1,-1,-1,-1,-1,-1],"split_conditions":[1.318479E0,4.1155767E-1,-6.805079E-1,3.2788453E-1,-6.411032E-1,1.283328E-4,5.3589884E-4,5.073577E-6,3.671689E-4,7.655012E-5,-2.2653454E-4],"split_indices":[15,2,0,2,23,0,0,0,0,0,0],"split_type":[0,0,0,0,0,0,0,0,0,0,0],"sum_hessian":[5.6E1,5.4E1,2E0,4E1,1.4E1,1E0,1E0,3.7E1,3E0,5E0,9E0],"tree_param":{"num_deleted":"0","num_feature":"24","num_nodes":"11","size_leaf_vector":"1"}}]},"name":"gbtree"},"learner_model_param":{"base_score":"[7.730174E-3]","boost_from_average":"1","num_class":"0","num_feature":"24","num_target":"1"},"objective":{"name":"reg:squarederror","reg_loss_param":{"scale_pos_weight":"1"}}},"version":[3,1,1]}