{"learner":{"attributes":{"best_iteration":"5","best_score":"0.00618795551840092"},"feature_names":[],"feature_types":[],"gradient_booster":{"model":{"cats":{"enc":[],"feature_segments":[],"sorted_idx":[]},"gbtree_model_param":{"num_parallel_tree":"1","num_trees":"56"},"iteration_indptr":[0,1,2,3,4,5,6,7,8,9,10,11,12,13,14,15,16,17,18,19,20,21,22,23,24,25,26,27,28,29,30,31,32,33,34,35,36,37,38,39,40,41,42,43,44,45,46,47,48,49,50,51,52,53,54,55,56],"tree_info":[0,0,0,0,0,0,0,0,0,0,0,0,0,0,0,0,0,0,0,0,0,0,0,0,0,0,0,0,0,0,0,0,0,0,0,0,0,0,0,0,0,0,0,0,0,0,0,0,0,0,0,0,0,0,0,0],"trees":[{"base_weights":[4.15769E-11,5.0873174E-3,-4.9118926E-3,1.2084392E-2,-1.7824395E-3,5.6037977E-3,-6.3407724E-3,1.4932669E-4,1.4837129E-3,6.620628E-4,-6.646036E-4,1.7172306E-4,8.631749E-4,-8.204753E-4,3.1288943E-4],"categories":[],"categories_nodes":[],"categories_segments":[],"categories_sizes":[],"default_left":[0,0,0,0,0,0,0,0,0,0,0,0,0,0,0],"id":0,"left_children":[1,3,5,7,9,11,13,-1,-1,-1,-1,-1,-1,-1,-1],"loss_changes":[1.4243363E-3,1.3674495E-3,4.7127635E-4,3.860083E-4,6.5703783E-4,3.2250653E-5,4.8460474E-4,0E0,0E0,0E0,0E0,0E0,0E0,0E0,0E0],"parents":[2147483647,0,0,1,1,2,2,3,3,4,4,5,5,6,6],"right_children":[2,4,6,8,10,12,14,-1,-1,-1,-1,-1,-1,-1,-1],"split_conditions":[3.709049E-1,2.2160735E-2,-1.8216224E0,-2.8887454E-1,-1.1205922E-1,-4.3825096E-1,1.1193416E0,1.4932669E-4,1.4837129E-3,6.620628E-4,-6.646036E-4,1.7172306E-4,8.631749E-4,-8.204753E-4,3.1288943E-4],"split_indices":[19,3,21,12,13,2,22,0,0,0,0,0,0,0,0],"split_type":[0,0,0,0,0,0,0,0,0,0,0,0,0,0,0],"sum_hessian":[5.5E1,2.7E1,2.8E1,1.3E1,1.4E1,3E0,2.5E1,3E0,1E1,5E0,9E0,2E0,1E0,2.1E1,4E0],"tree_param":{"num_deleted":"0","num_feature":"24","num_nodes":"15","size_leaf_vector":"1"}},{"base_weights":[3.85326E-5,4.636818E-3,-4.4025197E-3,1.0992599E-2,-1.604365E-3,5.3021424E-3,-5.7262173E-3,7.3486817E-4,2.190407E-3,6.068909E-4,-6.0478924E-4,6.9024146E-4,2.5066362E-5,-7.421571E-4,2.8785827E-4],"categories":[],"categories_nodes":[],"categories_segments":[],"categories_sizes":[],"default_left":[0,0,0,0,0,0,0,0,0,0,0,0,0,0,0],"id":1,"left_children":[1,3,5,7,9,11,13,-1,-1,-1,-1,-1,-1,-1,-1],"loss_changes":[1.1640023E-3,1.1283286E-3,4.0289632E-4,3.956809E-4,5.4815016E-4,3.060478E-5,4.006562E-4,0E0,0E0,0E0,0E0,0E0,0E0,0E0,0E0],"parents":[2147483647,0,0,1,1,2,2,3,3,4,4,5,5,6,6],"right_children":[2,4,6,8,10,12,14,-1,-1,-1,-1,-1,-1,-1,-1],"split_conditions":[3.709049E-1,2.2160735E-2,-1.8216224E0,1.1561165E0,-1.1205922E-1,-4.3592703E-1,1.1193416E0,7.3486817E-4,2.190407E-3,6.068909E-4,-6.0478924E-4,6.9024146E-4,2.5066362E-5,-7.421571E-4,2.8785827E-4],"split_indices":[19,3,21,7,13,0,22,0,0,0,0,0,0,0,0],"split_type":[0,0,0,0,0,0,0,0,0,0,0,0,0,0,0],"sum_hessian":[5.5E1,2.7E1,2.8E1,1.3E1,1.4E1,3E0,2.5E1,1.1E1,2E0,5E0,9E0,2E0,1E0,2.1E1,4E0],"tree_param":{"num_deleted":"0","num_feature":"24","num_nodes":"15","size_leaf_vector":"1"}},{"base_weights":[9.1614915E-5,4.2776857E-3,-3.953268E-3,1.0102287E-2,-1.4437881E-3,4.9507553E-3,-5.1710685E-3,6.6750526E-4,2.0443795E-3,5.5631663E-4,-5.503582E-4,1.3643128E-4,7.855041E-4,-6.7131483E-4,2.6482966E-4],"categories":[],"categories_nodes":[],"categories_segments":[],"categories_sizes":[],"default_left":[0,0,0,0,0,0,0,0,0,0,0,0,0,0,0],"id":2,"left_children":[1,3,5,7,9,11,13,-1,-1,-1,-1,-1,-1,-1,-1],"loss_changes":[9.6511206E-4,9.47694E-4,3.4005722E-4,3.5973545E-4,4.5731914E-4,3.0947485E-5,3.3128855E-4,0E0,0E0,0E0,0E0,0E0,0E0,0E0,0E0],"parents":[2147483647,0,0,1,1,2,2,3,3,4,4,5,5,6,6],"right_children":[2,4,6,8,10,12,14,-1,-1,-1,-1,-1,-1,-1,-1],"split_conditions":[3.709049E-1,2.2160735E-2,-1.8216224E0,1.1561165E0,-1.1205922E-1,-4.3825096E-1,1.1193416E0,6.6750526E-4,2.0443795E-3,5.5631663E-4,-5.503582E-4,1.3643128E-4,7.855041E-4,-6.7131483E-4,2.6482966E-4],"split_indices":[19,3,21,7,13,2,22,0,0,0,0,0,0,0,0],"split_type":[0,0,0,0,0,0,0,0,0,0,0,0,0,0,0],"sum_hessian":[5.5E1,2.7E1,2.8E1,1.3E1,1.4E1,3E0,2.5E1,1.1E1,2E0,5E0,9E0,2E0,1E0,2.1E1,4E0],"tree_param":{"num_deleted":"0","num_feature":"24","num_nodes":"15","size_leaf_vector":"1"}},{"base_weights":[1.4019106E-4,3.9469833E-3,-3.5401664E-3,9.285765E-3,-1.2990116E-3,4.6861637E-3,-4.6695955E-3,1.3605946E-3,3.0218757E-4,5.4667227E-4,-5.2285515E-4,1.2733586E-4,7.462289E-4,-6.072348E-4,2.4364334E-4],"categories":[],"categories_nodes":[],"categories_segments":[],"categories_sizes":[],"default_left":[0,0,0,0,0,0,0,0,0,0,0,0,0,0,0],"id":3,"left_children":[1,3,5,7,9,11,13,-1,-1,-1,-1,-1,-1,-1,-1],"loss_changes":[7.985529E-4,7.9626444E-4,2.913231E-4,3.3774052E-4,4.2737633E-4,2.8395334E-5,2.7396274E-4,0E0,0E0,0E0,0E0,0E0,0E0,0E0,0E0],"parents":[2147483647,0,0,1,1,2,2,3,3,4,4,5,5,6,6],"right_children":[2,4,6,8,10,12,14,-1,-1,-1,-1,-1,-1,-1,-1],"split_conditions":[3.709049E-1,2.2160735E-2,-1.8216224E0,3.222833E-1,1.5997984E-1,-4.3825096E-1,1.1193416E0,1.3605946E-3,3.0218757E-4,5.4667227E-4,-5.2285515E-4,1.2733586E-4,7.462289E-4,-6.072348E-4,2.4364334E-4],"split_indices":[19,3,21,22,9,2,22,0,0,0,0,0,0,0,0],"split_type":[0,0,0,0,0,0,0,0,0,0,0,0,0,0,0],"sum_hessian":[5.5E1,2.7E1,2.8E1,1.3E1,1.4E1,3E0,2.5E1,7E0,6E0,5E0,9E0,2E0,1E0,2.1E1,4E0],"tree_param":{"num_deleted":"0","num_feature":"24","num_nodes":"15","size_leaf_vector":"1"}},{"base_weights":[1.6539622E-4,3.6125202E-3,-3.1685648E-3,8.475957E-3,-1.1675226E-3,-4.410377E-3,3.6742084E-3,2.3922061E-4,1.2739747E-3,2.6022477E-4,-7.255886E-4,-5.342546E-5,-6.2030077E-4,-1.3761496E-4,7.4998307E-4],"categories":[],"categories_nodes":[],"categories_segments":[],"categories_sizes":[],"default_left":[0,0,0,0,0,0,0,0,0,0,0,0,0,0,0],"id":4,"left_children":[1,3,5,7,9,11,13,-1,-1,-1,-1,-1,-1,-1,-1],"loss_changes":[6.5503083E-4,6.608241E-4,2.6263038E-4,3.3268146E-4,3.631576E-4,1.7039746E-4,1.0692469E-4,0E0,0E0,0E0,0E0,0E0,0E0,0E0,0E0],"parents":[2147483647,0,0,1,1,2,2,3,3,4,4,5,5,6,6],"right_children":[2,4,6,8,10,12,14,-1,-1,-1,-1,-1,-1,-1,-1],"split_conditions":[3.709049E-1,2.2160735E-2,1.416769E0,-6.0771924E-1,6.0915214E-1,-4.3825096E-1,-4.1818183E-2,2.3922061E-4,1.2739747E-3,2.6022477E-4,-7.255886E-4,-5.342546E-5,-6.2030077E-4,-1.3761496E-4,7.4998307E-4],"split_indices":[19,3,15,23,9,2,3,0,0,0,0,0,0,0,0],"split_type":[0,0,0,0,0,0,0,0,0,0,0,0,0,0,0],"sum_hessian":[5.5E1,2.7E1,2.8E1,1.3E1,1.4E1,2.4E1,4E0,6E0,7E0,9E0,5E0,8E0,1.6E1,2E0,2E0],"tree_param":{"num_deleted":"0","num_feature":"24","num_nodes":"15","size_leaf_vector":"1"}},{"base_weights":[1.6647218E-4,3.2886907E-3,-2.853824E-3,8.672968E-3,-7.054277E-4,2.928893E-3,-4.180594E-3,-4.71606E-4,1.182238E-3,4.0181234E-4,-5.350598E-4,5.045599E-4,-8.69679E-5,-5.575951E-4,2.2369529E-4],"categories":[],"categories_nodes":[],"categories_segments":[],"categories_sizes":[],"default_left":[0,0,0,0,0,0,0,0,0,0,0,0,0,0,0],"id":5,"left_children":[1,3,5,7,9,11,13,-1,-1,-1,-1,-1,-1,-1,-1],"loss_changes":[5.3746667E-4,6.082704E-4,2.3474226E-4,5.6176574E-4,3.9450818E-4,5.2630807E-5,2.2738762E-4,0E0,0E0,0E0,0E0,0E0,0E0,0E0,0E0],"parents":[2147483647,0,0,1,1,2,2,3,3,4,4,5,5,6,6],"right_children":[2,4,6,8,10,12,14,-1,-1,-1,-1,-1,-1,-1,-1],"split_conditions":[3.709049E-1,3.222833E-1,-1.2706287E0,-1.97899E0,3.1697991E-1,2.6762617E-1,1.1193416E0,-4.71606E-4,1.182238E-3,4.0181234E-4,-5.350598E-4,5.045599E-4,-8.69679E-5,-5.575951E-4,2.2369529E-4],"split_indices":[19,22,18,15,0,0,22,0,0,0,0,0,0,0,0],"split_type":[0,0,0,0,0,0,0,0,0,0,0,0,0,0,0],"sum_hessian":[5.5E1,2.7E1,2.8E1,1.1E1,1.6E1,5E0,2.3E1,2E0,9E0,8E0,8E0,3E0,2E0,1.9E1,4E0],"tree_param":{"num_deleted":"0","num_feature":"24","num_nodes":"15","size_leaf_vector":"1"}},{"base_weights":[1.6163E-4,-7.3924763E-3,1.2159724E-3,-1.9890536E-4,-7.961538E-4,2.5472813E-3,-4.3639913E-3,1.6075735E-4,1.3914389E-3,3.2675077E-4,-5.5749924E-4],"categories":[],"categories_nodes":[],"categories_segments":[],"categories_sizes":[],"default_left":[0,0,0,0,0,0,0,0,0,0,0],"id":6,"left_children":[1,3,5,-1,-1,7,9,-1,-1,-1,-1],"loss_changes":[4.5500742E-4,5.6882272E-6,3.8254907E-4,0E0,0E0,4.155837E-4,1.1063386E-4,0E0,0E0,0E0,0E0],"parents":[2147483647,0,0,1,1,2,2,5,5,6,6],"right_children":[2,4,6,-1,-1,8,10,-1,-1,-1,-1],"split_conditions":[-9.25302E-1,-3.8717327E-1,1.2531903E0,-1.9890536E-4,-7.961538E-4,2.3209698E0,-2.7216086E-1,1.6075735E-4,1.3914389E-3,3.2675077E-4,-5.5749924E-4],"split_indices":[13,0,6,0,0,13,14,0,0,0,0],"split_type":[0,0,0,0,0,0,0,0,0,0,0],"sum_hessian":[5.5E1,6E0,4.9E1,1E0,5E0,4E1,9E0,3.8E1,2E0,1E0,8E0],"tree_param":{"num_deleted":"0","num_feature":"24","num_nodes":"11","size_leaf_vector":"1"}},{"base_weights":[1.5129526E-4,-4.0920353E-3,1.803539E-3,-5.4683145E-3,1.4038808E-3,8.917436E-3,-1.1021376E-3,1.8049004E-4,-6.2248245E-4,1.8077981E-4,9.606453E-6,5.2532693E-4,1.8158844E-3,1.00615776E-4,-4.8352077E-4],"categories":[],"categories_nodes":[],"categories_segments":[],"categories_sizes":[],"default_left":[0,0,0,0,0,0,0,0,0,0,0,0,0,0,0],"id":7,"left_children":[1,3,5,7,9,11,13,-1,-1,-1,-1,-1,-1,-1,-1],"loss_changes":[3.999971E-4,1.286995E-4,8.5732626E-4,8.276451E-5,1.9393328E-6,3.1095144E-4,2.4097737E-4,0E0,0E0,0E0,0E0,0E0,0E0,0E0,0E0],"parents":[2147483647,0,0,1,1,2,2,3,3,4,4,5,5,6,6],"right_children":[2,4,6,8,10,12,14,-1,-1,-1,-1,-1,-1,-1,-1],"split_conditions":[-9.718496E-1,-2.6307908E-1,3.222833E-1,-1.9037737E0,2.6762617E-1,1.1371354E0,4.426194E-1,1.8049004E-4,-6.2248245E-4,1.8077981E-4,9.606453E-6,5.2532693E-4,1.8158844E-3,1.00615776E-4,-4.8352077E-4],"split_indices":[22,10,22,7,0,0,0,0,0,0,0,0,0,0,0],"split_type":[0,0,0,0,0,0,0,0,0,0,0,0,0,0,0],"sum_hessian":[5.5E1,1.5E1,4E1,1.2E1,3E0,1.1E1,2.9E1,1E0,1.1E1,2E0,1E0,9E0,2E0,1.9E1,1E1],"tree_param":{"num_deleted":"0","num_feature":"24","num_nodes":"15","size_leaf_vector":"1"}},{"base_weights":[1.6664228E-4,2.7136903E-3,-2.2983227E-3,8.6672325E-3,-1.0108822E-4,-3.3085758E-3,3.2126072E-3,2.768738E-4,1.5348167E-3,-7.4357726E-4,2.8395248E-4,-5.8075482E-5,-4.5580944E-4,-1.0869248E-4,6.441271E-4],"categories":[],"categories_nodes":[],"categories_segments":[],"categories_sizes":[],"default_left":[0,0,0,0,0,0,0,0,0,0,0,0,0,0,0],"id":8,"left_children":[1,3,5,7,9,11,13,-1,-1,-1,-1,-1,-1,-1,-1],"loss_changes":[3.5782644E-4,4.700974E-4,1.7208475E-4,3.12172E-4,4.5248342E-4,8.2564424E-5,7.640989E-5,0E0,0E0,0E0,0E0,0E0,0E0,0E0,0E0],"parents":[2147483647,0,0,1,1,2,2,3,3,4,4,5,5,6,6],"right_children":[2,4,6,8,10,12,14,-1,-1,-1,-1,-1,-1,-1,-1],"split_conditions":[3.709049E-1,-3.19008E-1,1.416769E0,-9.095335E-1,-6.353535E-1,-4.3825096E-1,-4.1818183E-2,2.768738E-4,1.5348167E-3,-7.4357726E-4,2.8395248E-4,-5.8075482E-5,-4.5580944E-4,-1.0869248E-4,6.441271E-4],"split_indices":[19,3,15,3,2,2,3,0,0,0,0,0,0,0,0],"split_type":[0,0,0,0,0,0,0,0,0,0,0,0,0,0,0],"sum_hessian":[5.5E1,2.7E1,2.8E1,8E0,1.9E1,2.4E1,4E0,5E0,3E0,5E0,1.4E1,8E0,1.6E1,2E0,2E0],"tree_param":{"num_deleted":"0","num_feature":"24","num_nodes":"15","size_leaf_vector":"1"}},{"base_weights":[1.7450703E-4,-2.7054439E-3,1.979776E-3,2.5899096E-3,-4.4152485E-3,6.1136903E-3,-2.2641257E-3,4.2923284E-4,-5.4328517E-5,4.308667E-4,-5.229785E-4,2.4241414E-4,1.1565246E-3,7.94895E-5,-3.501818E-4],"categories":[],"categories_nodes":[],"categories_segments":[],"categories_sizes":[],"default_left":[0,0,0,0,0,0,0,0,0,0,0,0,0,0,0],"id":9,"left_children":[1,3,5,7,9,11,13,-1,-1,-1,-1,-1,-1,-1,-1],"loss_changes":[2.9650502E-4,2.1062352E-4,6.278795E-4,3.433602E-5,1.433345E-4,3.3401238E-4,7.093386E-5,0E0,0E0,0E0,0E0,0E0,0E0,0E0,0E0],"parents":[2147483647,0,0,1,1,2,2,3,3,4,4,5,5,6,6],"right_children":[2,4,6,8,10,12,14,-1,-1,-1,-1,-1,-1,-1,-1],"split_conditions":[-4.7156566E-1,-1.2706287E0,7.328315E-1,2.6762617E-1,-1.6148437E0,3.2271695E-1,2.2160735E-2,4.2923284E-4,-5.4328517E-5,4.308667E-4,-5.229785E-4,2.4241414E-4,1.1565246E-3,7.94895E-5,-3.501818E-4],"split_indices":[18,18,18,0,2,4,3,0,0,0,0,0,0,0,0],"split_type":[0,0,0,0,0,0,0,0,0,0,0,0,0,0,0],"sum_hessian":[5.5E1,2.1E1,3.4E1,5E0,1.6E1,1.7E1,1.7E1,3E0,2E0,1E0,1.5E1,1.1E1,6E0,5E0,1.2E1],"tree_param":{"num_deleted":"0","num_feature":"24","num_nodes":"15","size_leaf_vector":"1"}},{"base_weights":[1.8225351E-4,2.4156466E-3,-1.9804104E-3,8.773447E-4,1.1426121E-2,-2.8813195E-3,2.920217E-3,2.5146324E-4,-6.174733E-4,1.4513244E-3,1.0823766E-4,6.392112E-5,-3.5823355E-4,-9.2094146E-5,5.78797E-4],"categories":[],"categories_nodes":[],"categories_segments":[],"categories_sizes":[],"default_left":[0,0,0,0,0,0,0,0,0,0,0,0,0,0,0],"id":10,"left_children":[1,3,5,7,9,11,13,-1,-1,-1,-1,-1,-1,-1,-1],"loss_changes":[2.7526836E-4,3.780786E-4,1.3644964E-4,3.041842E-4,1.1202082E-4,6.3988555E-5,6.0407845E-5,0E0,0E0,0E0,0E0,0E0,0E0,0E0,0E0],"parents":[2147483647,0,0,1,1,2,2,3,3,4,4,5,5,6,6],"right_children":[2,4,6,8,10,12,14,-1,-1,-1,-1,-1,-1,-1,-1],"split_conditions":[3.709049E-1,1.1821669E0,1.416769E0,1.454135E0,1.7911409E0,-1.2706287E0,-4.1818183E-2,2.5146324E-4,-6.174733E-4,1.4513244E-3,1.0823766E-4,6.392112E-5,-3.5823355E-4,-9.2094146E-5,5.78797E-4],"split_indices":[19,10,15,0,0,18,3,0,0,0,0,0,0,0,0],"split_type":[0,0,0,0,0,0,0,0,0,0,0,0,0,0,0],"sum_hessian":[5.5E1,2.7E1,2.8E1,2.4E1,3E0,2.4E1,4E0,2E1,4E0,2E0,1E0,4E0,2E1,2E0,2E0],"tree_param":{"num_deleted":"0","num_feature":"24","num_nodes":"15","size_leaf_vector":"1"}},{"base_weights":[1.8877714E-4,-1.218987E-3,3.2284453E-3,1.3700172E-3,-2.8941988E-3,1.09155895E-2,9.6331036E-4,-1.656489E-4,5.4978806E-4,-5.013955E-4,-7.148702E-5,4.0918752E-4,1.5693366E-3,-4.0454246E-4,2.552613E-4],"categories":[],"categories_nodes":[],"categories_segments":[],"categories_sizes":[],"default_left":[0,0,0,0,0,0,0,0,0,0,0,0,0,0,0],"id":11,"left_children":[1,3,5,7,9,11,13,-1,-1,-1,-1,-1,-1,-1,-1],"loss_changes":[2.4356703E-4,1.7311316E-4,3.0290842E-4,2.0899526E-4,1.0728715E-4,6.619346E-5,1.2973232E-4,0E0,0E0,0E0,0E0,0E0,0E0,0E0,0E0],"parents":[2147483647,0,0,1,1,2,2,3,3,4,4,5,5,6,6],"right_children":[2,4,6,8,10,12,14,-1,-1,-1,-1,-1,-1,-1,-1],"split_conditions":[3.8966092E-1,-5.968673E-1,4.6990663E-1,-2.5878012E-1,-1.7660122E-1,4.426194E-1,-6.203668E-1,-1.656489E-4,5.4978806E-4,-5.013955E-4,-7.148702E-5,4.0918752E-4,1.5693366E-3,-4.0454246E-4,2.552613E-4],"split_indices":[21,21,21,12,14,0,2,0,0,0,0,0,0,0,0],"split_type":[0,0,0,0,0,0,0,0,0,0,0,0,0,0,0],"sum_hessian":[5.5E1,3.8E1,1.7E1,1.5E1,2.3E1,3E0,1.4E1,9E0,6E0,1.1E1,1.2E1,2E0,1E0,3E0,1.1E1],"tree_param":{"num_deleted":"0","num_feature":"24","num_nodes":"15","size_leaf_vector":"1"}},{"base_weights":[1.991941E-4,-1.1019278E-3,3.0072255E-3,1.2570242E-3,-2.628649E-3,1.0318661E-2,8.570275E-4,-1.5074051E-4,5.0266343E-4,-4.5543426E-4,-6.488821E-5,3.8190832E-4,1.4908698E-3,-4.7308137E-4,2.080604E-4],"categories":[],"categories_nodes":[],"categories_segments":[],"categories_sizes":[],"default_left":[0,0,0,0,0,0,0,0,0,0,0,0,0,0,0],"id":12,"left_children":[1,3,5,7,9,11,13,-1,-1,-1,-1,-1,-1,-1,-1],"loss_changes":[2.0791484E-4,1.437613E-4,2.7413524E-4,1.743103E-4,8.854295E-5,6.2395615E-5,1.1240023E-4,0E0,0E0,0E0,0E0,0E0,0E0,0E0,0E0],"parents":[2147483647,0,0,1,1,2,2,3,3,4,4,5,5,6,6],"right_children":[2,4,6,8,10,12,14,-1,-1,-1,-1,-1,-1,-1,-1],"split_conditions":[3.8966092E-1,-5.968673E-1,4.6990663E-1,-2.5878012E-1,-1.7660122E-1,4.426194E-1,-1.1758397E0,-1.5074051E-4,5.0266343E-4,-4.5543426E-4,-6.488821E-5,3.8190832E-4,1.4908698E-3,-4.7308137E-4,2.080604E-4],"split_indices":[21,21,21,12,14,0,2,0,0,0,0,0,0,0,0],"split_type":[0,0,0,0,0,0,0,0,0,0,0,0,0,0,0],"sum_hessian":[5.5E1,3.8E1,1.7E1,1.5E1,2.3E1,3E0,1.4E1,9E0,6E0,1.1E1,1.2E1,2E0,1E0,2E0,1.2E1],"tree_param":{"num_deleted":"0","num_feature":"24","num_nodes":"15","size_leaf_vector":"1"}},{"base_weights":[2.0497754E-4,2.044219E-3,-1.5779102E-3,5.8147605E-3,-7.375876E-4,-2.411704E-3,2.9066417E-3,-3.1481375E-4,7.922154E-4,-6.098378E-4,1.3809923E-4,-4.0255243E-5,-3.3335076E-4,-7.086241E-5,5.553027E-4],"categories":[],"categories_nodes":[],"categories_segments":[],"categories_sizes":[],"default_left":[0,0,0,0,0,0,0,0,0,0,0,0,0,0,0],"id":13,"left_children":[1,3,5,7,9,11,13,-1,-1,-1,-1,-1,-1,-1,-1],"loss_changes":[1.8685861E-4,2.9797855E-4,1.15446535E-4,2.516002E-4,2.0149529E-4,4.4959175E-5,5.177194E-5,0E0,0E0,0E0,0E0,0E0,0E0,0E0,0E0],"parents":[2147483647,0,0,1,1,2,2,3,3,4,4,5,5,6,6],"right_children":[2,4,6,8,10,12,14,-1,-1,-1,-1,-1,-1,-1,-1],"split_conditions":[3.709049E-1,3.222833E-1,1.416769E0,-1.97899E0,-6.353535E-1,-4.3825096E-1,-4.1818183E-2,-3.1481375E-4,7.922154E-4,-6.098378E-4,1.3809923E-4,-4.0255243E-5,-3.3335076E-4,-7.086241E-5,5.553027E-4],"split_indices":[19,22,15,15,2,2,3,0,0,0,0,0,0,0,0],"split_type":[0,0,0,0,0,0,0,0,0,0,0,0,0,0,0],"sum_hessian":[5.5E1,2.7E1,2.8E1,1.1E1,1.6E1,2.4E1,4E0,2E0,9E0,4E0,1.2E1,8E0,1.6E1,2E0,2E0],"tree_param":{"num_deleted":"0","num_feature":"24","num_nodes":"15","size_leaf_vector":"1"}},{"base_weights":[1.8656031E-4,-1.631548E-3,1.8166392E-3,-3.0306776E-3,1.0500398E-3,3.3543943E-3,-2.831487E-3,1.1459542E-5,-3.9375122E-4,2.6005806E-4,-3.4347488E-4,-1.17182735E-5,7.879163E-4,2.4966104E-4,-3.9493022E-4],"categories":[],"categories_nodes":[],"categories_segments":[],"categories_sizes":[],"default_left":[0,0,0,0,0,0,0,0,0,0,0,0,0,0,0],"id":14,"left_children":[1,3,5,7,9,11,13,-1,-1,-1,-1,-1,-1,-1,-1],"loss_changes":[1.6892889E-4,1.0448333E-4,2.2392835E-4,5.179159E-5,7.847081E-5,3.622092E-4,5.7506513E-5,0E0,0E0,0E0,0E0,0E0,0E0,0E0,0E0],"parents":[2147483647,0,0,1,1,2,2,3,3,4,4,5,5,6,6],"right_children":[2,4,6,8,10,12,14,-1,-1,-1,-1,-1,-1,-1,-1],"split_conditions":[-8.325616E-2,2.0562366E-1,1.1214545E0,-1.2459002E0,1.3490436E0,-4.2043814E-1,1.5997984E-1,1.1459542E-5,-3.9375122E-4,2.6005806E-4,-3.4347488E-4,-1.17182735E-5,7.879163E-4,2.4966104E-4,-3.9493022E-4],"split_indices":[9,21,22,22,23,23,9,0,0,0,0,0,0,0,0],"split_type":[0,0,0,0,0,0,0,0,0,0,0,0,0,0,0],"sum_hessian":[5.5E1,2.6E1,2.9E1,1.7E1,9E0,2.2E1,7E0,4E0,1.3E1,7E0,2E0,1.3E1,9E0,1E0,6E0],"tree_param":{"num_deleted":"0","num_feature":"24","num_nodes":"15","size_leaf_vector":"1"}},{"base_weights":[1.7085449E-4,-1.8835282E-3,1.4572992E-3,1.9585888E-3,-3.1287738E-3,4.406956E-3,-1.9250993E-3,-2.2743317E-5,4.2204218E-4,2.651212E-4,-3.6557237E-4,6.194042E-5,7.1052293E-4,3.9053815E-5,-2.9224931E-4],"categories":[],"categories_nodes":[],"categories_segments":[],"categories_sizes":[],"default_left":[0,0,0,0,0,0,0,0,0,0,0,0,0,0,0],"id":15,"left_children":[1,3,5,7,9,11,13,-1,-1,-1,-1,-1,-1,-1,-1],"loss_changes":[1.5074445E-4,1.1138431E-4,3.5767583E-4,3.062636E-5,6.1470055E-5,1.8977612E-4,4.040458E-5,0E0,0E0,0E0,0E0,0E0,0E0,0E0,0E0],"parents":[2147483647,0,0,1,1,2,2,3,3,4,4,5,5,6,6],"right_children":[2,4,6,8,10,12,14,-1,-1,-1,-1,-1,-1,-1,-1],"split_conditions":[-4.7156566E-1,-1.2706287E0,8.053859E-1,-1.5529058E0,-1.6148437E0,1.5703596E-2,2.2160735E-2,-2.2743317E-5,4.2204218E-4,2.651212E-4,-3.6557237E-4,6.194042E-5,7.1052293E-4,3.9053815E-5,-2.9224931E-4],"split_indices":[18,18,18,4,2,4,3,0,0,0,0,0,0,0,0],"split_type":[0,0,0,0,0,0,0,0,0,0,0,0,0,0,0],"sum_hessian":[5.5E1,2.1E1,3.4E1,5E0,1.6E1,1.8E1,1.6E1,3E0,2E0,1E0,1.5E1,8E0,1E1,5E0,1.1E1],"tree_param":{"num_deleted":"0","num_feature":"24","num_nodes":"15","size_leaf_vector":"1"}},{"base_weights":[1.6837813E-4,-1.3939944E-3,1.6710697E-3,-2.4765446E-3,8.022504E-4,3.7058722E-3,-1.5203903E-3,1.0323087E-5,-3.171367E-4,2.1733255E-4,-3.121367E-4,-3.0567727E-4,6.542026E-4,1.3076581E-4,-4.5663817E-4],"categories":[],"categories_nodes":[],"categories_segments":[],"categories_sizes":[],"default_left":[0,0,0,0,0,0,0,0,0,0,0,0,0,0,0],"id":16,"left_children":[1,3,5,7,9,11,13,-1,-1,-1,-1,-1,-1,-1,-1],"loss_changes":[1.3380423E-4,6.855807E-5,1.9396012E-4,3.438462E-5,6.0579492E-5,3.652356E-4,1.0934178E-4,0E0,0E0,0E0,0E0,0E0,0E0,0E0,0E0],"parents":[2147483647,0,0,1,1,2,2,3,3,4,4,5,5,6,6],"right_children":[2,4,6,8,10,12,14,-1,-1,-1,-1,-1,-1,-1,-1],"split_conditions":[-4.8039664E-2,2.0562366E-1,9.074394E-1,-1.2459002E0,1.3490436E0,-1.1758397E0,1.4839345E0,1.0323087E-5,-3.171367E-4,2.1733255E-4,-3.121367E-4,-3.0567727E-4,6.542026E-4,1.3076581E-4,-4.5663817E-4],"split_indices":[9,21,9,22,23,2,11,0,0,0,0,0,0,0,0],"split_type":[0,0,0,0,0,0,0,0,0,0,0,0,0,0,0],"sum_hessian":[5.5E1,2.7E1,2.8E1,1.8E1,9E0,1.7E1,1.1E1,4E0,1.4E1,7E0,2E0,5E0,1.2E1,6E0,5E0],"tree_param":{"num_deleted":"0","num_feature":"24","num_nodes":"15","size_leaf_vector":"1"}},{"base_weights":[1.447731E-4,1.5845848E-3,-1.2503822E-3,4.1095776E-4,8.523608E-3,-1.9326956E-3,2.4112614E-3,1.5939612E-4,-4.6398476E-4,1.0868787E-3,7.440355E-5,2.4858737E-5,-2.490446E-4,-3.6289202E-5,4.3816608E-4],"categories":[],"categories_nodes":[],"categories_segments":[],"categories_sizes":[],"default_left":[0,0,0,0,0,0,0,0,0,0,0,0,0,0,0],"id":17,"left_children":[1,3,5,7,9,11,13,-1,-1,-1,-1,-1,-1,-1,-1],"loss_changes":[1.1447195E-4,2.2452426E-4,7.71135E-5,1.5677375E-4,6.489121E-5,3.1034353E-5,2.8921024E-5,0E0,0E0,0E0,0E0,0E0,0E0,0E0,0E0],"parents":[2147483647,0,0,1,1,2,2,3,3,4,4,5,5,6,6],"right_children":[2,4,6,8,10,12,14,-1,-1,-1,-1,-1,-1,-1,-1],"split_conditions":[3.709049E-1,1.1821669E0,1.416769E0,1.454135E0,1.7911409E0,-1.2459002E0,-4.1818183E-2,1.5939612E-4,-4.6398476E-4,1.0868787E-3,7.440355E-5,2.4858737E-5,-2.490446E-4,-3.6289202E-5,4.3816608E-4],"split_indices":[19,10,15,0,0,22,3,0,0,0,0,0,0,0,0],"split_type":[0,0,0,0,0,0,0,0,0,0,0,0,0,0,0],"sum_hessian":[5.5E1,2.7E1,2.8E1,2.4E1,3E0,2.4E1,4E0,2E1,4E0,2E0,1E0,5E0,1.9E1,2E0,2E0],"tree_param":{"num_deleted":"0","num_feature":"24","num_nodes":"15","size_leaf_vector":"1"}},{"base_weights":[1.4876702E-4,-1.5655664E-3,1.2220975E-3,1.60369E-3,-2.5920353E-3,3.775153E-3,-1.7032055E-3,-2.6687281E-5,3.5632105E-4,2.5917916E-4,-3.0780115E-4,2.6351734E-4,1.2147393E-3,3.2422784E-5,-2.5749885E-4],"categories":[],"categories_nodes":[],"categories_segments":[],"categories_sizes":[],"default_left":[0,0,0,0,0,0,0,0,0,0,0,0,0,0,0],"id":18,"left_children":[1,3,5,7,9,11,13,-1,-1,-1,-1,-1,-1,-1,-1],"loss_changes":[1.0495588E-4,7.572597E-5,2.6782596E-4,2.2943359E-5,5.0804236E-5,1.4932899E-4,3.0882074E-5,0E0,0E0,0E0,0E0,0E0,0E0,0E0,0E0],"parents":[2147483647,0,0,1,1,2,2,3,3,4,4,5,5,6,6],"right_children":[2,4,6,8,10,12,14,-1,-1,-1,-1,-1,-1,-1,-1],"split_conditions":[-4.7156566E-1,-1.2706287E0,8.053859E-1,-1.5529058E0,-1.6148437E0,1.751673E0,2.2160735E-2,-2.6687281E-5,3.5632105E-4,2.5917916E-4,-3.0780115E-4,2.6351734E-4,1.2147393E-3,3.2422784E-5,-2.5749885E-4],"split_indices":[18,18,18,4,2,0,3,0,0,0,0,0,0,0,0],"split_type":[0,0,0,0,0,0,0,0,0,0,0,0,0,0,0],"sum_hessian":[5.5E1,2.1E1,3.4E1,5E0,1.6E1,1.8E1,1.6E1,3E0,2E0,1E0,1.5E1,1.7E1,1E0,5E0,1.1E1],"tree_param":{"num_deleted":"0","num_feature":"24","num_nodes":"15","size_leaf_vector":"1"}},{"base_weights":[1.612865E-4,-1.1843838E-3,1.3670136E-3,-2.4506403E-3,3.6778772E-4,3.0409181E-3,-1.3972532E-3,1.2110304E-4,-3.1071305E-4,1.8141801E-4,-2.3092763E-4,-2.6176646E-4,5.248817E-4,1.06914216E-4,-4.041839E-4],"categories":[],"categories_nodes":[],"categories_segments":[],"categories_sizes":[],"default_left":[0,0,0,0,0,0,0,0,0,0,0,0,0,0,0],"id":19,"left_children":[1,3,5,7,9,11,13,-1,-1,-1,-1,-1,-1,-1,-1],"loss_changes":[9.247969E-5,5.3968397E-5,1.430625E-4,3.982058E-5,5.452655E-5,2.5111757E-4,8.259242E-5,0E0,0E0,0E0,0E0,0E0,0E0,0E0,0E0],"parents":[2147483647,0,0,1,1,2,2,3,3,4,4,5,5,6,6],"right_children":[2,4,6,8,10,12,14,-1,-1,-1,-1,-1,-1,-1,-1],"split_conditions":[-8.325616E-2,3.682617E-2,9.074394E-1,-7.262885E-1,5.926559E-1,-1.1758397E0,1.4839345E0,1.2110304E-4,-3.1071305E-4,1.8141801E-4,-2.3092763E-4,-2.6176646E-4,5.248817E-4,1.06914216E-4,-4.041839E-4],"split_indices":[9,0,9,16,0,2,11,0,0,0,0,0,0,0,0],"split_type":[0,0,0,0,0,0,0,0,0,0,0,0,0,0,0],"sum_hessian":[5.5E1,2.6E1,2.9E1,1.4E1,1.2E1,1.8E1,1.1E1,2E0,1.2E1,8E0,4E0,5E0,1.3E1,6E0,5E0],"tree_param":{"num_deleted":"0","num_feature":"24","num_nodes":"15","size_leaf_vector":"1"}},{"base_weights":[1.4027797E-4,-6.70932E-4,1.8901064E-3,4.542467E-5,-3.4524922E-3,7.6821395E-3,2.1955716E-4,2.1781462E-4,-1.02300095E-4,4.10683E-5,-4.0630435E-4,2.7244643E-4,1.1277583E-3,-2.824457E-4,1.21593206E-4],"categories":[],"categories_nodes":[],"categories_segments":[],"categories_sizes":[],"default_left":[0,0,0,0,0,0,0,0,0,0,0,0,0,0,0],"id":20,"left_children":[1,3,5,7,9,11,13,-1,-1,-1,-1,-1,-1,-1,-1],"loss_changes":[8.075892E-5,7.786781E-5,1.7247911E-4,7.514518E-5,2.0537955E-5,4.05748E-5,4.8929036E-5,0E0,0E0,0E0,0E0,0E0,0E0,0E0,0E0],"parents":[2147483647,0,0,1,1,2,2,3,3,4,4,5,5,6,6],"right_children":[2,4,6,8,10,12,14,-1,-1,-1,-1,-1,-1,-1,-1],"split_conditions":[3.8966092E-1,4.8411727E-1,4.6990663E-1,3.709049E-1,-1.8460457E0,4.426194E-1,-6.203668E-1,2.1781462E-4,-1.02300095E-4,4.10683E-5,-4.0630435E-4,2.7244643E-4,1.1277583E-3,-2.824457E-4,1.21593206E-4],"split_indices":[21,0,21,19,2,0,2,0,0,0,0,0,0,0,0],"split_type":[0,0,0,0,0,0,0,0,0,0,0,0,0,0,0],"sum_hessian":[5.5E1,3.8E1,1.7E1,3.1E1,7E0,3E0,1.4E1,1E1,2.1E1,1E0,6E0,2E0,1E0,3E0,1.1E1],"tree_param":{"num_deleted":"0","num_feature":"24","num_nodes":"15","size_leaf_vector":"1"}},{"base_weights":[1.4392221E-4,-1.0314964E-3,1.2738464E-3,-2.0913254E-3,3.5225446E-4,2.6013164E-3,-1.9651225E-3,1.0171589E-4,-2.6080487E-4,1.6168924E-4,-1.9945447E-4,4.350785E-5,9.446262E-4,-3.1244292E-4,1.3949673E-4],"categories":[],"categories_nodes":[],"categories_segments":[],"categories_sizes":[],"default_left":[0,0,0,0,0,0,0,0,0,0,0,0,0,0,0],"id":21,"left_children":[1,3,5,7,9,11,13,-1,-1,-1,-1,-1,-1,-1,-1],"loss_changes":[7.568946E-5,4.179978E-5,1.2980131E-4,2.835242E-5,4.1807027E-5,3.0727353E-4,3.9416846E-5,0E0,0E0,0E0,0E0,0E0,0E0,0E0,0E0],"parents":[2147483647,0,0,1,1,2,2,3,3,4,4,5,5,6,6],"right_children":[2,4,6,8,10,12,14,-1,-1,-1,-1,-1,-1,-1,-1],"split_conditions":[-4.8039664E-2,3.682617E-2,1.1896172E0,-7.262885E-1,5.926559E-1,5.533779E-1,1.4440193E0,1.0171589E-4,-2.6080487E-4,1.6168924E-4,-1.9945447E-4,4.350785E-5,9.446262E-4,-3.1244292E-4,1.3949673E-4],"split_indices":[9,0,18,16,0,4,21,0,0,0,0,0,0,0,0],"split_type":[0,0,0,0,0,0,0,0,0,0,0,0,0,0,0],"sum_hessian":[5.5E1,2.7E1,2.8E1,1.5E1,1.2E1,2E1,8E0,2E0,1.3E1,8E0,4E0,1.6E1,4E0,6E0,2E0],"tree_param":{"num_deleted":"0","num_feature":"24","num_nodes":"15","size_leaf_vector":"1"}},{"base_weights":[1.4057184E-4,8.3978276E-4,-1.5128993E-3,-4.034259E-4,5.8630453E-3,2.4857777E-4,-2.2675628E-3,-7.899013E-5,3.724629E-4,1.2378622E-4,1.0178763E-3,1.5528337E-4,-1.5732895E-4,-2.726939E-4,1.3927874E-4],"categories":[],"categories_nodes":[],"categories_segments":[],"categories_sizes":[],"default_left":[0,0,0,0,0,0,0,0,0,0,0,0,0,0,0],"id":22,"left_children":[1,3,5,7,9,11,13,-1,-1,-1,-1,-1,-1,-1,-1],"loss_changes":[6.6013505E-5,2.5216382E-4,2.3162149E-5,5.559002E-5,1.4708802E-4,1.6700144E-5,2.397578E-5,0E0,0E0,0E0,0E0,0E0,0E0,0E0,0E0],"parents":[2147483647,0,0,1,1,2,2,3,3,4,4,5,5,6,6],"right_children":[2,4,6,8,10,12,14,-1,-1,-1,-1,-1,-1,-1,-1],"split_conditions":[8.053859E-1,5.533779E-1,2.2160735E-2,9.3904054E-1,-4.8039664E-2,3.1449565E-1,1.721877E0,-7.899013E-5,3.724629E-4,1.2378622E-4,1.0178763E-3,1.5528337E-4,-1.5732895E-4,-2.726939E-4,1.3927874E-4],"split_indices":[18,4,3,22,9,2,3,0,0,0,0,0,0,0,0],"split_type":[0,0,0,0,0,0,0,0,0,0,0,0,0,0,0],"sum_hessian":[5.5E1,3.9E1,1.6E1,3.2E1,7E0,5E0,1.1E1,3E1,2E0,4E0,3E0,3E0,2E0,1E1,1E0],"tree_param":{"num_deleted":"0","num_feature":"24","num_nodes":"15","size_leaf_vector":"1"}},{"base_weights":[1.497233E-4,-8.899918E-4,1.1484233E-3,-2.0821332E-3,1.3424756E-4,3.2090126E-3,-4.9487565E-4,8.563257E-5,-2.6942464E-4,1.4082869E-4,-1.7049868E-4,-1.06355816E-4,7.023153E-4,4.22226E-4,-1.8072804E-4],"categories":[],"categories_nodes":[],"categories_segments":[],"categories_sizes":[],"default_left":[0,0,0,0,0,0,0,0,0,0,0,0,0,0,0],"id":23,"left_children":[1,3,5,7,9,11,13,-1,-1,-1,-1,-1,-1,-1,-1],"loss_changes":[5.9170445E-5,3.4468583E-5,9.978682E-5,2.568985E-5,3.989322E-5,2.1931992E-4,1.1287426E-4,0E0,0E0,0E0,0E0,0E0,0E0,0E0,0E0],"parents":[2147483647,0,0,1,1,2,2,3,3,4,4,5,5,6,6],"right_children":[2,4,6,8,10,12,14,-1,-1,-1,-1,-1,-1,-1,-1],"split_conditions":[-4.8039664E-2,-1.5313117E-1,3.222833E-1,-7.262885E-1,1.3490436E0,-6.9133294E-1,-4.4309488E-1,8.563257E-5,-2.6942464E-4,1.4082869E-4,-1.7049868E-4,-1.06355816E-4,7.023153E-4,4.22226E-4,-1.8072804E-4],"split_indices":[9,0,22,16,23,22,15,0,0,0,0,0,0,0,0],"split_type":[0,0,0,0,0,0,0,0,0,0,0,0,0,0,0],"sum_hessian":[5.5E1,2.7E1,2.8E1,1.2E1,1.5E1,1.2E1,1.6E1,2E0,1E1,9E0,6E0,6E0,6E0,3E0,1.3E1],"tree_param":{"num_deleted":"0","num_feature":"24","num_nodes":"15","size_leaf_vector":"1"}},{"base_weights":[1.4589367E-4,7.629916E-4,-1.3146835E-3,-3.5431253E-4,5.2764975E-3,2.2739514E-4,-1.976166E-3,-1.5045216E-4,8.167384E-5,9.1539195E-4,1.11926034E-4,1.3545887E-4,-1.351328E-4,-2.7165626E-4,1.837684E-5],"categories":[],"categories_nodes":[],"categories_segments":[],"categories_sizes":[],"default_left":[0,0,0,0,0,0,0,0,0,0,0,0,0,0,0],"id":24,"left_children":[1,3,5,7,9,11,13,-1,-1,-1,-1,-1,-1,-1,-1],"loss_changes":[5.147696E-5,2.0358789E-4,1.7790351E-5,4.5678255E-5,1.1870927E-4,1.2507652E-5,1.9689727E-5,0E0,0E0,0E0,0E0,0E0,0E0,0E0,0E0],"parents":[2147483647,0,0,1,1,2,2,3,3,4,4,5,5,6,6],"right_children":[2,4,6,8,10,12,14,-1,-1,-1,-1,-1,-1,-1,-1],"split_conditions":[8.053859E-1,2.9984736E-1,2.2160735E-2,-2.0231158E-1,6.4181006E-1,3.1449565E-1,1.4543843E0,-1.5045216E-4,8.167384E-5,9.1539195E-4,1.11926034E-4,1.3545887E-4,-1.351328E-4,-2.7165626E-4,1.837684E-5],"split_indices":[18,18,3,2,4,2,3,0,0,0,0,0,0,0,0],"split_type":[0,0,0,0,0,0,0,0,0,0,0,0,0,0,0],"sum_hessian":[5.5E1,3.9E1,1.6E1,3.2E1,7E0,5E0,1.1E1,1.6E1,1.6E1,3E0,4E0,3E0,2E0,8E0,3E0],"tree_param":{"num_deleted":"0","num_feature":"24","num_nodes":"15","size_leaf_vector":"1"}},{"base_weights":[1.4390408E-4,-7.8546326E-4,1.036262E-3,-1.6643713E-3,3.5669014E-4,2.9015657E-3,-4.511032E-4,7.16775E-5,-2.0557335E-4,1.408087E-4,-1.6071623E-4,-9.097589E-5,6.298381E-4,3.7107916E-4,-1.6079943E-4],"categories":[],"categories_nodes":[],"categories_segments":[],"categories_sizes":[],"default_left":[0,0,0,0,0,0,0,0,0,0,0,0,0,0,0],"id":25,"left_children":[1,3,5,7,9,11,13,-1,-1,-1,-1,-1,-1,-1,-1],"loss_changes":[4.725633E-5,2.8701408E-5,8.176615E-5,1.6383743E-5,2.9105273E-5,1.7403274E-4,8.781954E-5,0E0,0E0,0E0,0E0,0E0,0E0,0E0,0E0],"parents":[2147483647,0,0,1,1,2,2,3,3,4,4,5,5,6,6],"right_children":[2,4,6,8,10,12,14,-1,-1,-1,-1,-1,-1,-1,-1],"split_conditions":[-4.8039664E-2,3.682617E-2,3.222833E-1,-7.262885E-1,5.926559E-1,-6.9133294E-1,-4.4309488E-1,7.16775E-5,-2.0557335E-4,1.408087E-4,-1.6071623E-4,-9.097589E-5,6.298381E-4,3.7107916E-4,-1.6079943E-4],"split_indices":[9,0,22,16,0,22,15,0,0,0,0,0,0,0,0],"split_type":[0,0,0,0,0,0,0,0,0,0,0,0,0,0,0],"sum_hessian":[5.5E1,2.7E1,2.8E1,1.5E1,1.2E1,1.2E1,1.6E1,2E0,1.3E1,8E0,4E0,6E0,6E0,3E0,1.3E1],"tree_param":{"num_deleted":"0","num_feature":"24","num_nodes":"15","size_leaf_vector":"1"}},{"base_weights":[1.4014465E-4,6.8520335E-4,-1.1505903E-3,-3.3237896E-4,4.79708E-3,2.1877901E-4,-1.7393923E-3,-1.3256019E-4,6.803957E-5,8.2573463E-4,1.0694513E-4,1.1825049E-4,-1.1391152E-4,-2.4198017E-4,2.2637676E-5],"categories":[],"categories_nodes":[],"categories_segments":[],"categories_sizes":[],"default_left":[0,0,0,0,0,0,0,0,0,0,0,0,0,0,0],"id":26,"left_children":[1,3,5,7,9,11,13,-1,-1,-1,-1,-1,-1,-1,-1],"loss_changes":[4.018586E-5,1.6896137E-4,1.4087429E-5,3.4096993E-5,9.435785E-5,9.198837E-6,1.6598118E-5,0E0,0E0,0E0,0E0,0E0,0E0,0E0,0E0],"parents":[2147483647,0,0,1,1,2,2,3,3,4,4,5,5,6,6],"right_children":[2,4,6,8,10,12,14,-1,-1,-1,-1,-1,-1,-1,-1],"split_conditions":[8.053859E-1,2.9984736E-1,2.2160735E-2,-2.0231158E-1,6.4181006E-1,3.1449565E-1,1.4543843E0,-1.3256019E-4,6.803957E-5,8.2573463E-4,1.0694513E-4,1.1825049E-4,-1.1391152E-4,-2.4198017E-4,2.2637676E-5],"split_indices":[18,18,3,2,4,2,3,0,0,0,0,0,0,0,0],"split_type":[0,0,0,0,0,0,0,0,0,0,0,0,0,0,0],"sum_hessian":[5.5E1,3.9E1,1.6E1,3.2E1,7E0,5E0,1.1E1,1.6E1,1.6E1,3E0,4E0,3E0,2E0,8E0,3E0],"tree_param":{"num_deleted":"0","num_feature":"24","num_nodes":"15","size_leaf_vector":"1"}},{"base_weights":[1.3779382E-4,-6.92263E-4,9.344765E-4,-1.4842497E-3,3.3574074E-4,2.1482443E-3,-9.6404826E-4,-2.7152753E-4,-6.7784946E-5,1.4819056E-4,-1.2484359E-4,-1.74978E-4,3.782083E-4,6.3841966E-5,-3.3351872E-4],"categories":[],"categories_nodes":[],"categories_segments":[],"categories_sizes":[],"default_left":[0,0,0,0,0,0,0,0,0,0,0,0,0,0,0],"id":27,"left_children":[1,3,5,7,9,11,13,-1,-1,-1,-1,-1,-1,-1,-1],"loss_changes":[3.7679252E-5,2.3294953E-5,6.8897694E-5,1.4042635E-5,2.5454521E-5,1.2125519E-4,4.772534E-5,0E0,0E0,0E0,0E0,0E0,0E0,0E0,0E0],"parents":[2147483647,0,0,1,1,2,2,3,3,4,4,5,5,6,6],"right_children":[2,4,6,8,10,12,14,-1,-1,-1,-1,-1,-1,-1,-1],"split_conditions":[-4.8039664E-2,3.682617E-2,9.074394E-1,-5.084416E-1,1.3490436E0,-1.1758397E0,1.602636E0,-2.7152753E-4,-6.7784946E-5,1.4819056E-4,-1.2484359E-4,-1.74978E-4,3.782083E-4,6.3841966E-5,-3.3351872E-4],"split_indices":[9,0,9,4,23,2,11,0,0,0,0,0,0,0,0],"split_type":[0,0,0,0,0,0,0,0,0,0,0,0,0,0,0],"sum_hessian":[5.5E1,2.7E1,2.8E1,1.5E1,1.2E1,1.7E1,1.1E1,5E0,1E1,7E0,5E0,5E0,1.2E1,7E0,4E0],"tree_param":{"num_deleted":"0","num_feature":"24","num_nodes":"15","size_leaf_vector":"1"}},{"base_weights":[1.17185664E-4,6.3883094E-4,-1.1171083E-3,-2.6844323E-4,4.301483E-3,8.3509985E-5,-1.6243249E-3,-5.4613683E-5,2.6905382E-4,9.949284E-5,7.359306E-4,9.216597E-5,-1.0618596E-4,-1.9858607E-4,1.17628464E-4],"categories":[],"categories_nodes":[],"categories_segments":[],"categories_sizes":[],"default_left":[0,0,0,0,0,0,0,0,0,0,0,0,0,0,0],"id":28,"left_children":[1,3,5,7,9,11,13,-1,-1,-1,-1,-1,-1,-1,-1],"loss_changes":[3.6770005E-5,1.3407589E-4,1.0488202E-5,2.8585178E-5,7.356488E-5,6.7386195E-6,1.4486184E-5,0E0,0E0,0E0,0E0,0E0,0E0,0E0,0E0],"parents":[2147483647,0,0,1,1,2,2,3,3,4,4,5,5,6,6],"right_children":[2,4,6,8,10,12,14,-1,-1,-1,-1,-1,-1,-1,-1],"split_conditions":[8.053859E-1,5.533779E-1,2.2160735E-2,9.3904054E-1,-4.8039664E-2,3.1449565E-1,1.5883702E0,-5.4613683E-5,2.6905382E-4,9.949284E-5,7.359306E-4,9.216597E-5,-1.0618596E-4,-1.9858607E-4,1.17628464E-4],"split_indices":[18,4,3,22,9,2,22,0,0,0,0,0,0,0,0],"split_type":[0,0,0,0,0,0,0,0,0,0,0,0,0,0,0],"sum_hessian":[5.5E1,3.9E1,1.6E1,3.2E1,7E0,5E0,1.1E1,3E1,2E0,4E0,3E0,3E0,2E0,1E1,1E0],"tree_param":{"num_deleted":"0","num_feature":"24","num_nodes":"15","size_leaf_vector":"1"}},{"base_weights":[1.2251845E-4,4.6157508E-4,-1.4832995E-3,1.1417252E-4,5.5187554E-3,1.1174707E-4,-1.8964375E-3,4.5531637E-5,-2.7060413E-4,7.638743E-4,6.393898E-5,5.8017517E-6,-2.4631416E-4],"categories":[],"categories_nodes":[],"categories_segments":[],"categories_sizes":[],"default_left":[0,0,0,0,0,0,0,0,0,0,0,0,0],"id":29,"left_children":[1,3,5,7,9,-1,11,-1,-1,-1,-1,-1,-1],"loss_changes":[3.11746E-5,8.194316E-5,1.2863979E-5,4.452654E-5,2.6148446E-5,0E0,1.0111278E-5,0E0,0E0,0E0,0E0,0E0,0E0],"parents":[2147483647,0,0,1,1,2,2,3,3,4,4,6,6],"right_children":[2,4,6,8,10,-1,12,-1,-1,-1,-1,-1,-1],"split_conditions":[1.2531903E0,2.3209698E0,-2.7216086E-1,1.454135E0,1.7911409E0,1.1174707E-4,-2.5053662E-1,4.5531637E-5,-2.7060413E-4,7.638743E-4,6.393898E-5,5.8017517E-6,-2.4631416E-4],"split_indices":[6,13,14,0,0,0,12,0,0,0,0,0,0],"split_type":[0,0,0,0,0,0,0,0,0,0,0,0,0],"sum_hessian":[5.5E1,4.6E1,9E0,4.4E1,2E0,1E0,8E0,4E1,4E0,1E0,1E0,2E0,6E0],"tree_param":{"num_deleted":"0","num_feature":"24","num_nodes":"13","size_leaf_vector":"1"}},{"base_weights":[1.1873036E-4,-6.032736E-4,8.117435E-4,-1.3288854E-3,3.3619272E-4,2.3675067E-3,-4.2570732E-4,-2.481434E-4,-5.7941495E-5,1.2002458E-4,-1.2863414E-4,-7.764347E-5,5.173233E-4,2.3055785E-4,-1.4434551E-4],"categories":[],"categories_nodes":[],"categories_segments":[],"categories_sizes":[],"default_left":[0,0,0,0,0,0,0,0,0,0,0,0,0,0,0],"id":30,"left_children":[1,3,5,7,9,11,13,-1,-1,-1,-1,-1,-1,-1,-1],"loss_changes":[2.8509767E-5,1.9534022E-5,5.6838093E-5,1.2383036E-5,1.9769348E-5,1.18690165E-4,5.0583916E-5,0E0,0E0,0E0,0E0,0E0,0E0,0E0,0E0],"parents":[2147483647,0,0,1,1,2,2,3,3,4,4,5,5,6,6],"right_children":[2,4,6,8,10,12,14,-1,-1,-1,-1,-1,-1,-1,-1],"split_conditions":[-4.8039664E-2,3.682617E-2,3.222833E-1,-5.084416E-1,5.926559E-1,-6.9133294E-1,-8.886293E-1,-2.481434E-4,-5.7941495E-5,1.2002458E-4,-1.2863414E-4,-7.764347E-5,5.173233E-4,2.3055785E-4,-1.4434551E-4],"split_indices":[9,0,22,4,0,22,0,0,0,0,0,0,0,0,0],"split_type":[0,0,0,0,0,0,0,0,0,0,0,0,0,0,0],"sum_hessian":[5.5E1,2.7E1,2.8E1,1.5E1,1.2E1,1.2E1,1.6E1,5E0,1E1,8E0,4E0,6E0,6E0,4E0,1.2E1],"tree_param":{"num_deleted":"0","num_feature":"24","num_nodes":"15","size_leaf_vector":"1"}},{"base_weights":[1.1062866E-4,-7.147908E-4,6.263029E-4,-1.8466243E-3,3.822892E-4,-5.0125754E-4,2.8292318E-3,2.4618023E-5,-2.3390453E-4,1.2752121E-4,-2.72155E-4,-1.1089791E-4,1.1330631E-4,5.455256E-4,8.343132E-5],"categories":[],"categories_nodes":[],"categories_segments":[],"categories_sizes":[],"default_left":[0,0,0,0,0,0,0,0,0,0,0,0,0,0,0],"id":31,"left_children":[1,3,5,7,9,11,13,-1,-1,-1,-1,-1,-1,-1,-1],"loss_changes":[2.4283936E-5,2.8023609E-5,8.835592E-5,1.1911779E-5,3.6728423E-5,2.5093628E-5,5.8313053E-5,0E0,0E0,0E0,0E0,0E0,0E0,0E0,0E0],"parents":[2147483647,0,0,1,1,2,2,3,3,4,4,5,5,6,6],"right_children":[2,4,6,8,10,12,14,-1,-1,-1,-1,-1,-1,-1,-1],"split_conditions":[-3.6468038E-1,-1.9067946E-1,8.297051E-2,-1.2085574E0,1.2215446E0,-1.2737326E-1,9.1554105E-1,2.4618023E-5,-2.3390453E-4,1.2752121E-4,-2.72155E-4,-1.1089791E-4,1.1330631E-4,5.455256E-4,8.343132E-5],"split_indices":[23,2,10,22,4,15,14,0,0,0,0,0,0,0,0],"split_type":[0,0,0,0,0,0,0,0,0,0,0,0,0,0,0],"sum_hessian":[5.5E1,2.1E1,3.4E1,1E1,1.1E1,2.3E1,1.1E1,2E0,8E0,9E0,2E0,1.7E1,6E0,4E0,7E0],"tree_param":{"num_deleted":"0","num_feature":"24","num_nodes":"15","size_leaf_vector":"1"}},{"base_weights":[1.0452026E-4,-3.4115915E-4,1.0643523E-3,2.707704E-5,-2.370971E-4,4.623166E-3,4.4378547E-5,-6.317108E-5,1.2874973E-4,1.6806331E-4,6.7253824E-4,-1.6124334E-4,5.9295096E-5],"categories":[],"categories_nodes":[],"categories_segments":[],"categories_sizes":[],"default_left":[0,0,0,0,0,0,0,0,0,0,0,0,0],"id":32,"left_children":[1,3,5,7,-1,9,11,-1,-1,-1,-1,-1,-1],"loss_changes":[2.4318648E-5,2.9214756E-5,6.513296E-5,2.9045208E-5,0E0,1.3440462E-5,1.4589314E-5,0E0,0E0,0E0,0E0,0E0,0E0],"parents":[2147483647,0,0,1,1,2,2,3,3,5,5,6,6],"right_children":[2,4,6,8,-1,10,12,-1,-1,-1,-1,-1,-1],"split_conditions":[3.8966092E-1,1.4839345E0,4.6990663E-1,-2.3408018E-1,-2.370971E-4,4.426194E-1,-6.203668E-1,-6.317108E-5,1.2874973E-4,1.6806331E-4,6.7253824E-4,-1.6124334E-4,5.9295096E-5],"split_indices":[21,11,21,12,0,0,2,0,0,0,0,0,0],"split_type":[0,0,0,0,0,0,0,0,0,0,0,0,0],"sum_hessian":[5.5E1,3.8E1,1.7E1,3.3E1,5E0,3E0,1.4E1,2.2E1,1.1E1,2E0,1E0,3E0,1.1E1],"tree_param":{"num_deleted":"0","num_feature":"24","num_nodes":"13","size_leaf_vector":"1"}},{"base_weights":[1.0419557E-4,-5.342782E-4,7.1706006E-4,-1.1527675E-3,2.6803763E-4,1.6364682E-3,-7.2180724E-4,-2.1464564E-4,-5.0595823E-5,1.1775559E-4,-9.893263E-5,-1.3708234E-4,2.898567E-4,4.0822826E-5,-2.3855027E-4],"categories":[],"categories_nodes":[],"categories_segments":[],"categories_sizes":[],"default_left":[0,0,0,0,0,0,0,0,0,0,0,0,0,0,0],"id":33,"left_children":[1,3,5,7,9,11,13,-1,-1,-1,-1,-1,-1,-1,-1],"loss_changes":[2.2295793E-5,1.4203249E-5,3.95455E-5,9.197618E-6,1.6031725E-5,7.22924E-5,2.3534247E-5,0E0,0E0,0E0,0E0,0E0,0E0,0E0,0E0],"parents":[2147483647,0,0,1,1,2,2,3,3,4,4,5,5,6,6],"right_children":[2,4,6,8,10,12,14,-1,-1,-1,-1,-1,-1,-1,-1],"split_conditions":[-4.8039664E-2,3.682617E-2,9.074394E-1,-5.084416E-1,1.3490436E0,-1.1758397E0,1.602636E0,-2.1464564E-4,-5.0595823E-5,1.1775559E-4,-9.893263E-5,-1.3708234E-4,2.898567E-4,4.0822826E-5,-2.3855027E-4],"split_indices":[9,0,9,4,23,2,11,0,0,0,0,0,0,0,0],"split_type":[0,0,0,0,0,0,0,0,0,0,0,0,0,0,0],"sum_hessian":[5.5E1,2.7E1,2.8E1,1.5E1,1.2E1,1.7E1,1.1E1,5E0,1E1,7E0,5E0,5E0,1.2E1,7E0,4E0],"tree_param":{"num_deleted":"0","num_feature":"24","num_nodes":"15","size_leaf_vector":"1"}},{"base_weights":[8.857275E-5,4.4355853E-4,-9.1129227E-4,1.4978267E-4,6.2441843E-4,-1.2649734E-3,9.250902E-5,-3.8469174E-5,1.4734868E-4,2.1737605E-5,-1.7314158E-4],"categories":[],"categories_nodes":[],"categories_segments":[],"categories_sizes":[],"default_left":[0,0,0,0,0,0,0,0,0,0,0],"id":34,"left_children":[1,3,5,7,-1,9,-1,-1,-1,-1,-1],"loss_changes":[2.0280731E-5,7.063625E-5,1.0912622E-5,2.9573765E-5,0E0,9.364969E-6,0E0,0E0,0E0,0E0,0E0],"parents":[2147483647,0,0,1,1,2,2,3,3,5,5],"right_children":[2,4,6,8,-1,10,-1,-1,-1,-1,-1],"split_conditions":[8.746704E-1,1.751673E0,1.4543843E0,1.6817002E-1,6.2441843E-4,-4.4309488E-1,9.250902E-5,-3.8469174E-5,1.4734868E-4,2.1737605E-5,-1.7314158E-4],"split_indices":[18,0,3,18,0,15,0,0,0,0,0],"split_type":[0,0,0,0,0,0,0,0,0,0,0],"sum_hessian":[5.5E1,4.1E1,1.4E1,4E1,1E0,1.2E1,2E0,2.9E1,1.1E1,3E0,9E0],"tree_param":{"num_deleted":"0","num_feature":"24","num_nodes":"11","size_leaf_vector":"1"}},{"base_weights":[9.175842E-5,-6.324879E-4,5.443773E-4,-1.5412496E-3,2.5325103E-4,-3.8234144E-4,2.35245E-3,-2.091216E-4,-5.600456E-6,1.7587146E-4,-1.0733252E-4,1.4836842E-4,-8.297308E-5,4.571421E-4,6.7153676E-5],"categories":[],"categories_nodes":[],"categories_segments":[],"categories_sizes":[],"default_left":[0,0,0,0,0,0,0,0,0,0,0,0,0,0,0],"id":35,"left_children":[1,3,5,7,9,11,13,-1,-1,-1,-1,-1,-1,-1,-1],"loss_changes":[1.8701534E-5,1.8098686E-5,5.954456E-5,8.868068E-6,2.5853018E-5,2.1267218E-5,4.16889E-5,0E0,0E0,0E0,0E0,0E0,0E0,0E0,0E0],"parents":[2147483647,0,0,1,1,2,2,3,3,4,4,5,5,6,6],"right_children":[2,4,6,8,10,12,14,-1,-1,-1,-1,-1,-1,-1,-1],"split_conditions":[-3.6468038E-1,-1.9067946E-1,8.297051E-2,1.2153902E0,7.972781E-2,-1.2706287E0,9.1554105E-1,-2.091216E-4,-5.600456E-6,1.7587146E-4,-1.0733252E-4,1.4836842E-4,-8.297308E-5,4.571421E-4,6.7153676E-5],"split_indices":[23,2,10,14,4,18,14,0,0,0,0,0,0,0,0],"split_type":[0,0,0,0,0,0,0,0,0,0,0,0,0,0,0],"sum_hessian":[5.5E1,2.1E1,3.4E1,1E1,1.1E1,2.3E1,1.1E1,7E0,3E0,5E0,6E0,4E0,1.9E1,4E0,7E0],"tree_param":{"num_deleted":"0","num_feature":"24","num_nodes":"15","size_leaf_vector":"1"}},{"base_weights":[9.05025E-5,-4.6251144E-4,6.213262E-4,2.2144754E-4,-9.893212E-4,1.8147856E-3,-3.2786786E-4,-6.8947986E-5,1.3991095E-4,-1.8374217E-4,-1.25529405E-5,-5.214769E-5,3.8917933E-4,2.192867E-4,-1.0246587E-4],"categories":[],"categories_nodes":[],"categories_segments":[],"categories_sizes":[],"default_left":[0,0,0,0,0,0,0,0,0,0,0,0,0,0,0],"id":36,"left_children":[1,3,5,7,9,11,13,-1,-1,-1,-1,-1,-1,-1,-1],"loss_changes":[1.6726333E-5,1.0307937E-5,3.3446926E-5,1.4910595E-5,1.1490667E-5,6.511113E-5,3.2106163E-5,0E0,0E0,0E0,0E0,0E0,0E0,0E0,0E0],"parents":[2147483647,0,0,1,1,2,2,3,3,4,4,5,5,6,6],"right_children":[2,4,6,8,10,12,14,-1,-1,-1,-1,-1,-1,-1,-1],"split_conditions":[-4.8039664E-2,-8.74301E-1,3.222833E-1,-3.4829414E-1,7.654135E-1,-6.9133294E-1,-4.4309488E-1,-6.8947986E-5,1.3991095E-4,-1.8374217E-4,-1.25529405E-5,-5.214769E-5,3.8917933E-4,2.192867E-4,-1.0246587E-4],"split_indices":[9,9,22,14,22,22,15,0,0,0,0,0,0,0,0],"split_type":[0,0,0,0,0,0,0,0,0,0,0,0,0,0,0],"sum_hessian":[5.5E1,2.7E1,2.8E1,1.2E1,1.5E1,1.2E1,1.6E1,7E0,5E0,7E0,8E0,6E0,6E0,3E0,1.3E1],"tree_param":{"num_deleted":"0","num_feature":"24","num_nodes":"15","size_leaf_vector":"1"}},{"base_weights":[8.731862E-5,-3.4782206E-4,7.267736E-4,7.910088E-4,-9.2687196E-4,-2.2479067E-4,2.5390554E-3,1.5984192E-4,-1.2234168E-4,-1.9909527E-4,-2.2663202E-5,2.1869084E-5,-1.6099079E-4,5.0262245E-4,8.7229506E-5],"categories":[],"categories_nodes":[],"categories_segments":[],"categories_sizes":[],"default_left":[0,0,0,0,0,0,0,0,0,0,0,0,0,0,0],"id":37,"left_children":[1,3,5,7,9,11,13,-1,-1,-1,-1,-1,-1,-1,-1],"loss_changes":[1.5834947E-5,2.3154122E-5,4.0234314E-5,2.147315E-5,1.668636E-5,1.0180454E-5,2.8779774E-5,0E0,0E0,0E0,0E0,0E0,0E0,0E0,0E0],"parents":[2147483647,0,0,1,1,2,2,3,3,4,4,5,5,6,6],"right_children":[2,4,6,8,10,12,14,-1,-1,-1,-1,-1,-1,-1,-1],"split_conditions":[2.4128982E-1,-7.8530204E-1,8.297051E-2,1.6766796E0,-4.609277E-1,-4.4309488E-1,9.1554105E-1,1.5984192E-4,-1.2234168E-4,-1.9909527E-4,-2.2663202E-5,2.1869084E-5,-1.6099079E-4,5.0262245E-4,8.7229506E-5],"split_indices":[21,21,10,16,5,15,14,0,0,0,0,0,0,0,0],"split_type":[0,0,0,0,0,0,0,0,0,0,0,0,0,0,0],"sum_hessian":[5.5E1,3.3E1,2.2E1,1.1E1,2.2E1,1.5E1,7E0,8E0,3E0,8E0,1.4E1,1.2E1,3E0,2E0,5E0],"tree_param":{"num_deleted":"0","num_feature":"24","num_nodes":"15","size_leaf_vector":"1"}},{"base_weights":[8.334523E-5,3.1253314E-4,-1.0021726E-3,7.5375065E-5,3.7657267E-3,-1.7440841E-3,8.8555695E-5,2.8830245E-5,-1.6857046E-4,5.257502E-4,3.9108796E-5,-9.115017E-6,-2.0564409E-4,7.7135184E-5,-6.23759E-5],"categories":[],"categories_nodes":[],"categories_segments":[],"categories_sizes":[],"default_left":[0,0,0,0,0,0,0,0,0,0,0,0,0,0,0],"id":38,"left_children":[1,3,5,7,9,11,13,-1,-1,-1,-1,-1,-1,-1,-1],"loss_changes":[1.42453155E-5,3.8206937E-5,8.246686E-6,1.7360187E-5,1.3046469E-5,2.9103867E-6,2.9129658E-6,0E0,0E0,0E0,0E0,0E0,0E0,0E0,0E0],"parents":[2147483647,0,0,1,1,2,2,3,3,4,4,5,5,6,6],"right_children":[2,4,6,8,10,12,14,-1,-1,-1,-1,-1,-1,-1,-1],"split_conditions":[1.2531903E0,2.3209698E0,2.0562366E-1,1.454135E0,1.7911409E0,-2.5053662E-1,-7.5526975E-2,2.8830245E-5,-1.6857046E-4,5.257502E-4,3.9108796E-5,-9.115017E-6,-2.0564409E-4,7.7135184E-5,-6.23759E-5],"split_indices":[6,13,21,0,0,12,0,0,0,0,0,0,0,0,0],"split_type":[0,0,0,0,0,0,0,0,0,0,0,0,0,0,0],"sum_hessian":[5.5E1,4.6E1,9E0,4.4E1,2E0,5E0,4E0,4E1,4E0,1E0,1E0,1E0,4E0,2E0,2E0],"tree_param":{"num_deleted":"0","num_feature":"24","num_nodes":"15","size_leaf_vector":"1"}},{"base_weights":[7.903079E-5,-3.061282E-4,6.4496015E-4,6.8860577E-4,-8.1180996E-4,-2.1067863E-4,2.2756178E-3,1.2927873E-4,-1.5548679E-4,-1.8176726E-4,-1.5417168E-5,1.8336044E-5,-1.438636E-4,4.5062826E-4,7.810157E-5],"categories":[],"categories_nodes":[],"categories_segments":[],"categories_sizes":[],"default_left":[0,0,0,0,0,0,0,0,0,0,0,0,0,0,0],"id":39,"left_children":[1,3,5,7,9,11,13,-1,-1,-1,-1,-1,-1,-1,-1],"loss_changes":[1.2403915E-5,1.7661658E-5,3.257026E-5,1.8275696E-5,1.4934122E-5,8.0056E-6,2.3152174E-5,0E0,0E0,0E0,0E0,0E0,0E0,0E0,0E0],"parents":[2147483647,0,0,1,1,2,2,3,3,4,4,5,5,6,6],"right_children":[2,4,6,8,10,12,14,-1,-1,-1,-1,-1,-1,-1,-1],"split_conditions":[2.4128982E-1,-7.8530204E-1,8.297051E-2,1.7376971E0,-4.609277E-1,-4.4309488E-1,9.1554105E-1,1.2927873E-4,-1.5548679E-4,-1.8176726E-4,-1.5417168E-5,1.8336044E-5,-1.438636E-4,4.5062826E-4,7.810157E-5],"split_indices":[21,21,10,16,5,15,14,0,0,0,0,0,0,0,0],"split_type":[0,0,0,0,0,0,0,0,0,0,0,0,0,0,0],"sum_hessian":[5.5E1,3.3E1,2.2E1,1.1E1,2.2E1,1.5E1,7E0,9E0,2E0,8E0,1.4E1,1.2E1,3E0,2E0,5E0],"tree_param":{"num_deleted":"0","num_feature":"24","num_nodes":"15","size_leaf_vector":"1"}},{"base_weights":[7.433865E-5,-5.3394644E-4,4.545653E-4,4.0485512E-4,-1.0993227E-3,-2.7213444E-4,1.8700843E-3,-8.296085E-5,1.16035495E-4,1.1753794E-4,-1.5763879E-4,-4.669355E-5,2.1041445E-4,3.572653E-4,5.7221852E-5],"categories":[],"categories_nodes":[],"categories_segments":[],"categories_sizes":[],"default_left":[0,0,0,0,0,0,0,0,0,0,0,0,0,0,0],"id":40,"left_children":[1,3,5,7,9,11,13,-1,-1,-1,-1,-1,-1,-1,-1],"loss_changes":[1.3194741E-5,1.212214E-5,3.6511923E-5,9.356375E-6,1.7045393E-5,1.2092138E-5,2.447213E-5,0E0,0E0,0E0,0E0,0E0,0E0,0E0,0E0],"parents":[2147483647,0,0,1,1,2,2,3,3,4,4,5,5,6,6],"right_children":[2,4,6,8,10,12,14,-1,-1,-1,-1,-1,-1,-1,-1],"split_conditions":[-3.6468038E-1,-1.4804372E-1,8.297051E-2,-2.0231158E-1,1.8680929E-1,1.2324692E0,9.1554105E-1,-8.296085E-5,1.16035495E-4,1.1753794E-4,-1.5763879E-4,-4.669355E-5,2.1041445E-4,3.572653E-4,5.7221852E-5],"split_indices":[23,15,10,2,22,14,14,0,0,0,0,0,0,0,0],"split_type":[0,0,0,0,0,0,0,0,0,0,0,0,0,0,0],"sum_hessian":[5.5E1,2.1E1,3.4E1,8E0,1.3E1,2.3E1,1.1E1,3E0,5E0,2E0,1.1E1,2.2E1,1E0,4E0,7E0],"tree_param":{"num_deleted":"0","num_feature":"24","num_nodes":"15","size_leaf_vector":"1"}},{"base_weights":[7.710442E-5,-4.8087115E-4,4.2562894E-4,-1.408801E-4,-1.975611E-4,-2.3809938E-4,1.7176165E-3,-8.569672E-5,4.5781668E-5,-6.448338E-5,8.4180334E-5,3.2868405E-4,5.221495E-5],"categories":[],"categories_nodes":[],"categories_segments":[],"categories_sizes":[],"default_left":[0,0,0,0,0,0,0,0,0,0,0,0,0],"id":41,"left_children":[1,3,5,7,-1,9,11,-1,-1,-1,-1,-1,-1],"loss_changes":[1.109489E-5,1.0902033E-5,3.042247E-5,8.537997E-6,0E0,1.108443E-5,2.0795243E-5,0E0,0E0,0E0,0E0,0E0,0E0],"parents":[2147483647,0,0,1,1,2,2,3,3,5,5,6,6],"right_children":[2,4,6,8,-1,10,12,-1,-1,-1,-1,-1,-1],"split_conditions":[-3.6468038E-1,-4.7583562E-1,8.297051E-2,-1.9067946E-1,-1.975611E-4,-1.2737326E-1,9.1554105E-1,-8.569672E-5,4.5781668E-5,-6.448338E-5,8.4180334E-5,3.2868405E-4,5.221495E-5],"split_indices":[23,23,10,2,0,15,14,0,0,0,0,0,0],"split_type":[0,0,0,0,0,0,0,0,0,0,0,0,0],"sum_hessian":[5.5E1,2.1E1,3.4E1,1.8E1,3E0,2.3E1,1.1E1,8E0,1E1,1.7E1,6E0,4E0,7E0],"tree_param":{"num_deleted":"0","num_feature":"24","num_nodes":"13","size_leaf_vector":"1"}},{"base_weights":[7.2306844E-5,3.740753E-4,-5.855418E-4,1.5095422E-4,4.4263378E-4,-1.3498055E-3,2.3517356E-5,-7.559184E-5,6.527647E-5,-3.286153E-5,-1.635433E-4,6.305359E-5,-1.1963991E-4],"categories":[],"categories_nodes":[],"categories_segments":[],"categories_sizes":[],"default_left":[0,0,0,0,0,0,0,0,0,0,0,0,0],"id":42,"left_children":[1,3,5,7,-1,9,11,-1,-1,-1,-1,-1,-1],"loss_changes":[1.1336043E-5,3.4593482E-5,8.410416E-6,1.7786404E-5,0E0,1.7960119E-6,8.900003E-6,0E0,0E0,0E0,0E0,0E0,0E0],"parents":[2147483647,0,0,1,1,2,2,3,3,5,5,6,6],"right_children":[2,4,6,8,-1,10,12,-1,-1,-1,-1,-1,-1],"split_conditions":[4.0599358E-1,2.3209698E0,-2.4929678E-1,-6.203668E-1,4.4263378E-4,-1.5764569E0,1.4578892E0,-7.559184E-5,6.527647E-5,-3.286153E-5,-1.635433E-4,6.305359E-5,-1.1963991E-4],"split_indices":[2,13,10,2,0,3,14,0,0,0,0,0,0],"split_type":[0,0,0,0,0,0,0,0,0,0,0,0,0],"sum_hessian":[5.5E1,3.8E1,1.7E1,3.7E1,1E0,7E0,1E1,1.3E1,2.4E1,2E0,5E0,7E0,3E0],"tree_param":{"num_deleted":"0","num_feature":"24","num_nodes":"13","size_leaf_vector":"1"}},{"base_weights":[6.827827E-5,4.2685328E-4,-4.276073E-4,1.7737868E-4,4.20502E-4,-1.1771367E-3,1.005861E-4,-3.4295987E-5,1.7812643E-4,-2.9088114E-5,-1.7194936E-4,4.946224E-5,-1.1066693E-4],"categories":[],"categories_nodes":[],"categories_segments":[],"categories_sizes":[],"default_left":[0,0,0,0,0,0,0,0,0,0,0,0,0],"id":43,"left_children":[1,3,5,7,-1,9,11,-1,-1,-1,-1,-1,-1],"loss_changes":[1.0140007E-5,3.0358486E-5,9.619918E-6,2.7316933E-5,0E0,4.3064992E-6,7.68292E-6,0E0,0E0,0E0,0E0,0E0,0E0],"parents":[2147483647,0,0,1,1,2,2,3,3,5,5,6,6],"right_children":[2,4,6,8,-1,10,12,-1,-1,-1,-1,-1,-1],"split_conditions":[1.4496548E-1,2.3209698E0,-2.6307908E-1,-1.9067946E-1,4.20502E-4,-6.747608E-1,1.4578892E0,-3.4295987E-5,1.7812643E-4,-2.9088114E-5,-1.7194936E-4,4.946224E-5,-1.1066693E-4],"split_indices":[2,13,10,2,0,9,14,0,0,0,0,0,0],"split_type":[0,0,0,0,0,0,0,0,0,0,0,0,0],"sum_hessian":[5.5E1,3.2E1,2.3E1,3.1E1,1E0,9E0,1.4E1,2.4E1,7E0,4E0,5E0,1.1E1,3E0],"tree_param":{"num_deleted":"0","num_feature":"24","num_nodes":"13","size_leaf_vector":"1"}},{"base_weights":[6.684504E-5,-4.404932E-4,3.838335E-4,-1.7724083E-4,-1.3690616E-4,-1.8067761E-4,1.4808696E-3,2.4614219E-5,-1.2586701E-4,1.5235445E-4,-4.048589E-5,2.8020598E-4,4.7001704E-5],"categories":[],"categories_nodes":[],"categories_segments":[],"categories_sizes":[],"default_left":[0,0,0,0,0,0,0,0,0,0,0,0,0],"id":44,"left_children":[1,3,5,-1,7,9,11,-1,-1,-1,-1,-1,-1],"loss_changes":[9.175016E-6,8.653093E-6,2.1942678E-5,0E0,8.473919E-6,9.786132E-6,1.4709323E-5,0E0,0E0,0E0,0E0,0E0,0E0],"parents":[2147483647,0,0,1,1,2,2,4,4,5,5,6,6],"right_children":[2,4,6,-1,8,10,12,-1,-1,-1,-1,-1,-1],"split_conditions":[-3.6468038E-1,-8.9085686E-1,8.297051E-2,-1.7724083E-4,1.4741364E-1,-1.8216224E0,9.1554105E-1,2.4614219E-5,-1.2586701E-4,1.5235445E-4,-4.048589E-5,2.8020598E-4,4.7001704E-5],"split_indices":[23,2,10,0,0,21,14,0,0,0,0,0,0],"split_type":[0,0,0,0,0,0,0,0,0,0,0,0,0],"sum_hessian":[5.5E1,2.1E1,3.4E1,3E0,1.8E1,2.3E1,1.1E1,1.4E1,4E0,2E0,2.1E1,4E0,7E0],"tree_param":{"num_deleted":"0","num_feature":"24","num_nodes":"13","size_leaf_vector":"1"}},{"base_weights":[6.3028114E-5,-2.6756283E-4,5.489874E-4,1.3287876E-4,-4.6491247E-4,-1.0639166E-4,1.7911221E-3,1.4451546E-5,-9.130835E-5,2.3526463E-5,-1.1901767E-4,3.4528208E-4,6.617525E-5],"categories":[],"categories_nodes":[],"categories_segments":[],"categories_sizes":[],"default_left":[0,0,0,0,0,0,0,0,0,0,0,0,0],"id":45,"left_children":[1,3,5,-1,7,9,11,-1,-1,-1,-1,-1,-1],"loss_changes":[9.143499E-6,1.1329101E-5,1.891415E-5,0E0,8.598921E-6,6.204518E-6,1.2728462E-5,0E0,0E0,0E0,0E0,0E0,0E0],"parents":[2147483647,0,0,1,1,2,2,4,4,5,5,6,6],"right_children":[2,4,6,-1,8,10,12,-1,-1,-1,-1,-1,-1],"split_conditions":[2.4128982E-1,-1.8216224E0,8.297051E-2,1.3287876E-4,-3.19008E-1,-4.4309488E-1,9.1554105E-1,1.4451546E-5,-9.130835E-5,2.3526463E-5,-1.1901767E-4,3.4528208E-4,6.617525E-5],"split_indices":[21,21,10,0,3,15,14,0,0,0,0,0,0],"split_type":[0,0,0,0,0,0,0,0,0,0,0,0,0],"sum_hessian":[5.5E1,3.3E1,2.2E1,3E0,3E1,1.5E1,7E0,1.3E1,1.7E1,1.2E1,3E0,2E0,5E0],"tree_param":{"num_deleted":"0","num_feature":"24","num_nodes":"13","size_leaf_vector":"1"}},{"base_weights":[6.3367916E-5,3.9212496E-4,-3.9131334E-4,1.742523E-4,3.6820248E-4,-1.0365457E-3,6.492917E-5,-2.7437534E-5,1.5544321E-4,-2.6524807E-5,-1.5065362E-4,4.295135E-5,-1.04505605E-4],"categories":[],"categories_nodes":[],"categories_segments":[],"categories_sizes":[],"default_left":[0,0,0,0,0,0,0,0,0,0,0,0,0],"id":46,"left_children":[1,3,5,7,-1,9,11,-1,-1,-1,-1,-1,-1],"loss_changes":[8.524304E-6,2.3012111E-5,7.132481E-6,2.0240477E-5,0E0,3.2254193E-6,6.5191134E-6,0E0,0E0,0E0,0E0,0E0,0E0],"parents":[2147483647,0,0,1,1,2,2,3,3,5,5,6,6],"right_children":[2,4,6,8,-1,10,12,-1,-1,-1,-1,-1,-1],"split_conditions":[1.4496548E-1,2.3209698E0,-2.6307908E-1,-1.9067946E-1,3.6820248E-4,-6.747608E-1,1.4578892E0,-2.7437534E-5,1.5544321E-4,-2.6524807E-5,-1.5065362E-4,4.295135E-5,-1.04505605E-4],"split_indices":[2,13,10,2,0,9,14,0,0,0,0,0,0],"split_type":[0,0,0,0,0,0,0,0,0,0,0,0,0],"sum_hessian":[5.5E1,3.2E1,2.3E1,3.1E1,1E0,9E0,1.4E1,2.4E1,7E0,4E0,5E0,1.1E1,3E0],"tree_param":{"num_deleted":"0","num_feature":"24","num_nodes":"13","size_leaf_vector":"1"}},{"base_weights":[6.162883E-5,-4.130616E-4,3.5824487E-4,-1.4125125E-4,-1.6008955E-4,-1.2144545E-4,1.2877717E-3,7.4876756E-5,-4.2850745E-5,-4.7443926E-5,8.036023E-5,2.2584914E-4,2.7175895E-5],"categories":[],"categories_nodes":[],"categories_segments":[],"categories_sizes":[],"default_left":[0,0,0,0,0,0,0,0,0,0,0,0,0],"id":47,"left_children":[1,3,5,7,-1,9,11,-1,-1,-1,-1,-1,-1],"loss_changes":[8.032821E-6,6.876914E-6,1.576237E-5,5.1784573E-6,0E0,8.218127E-6,1.1221398E-5,0E0,0E0,0E0,0E0,0E0,0E0],"parents":[2147483647,0,0,1,1,2,2,3,3,5,5,6,6],"right_children":[2,4,6,8,-1,10,12,-1,-1,-1,-1,-1,-1],"split_conditions":[-3.6468038E-1,-4.7583562E-1,8.297051E-2,-7.8530204E-1,-1.6008955E-4,-1.2737326E-1,8.259574E-1,7.4876756E-5,-4.2850745E-5,-4.7443926E-5,8.036023E-5,2.2584914E-4,2.7175895E-5],"split_indices":[23,23,10,21,0,15,22,0,0,0,0,0,0],"split_type":[0,0,0,0,0,0,0,0,0,0,0,0,0],"sum_hessian":[5.5E1,2.1E1,3.4E1,1.8E1,3E0,2.3E1,1.1E1,4E0,1.4E1,1.7E1,6E0,5E0,6E0],"tree_param":{"num_deleted":"0","num_feature":"24","num_nodes":"13","size_leaf_vector":"1"}},{"base_weights":[5.828514E-5,-2.4604594E-4,5.0563173E-4,1.190807E-3,-4.2350934E-4,-6.118631E-5,1.5760638E-3,4.0622337E-5,1.7722789E-4,9.184494E-6,-8.008122E-5,2.5157058E-5,-1.0623497E-4,2.987084E-4,6.0787657E-5],"categories":[],"categories_nodes":[],"categories_segments":[],"categories_sizes":[],"default_left":[0,0,0,0,0,0,0,0,0,0,0,0,0,0,0],"id":48,"left_children":[1,3,5,7,9,11,13,-1,-1,-1,-1,-1,-1,-1,-1],"loss_changes":[7.74833E-6,9.173938E-6,1.4051458E-5,1.1049119E-6,6.101334E-6,5.277187E-6,9.113273E-6,0E0,0E0,0E0,0E0,0E0,0E0,0E0,0E0],"parents":[2147483647,0,0,1,1,2,2,3,3,4,4,5,5,6,6],"right_children":[2,4,6,8,10,12,14,-1,-1,-1,-1,-1,-1,-1,-1],"split_conditions":[2.4128982E-1,-1.8216224E0,8.297051E-2,-4.3825096E-1,-3.19008E-1,-4.4309488E-1,9.1554105E-1,4.0622337E-5,1.7722789E-4,9.184494E-6,-8.008122E-5,2.5157058E-5,-1.0623497E-4,2.987084E-4,6.0787657E-5],"split_indices":[21,21,10,2,3,15,14,0,0,0,0,0,0,0,0],"split_type":[0,0,0,0,0,0,0,0,0,0,0,0,0,0,0],"sum_hessian":[5.5E1,3.3E1,2.2E1,3E0,3E1,1.5E1,7E0,2E0,1E0,1.3E1,1.7E1,1.2E1,3E0,2E0,5E0],"tree_param":{"num_deleted":"0","num_feature":"24","num_nodes":"15","size_leaf_vector":"1"}},{"base_weights":[6.0052622E-5,3.5977145E-4,-3.5456294E-4,1.6878656E-4,3.2356437E-4,-9.1841066E-4,4.4973054E-5,-2.2773607E-5,1.3868215E-4,-2.2392325E-5,-1.3440817E-4,3.629525E-5,-9.202085E-5],"categories":[],"categories_nodes":[],"categories_segments":[],"categories_sizes":[],"default_left":[0,0,0,0,0,0,0,0,0,0,0,0,0],"id":49,"left_children":[1,3,5,7,-1,9,11,-1,-1,-1,-1,-1,-1],"loss_changes":[7.086575E-6,1.7579054E-5,5.4479633E-6,1.577114E-5,0E0,2.6552598E-6,4.93761E-6,0E0,0E0,0E0,0E0,0E0,0E0],"parents":[2147483647,0,0,1,1,2,2,3,3,5,5,6,6],"right_children":[2,4,6,8,-1,10,12,-1,-1,-1,-1,-1,-1],"split_conditions":[1.4496548E-1,2.3209698E0,-2.6307908E-1,-1.9067946E-1,3.2356437E-4,-6.747608E-1,1.4578892E0,-2.2773607E-5,1.3868215E-4,-2.2392325E-5,-1.3440817E-4,3.629525E-5,-9.202085E-5],"split_indices":[2,13,10,2,0,9,14,0,0,0,0,0,0],"split_type":[0,0,0,0,0,0,0,0,0,0,0,0,0],"sum_hessian":[5.5E1,3.2E1,2.3E1,3.1E1,1E0,9E0,1.4E1,2.4E1,7E0,4E0,5E0,1.1E1,3E0],"tree_param":{"num_deleted":"0","num_feature":"24","num_nodes":"13","size_leaf_vector":"1"}},{"base_weights":[5.8099926E-5,-3.781716E-4,3.3066774E-4,-1.4668472E-4,-1.2907297E-4,-5.0875515E-4,7.3660136E-4,8.503691E-6,-1.299338E-4,4.3226446E-5,-1.03329796E-4,1.4786828E-4,-2.7482984E-5],"categories":[],"categories_nodes":[],"categories_segments":[],"categories_sizes":[],"default_left":[0,0,0,0,0,0,0,0,0,0,0,0,0],"id":50,"left_children":[1,3,5,-1,7,9,11,-1,-1,-1,-1,-1,-1],"loss_changes":[6.7842093E-6,5.7767966E-6,1.2300998E-5,0E0,4.8712322E-6,6.369919E-6,1.841993E-5,0E0,0E0,0E0,0E0,0E0,0E0],"parents":[2147483647,0,0,1,1,2,2,4,4,5,5,6,6],"right_children":[2,4,6,-1,8,10,12,-1,-1,-1,-1,-1,-1],"split_conditions":[-3.6468038E-1,-8.9085686E-1,-6.9133294E-1,-1.4668472E-4,1.6003919E0,-1.2459002E0,9.019268E-1,8.503691E-6,-1.299338E-4,4.3226446E-5,-1.03329796E-4,1.4786828E-4,-2.7482984E-5],"split_indices":[23,2,22,0,18,22,23,0,0,0,0,0,0],"split_type":[0,0,0,0,0,0,0,0,0,0,0,0,0],"sum_hessian":[5.5E1,2.1E1,3.4E1,3E0,1.8E1,1.1E1,2.3E1,1.6E1,2E0,4E0,7E0,1.3E1,1E1],"tree_param":{"num_deleted":"0","num_feature":"24","num_nodes":"13","size_leaf_vector":"1"}},{"base_weights":[4.8578793E-5,-2.3345457E-4,4.0763835E-4,1.0933694E-4,-4.084146E-4,-1.4938883E-4,1.4145076E-3,3.414084E-5,-6.625133E-5,-5.135132E-5,6.0375805E-5,2.0472624E-4,1.1174847E-5],"categories":[],"categories_nodes":[],"categories_segments":[],"categories_sizes":[],"default_left":[0,0,0,0,0,0,0,0,0,0,0,0,0],"id":51,"left_children":[1,3,5,-1,7,9,11,-1,-1,-1,-1,-1,-1],"loss_changes":[5.7661036E-6,7.875066E-6,1.4232651E-5,0E0,5.751529E-6,4.972103E-6,7.190167E-6,0E0,0E0,0E0,0E0,0E0,0E0],"parents":[2147483647,0,0,1,1,2,2,4,4,5,5,6,6],"right_children":[2,4,6,-1,8,10,12,-1,-1,-1,-1,-1,-1],"split_conditions":[2.0562366E-1,-1.8216224E0,-2.6358148E-1,1.0933694E-4,-2.6711318E-1,9.328862E-1,1.338639E0,3.414084E-5,-6.625133E-5,-5.135132E-5,6.0375805E-5,2.0472624E-4,1.1174847E-5],"split_indices":[21,21,14,0,14,4,7,0,0,0,0,0,0],"split_type":[0,0,0,0,0,0,0,0,0,0,0,0,0],"sum_hessian":[5.5E1,3.1E1,2.4E1,3E0,2.8E1,1.6E1,8E0,7E0,2.1E1,1.1E1,5E0,5E0,3E0],"tree_param":{"num_deleted":"0","num_feature":"24","num_nodes":"13","size_leaf_vector":"1"}},{"base_weights":[4.9116377E-5,-2.5462755E-4,3.406927E-4,-3.857717E-4,9.6683114E-5,8.070821E-4,-3.8728243E-4,9.867711E-6,-7.476127E-5,-7.275487E-5,1.45329E-4,9.007448E-5,-7.349624E-5],"categories":[],"categories_nodes":[],"categories_segments":[],"categories_sizes":[],"default_left":[0,0,0,0,0,0,0,0,0,0,0,0,0],"id":52,"left_children":[1,3,5,7,-1,9,11,-1,-1,-1,-1,-1,-1],"loss_changes":[5.046364E-6,4.858217E-6,1.0158645E-5,4.6314017E-6,0E0,1.8907765E-5,6.0358684E-6,0E0,0E0,0E0,0E0,0E0,0E0],"parents":[2147483647,0,0,1,1,2,2,3,3,5,5,6,6],"right_children":[2,4,6,8,-1,10,12,-1,-1,-1,-1,-1,-1],"split_conditions":[-4.8039664E-2,1.721877E0,9.074394E-1,-8.74301E-1,9.6683114E-5,-1.1758397E0,-1.1706958E0,9.867711E-6,-7.476127E-5,-7.275487E-5,1.45329E-4,9.007448E-5,-7.349624E-5],"split_indices":[9,3,9,9,0,2,21,0,0,0,0,0,0],"split_type":[0,0,0,0,0,0,0,0,0,0,0,0,0],"sum_hessian":[5.5E1,2.7E1,2.8E1,2.5E1,2E0,1.7E1,1.1E1,1.1E1,1.4E1,5E0,1.2E1,2E0,9E0],"tree_param":{"num_deleted":"0","num_feature":"24","num_nodes":"13","size_leaf_vector":"1"}},{"base_weights":[4.6364472E-5,2.4113961E-4,-3.7822413E-4,9.8806406E-5,2.8249007E-4,6.151914E-4,-6.1792E-4,8.9535475E-5,-1.7927254E-5,1.03380844E-4,-3.2032982E-5,-8.4728315E-5,2.2464945E-5],"categories":[],"categories_nodes":[],"categories_segments":[],"categories_sizes":[],"default_left":[0,0,0,0,0,0,0,0,0,0,0,0,0],"id":53,"left_children":[1,3,5,7,-1,9,11,-1,-1,-1,-1,-1,-1],"loss_changes":[4.7223657E-6,1.40633265E-5,4.666256E-6,8.577639E-6,0E0,1.89766E-6,3.0891574E-6,0E0,0E0,0E0,0E0,0E0,0E0],"parents":[2147483647,0,0,1,1,2,2,3,3,5,5,6,6],"right_children":[2,4,6,8,-1,10,12,-1,-1,-1,-1,-1,-1],"split_conditions":[4.0599358E-1,2.3209698E0,-1.1706958E0,-5.561645E-1,2.8249007E-4,2.6762617E-1,1.360267E0,8.9535475E-5,-1.7927254E-5,1.03380844E-4,-3.2032982E-5,-8.4728315E-5,2.2464945E-5],"split_indices":[2,13,21,16,0,0,22,0,0,0,0,0,0],"split_type":[0,0,0,0,0,0,0,0,0,0,0,0,0],"sum_hessian":[5.5E1,3.8E1,1.7E1,3.7E1,1E0,3E0,1.4E1,9E0,2.8E1,2E0,1E0,1.1E1,3E0],"tree_param":{"num_deleted":"0","num_feature":"24","num_nodes":"13","size_leaf_vector":"1"}},{"base_weights":[4.821351E-5,-5.5454543E-4,1.7543427E-4,-9.446455E-4,6.705699E-5,2.6836563E-4,6.256735E-5,-1.0483899E-6,-1.2542853E-4,3.330699E-5,-4.1847055E-5],"categories":[],"categories_nodes":[],"categories_segments":[],"categories_sizes":[],"default_left":[0,0,0,0,0,0,0,0,0,0,0],"id":54,"left_children":[1,3,5,7,-1,-1,9,-1,-1,-1,-1],"loss_changes":[4.3915593E-6,5.4126267E-6,1.313757E-5,2.3008802E-6,0E0,0E0,6.1249907E-6,0E0,0E0,0E0,0E0],"parents":[2147483647,0,0,1,1,2,2,3,3,6,6],"right_children":[2,4,6,8,-1,-1,10,-1,-1,-1,-1],"split_conditions":[-8.9085686E-1,8.485144E-1,-8.5219073E-1,-4.638509E-1,6.705699E-5,2.6836563E-4,1.7338474E-1,-1.0483899E-6,-1.2542853E-4,3.330699E-5,-4.1847055E-5],"split_indices":[2,7,2,9,0,0,12,0,0,0,0],"split_type":[0,0,0,0,0,0,0,0,0,0,0],"sum_hessian":[5.5E1,9E0,4.6E1,7E0,2E0,1E0,4.5E1,2E0,5E0,2.9E1,1.6E1],"tree_param":{"num_deleted":"0","num_feature":"24","num_nodes":"11","size_leaf_vector":"1"}},{"base_weights":[4.697059E-5,-2.4627527E-4,3.093262E-4,-3.6738347E-4,8.450514E-5,9.6345064E-4,-1.2008537E-4,5.594365E-6,-7.0399365E-5,-2.1025606E-5,2.1722E-4,1.3253377E-4,-4.739358E-5],"categories":[],"categories_nodes":[],"categories_segments":[],"categories_sizes":[],"default_left":[0,0,0,0,0,0,0,0,0,0,0,0,0],"id":55,"left_children":[1,3,5,7,-1,9,11,-1,-1,-1,-1,-1,-1],"loss_changes":[4.3845225E-6,3.87901E-6,8.542355E-6,3.6017889E-6,0E0,1.7481325E-5,1.0345932E-5,0E0,0E0,0E0,0E0,0E0,0E0],"parents":[2147483647,0,0,1,1,2,2,3,3,5,5,6,6],"right_children":[2,4,6,8,-1,10,12,-1,-1,-1,-1,-1,-1],"split_conditions":[-8.325616E-2,1.721877E0,1.9144571E-1,-8.74301E-1,8.450514E-5,-6.9133294E-1,-4.4309488E-1,5.594365E-6,-7.0399365E-5,-2.1025606E-5,2.1722E-4,1.3253377E-4,-4.739358E-5],"split_indices":[9,3,22,9,0,22,15,0,0,0,0,0,0],"split_type":[0,0,0,0,0,0,0,0,0,0,0,0,0],"sum_hessian":[5.5E1,2.6E1,2.9E1,2.4E1,2E0,1.1E1,1.8E1,1.1E1,1.3E1,6E0,5E0,3E0,1.5E1],"tree_param":{"num_deleted":"0","num_feature":"24","num_nodes":"13","size_leaf_vector":"1"}}]},"name":"gbtree"},"learner_model_param":{"base_score":"[1.4866195E-2]","boost_from_average":"1","num_class":"0","num_feature":"24","num_target":"1"},"objective":{"name":"reg:squarederror","reg_loss_param":{"scale_pos_weight":"1"}}},"version":[3,1,1]}